#include "mnist_model.hpp"
using namespace dl;

namespace mnist_coefficient
{
    const static __attribute__((aligned(16))) int16_t sequential_conv2d_biasadd_filter_element[] = {
         -3227,   7344,  17907,  -6663,   9496,  -2533,    490,   1630,   -333,  -7568,  -2212, -18012,  -2946,   -446,   9135,   4022,  -9804,  -6970, -14666,  -8653,  -5561,   4532,  17072,  -8669, -12738,  -1624,  12344,  -9746,  -6977,  -6946, -11334,  -8615, -16254, -20303,  -9788, -24291,  -1297,  -3827,  -9087,   7669,  -9760,  -8162,  -4274, -18901,   -966,  -5782,  -2067,  -2121,    129,  -1404,   -183,   8883,  10873,  -9956,   9331,    440,   7426,   -286, -11780, -14268,  12377,   3880,  -2377,  12218,  10080, -12004,   3580,   6987,   5761,    725, -14273, -10784,  -9401,   2704,   7522,  -2027,  10183,  -7923,   -406,   5623, -14071,   7767,  -2235,  -5110,  -7963,   -158,   9450,  19369, -17763,   6508, -10553,   1812,  -7082,  -9376,  12385,  -2544,    -27,  -9201,   8299,  -4939, -11454,   -683,  -1945,  -7561,  -6393, -24806, -18856,  -1630, -14215,   5671,  -3787,  14550,  -4713, -26431, -13918,   9451,  -7243,   4598,   -651, -12581,  13846, -14836,  -5337,   2014,  12608,  -4114,   4730, -14642,  16781, -11782, -11778,  -3079,   3296,  -1552, -18502,  12354,   5640, -28636,  10260,  17125,  13375,   2682,  -6046,    213,   3648,  13021,  -3104,  -2301,    142,  -8064,   7866, -18217,  -4654,  17972,   -448,   4772,   7840,  -4023,   4655,  -3962,   -165,  20317,  -8222,   4776,   3703,   -718,  14418,  -2743,   -421,   4184,   4477,  10978,  -4066,  -8435,   4548, -13436,   9716,   3085,   2797,  -2556, -17446,  -7736,  -9629,  14501,  13580,   9627,  -7125,  17162, -15184,  -2775,   7461,   -813,   6663,   -244,  -2259,  13866,   1535,  -4455,  -3047,   3826,   6899,  -8633,  -5983,   4890,   2476,  -7251,  -9401,  12410,   5170,  -7995,  18890,   9849,  -3928,   2840,  -5274,  -8322,   2211,   8951,   5993, -13054,  -6302,   7320,  -4111,  -5228, -13172,  -9209,   2720, -15084, -11825,   6358,  11082,   5389,  -3867,   2283,   4826, -15894,   4624,   4910,   3489,  -5665,  -6320,   6385,  -6139, -15393,   1786,  -1088,  -9143, -14090,  -7669,  -1789, -12494,  -7380, -11643,  12202,   9693, -16299,  -1094,  -5682,  -2858,  -6814,   7562,  12976, -13090, -10658,  -4202,  -4296,   7230,  -7663,  -5323,  -7165, -13921, -15164,    527,    -10,   4862,  -7575,   5116,   5450,   1880, -14302,  20109,   7713,   8940,  -5645,  11693,  10337,   -237, -10518,  -1917,  14881,   7462,  12397,   1161,  -2403,    943,  -9312,  -9101,  -5318, -13675,  -1594,    146,   9050,   8266,   -645,   2333,  -7528,    876,   8589,  -3572,   1768, -13275,  -6310, -16945,  13358,   2808,   5039, -11542, -13618,   6063,   8782, -11451,  -9625,  -1637,   8798,   5199,  -6090,  15490,  -1369,  -3858,  -5414,  -8388,    987,   6292,   9397,   9476,   3983, -18238,  11592,   7841,   5115,   3966, -11699, -12176,  13903,  -3410,  -1805,   6511,  -4771,  -2553,  -1874,   6513,  16011,  -9824,  -9068,  10257,   9160,  14828,  -8259, -13217,  17553,  11506,  10975,   -870,   6581, -13242,  -7398, -12469,   6240,  11376,   2444, -11419,   7988, -13991,  -7491,   7932,   4543,     10, -12682, -12586,   6474,   2707,   6923, -13935,   1635,   7659,  13392,  11117,   1761,  -5072, -11775,   4115,   7121,   5345,  -6158,   4322,   1422, -12586,  -2228,  14110,  13574,   1766,  -6987,  -4602,   6153,   8891,   5386,  -9540,   3299,  -8336,   7830,   9782,  11960,  -7481, -18052,   3814,   6537,   1060, -11576,   4658,   3878,   6464,  -8604,   6991,  -7764,  -5736,  -4459,  -2489,  -1992,  14334,  -2857,  -6933,   2153,  -4970,  -9205,  -8242,  13619,  -3970, -12608,  10665,  -2600,   7866,  -7070,  -9100,    289,  -9288,  -5877,   7815,  -3400,    946,  -4042,   1135, -18456,  -5433, -15212,    841,   3156,   -714,   9243,  -9646,  -1531,   4532,  -3414,   6334, -15121,  11214,  -3535, -18737,  10749,   1915,    749,  -6290,   6869,   4290,  -4709, -22181, -19767,   3775,  -4133,   3049,   -383,  -7987,  10896,  16678,  -1377,  -6523,   6692,  -9751, -13597,   9526,   2184,  12106,  11153,  -9192,  14769,  -6517,   5806,  -3885,   9817,   2871, -11903,  -7299,  18282,  -5540,  11722,   -319, -20066,   6058,  11530,  -5857,  -2040,  15499,   -577,
        -11354, -16465,  13722,   2874, -10305,     30,  11969,    892, -14209,  -2301,  21029, -16022,  -2221,  -9312,  13048,  -4454, -11718,   3799,  -4895,   6305,  -5768,  -7052,  -6378, -11458,  -6497,   3007,    197,   4357,   3301,  -6157,  -7926,  10311, -12214,   1144,  -5065, -15084,  -3496, -12776,   2515,  -3551, -10938,  14759,  -6889,    214,  -3044,   1878,  -9046, -15589,   1635,  10821, -14156,   4074,   4718,  13994, -18060,   2583, -15140,   6608, -20025,  -4442,  -1304,  15207,  -5187,   9500,  10329, -16809,  -6900,   1787,  -6320,   2523,   9976,  -3069,   3912,   -740,   4867,   -432,  -3025,    411,  15768,  -9079,  13413, -13254,   9683,  -8986,  -7809,   1525,   -197,  -1081,   5963,   8697,   4867,  -4488,  -9058,  -2296,   4074, -19608,  10127,   -171,  14055,   9464,   3186,  -8579,   5788,   9331,   1049,   2974,  10169,  -4942,  -3394,  -9441,   5378,   1666,   7542,   7723,   2581,   7458,    341,   2396, -13069, -21220,   6704,    152,  -5027,  -1914,   -733,  -2444, -10588,  11427,   6384,   6899,  -2271,   -808, -11156,  10188, -17220,   5203,  -8086,   9040,   -443,  14462,  -5472,  11120, -12599,   6676, -13479, -12661,   9602,  10984,   2758,   4344,   -451,   8763, -12481,  -4201,  10459,   4900,   8823,  13519,   7666,   6671,   7543,   7396,  -8068,  14108,   4060,   3643,  -7066, -11673,   9937,  -6186, -15749,    883,   3768,  15332,     32, -10475,   6740,  12711,  -3340,   9763,   9293,  14291,  10873, -13808,   8318,  10576,   9513,  13915,   2816,  -7892,  -9326, -10494,  11260,  -9051,  -5751,   2976,  -5801,   8007,   1885,   4819,   6438,  16816,   6140,   3308,   9566,    151,   9396, -11914,   -862,  10969,   4569,  -8959,  -2643,  -4743, -10589,   6883,   4999, -23126,  15671, -11785,  -5381, -10066,   7625,   2934,   4065,  -7383,   3112,  -9347,   7318,   -768,   6576,    579,  12995,   2303, -19284, -13324,    211,   4316, -12015,   1427,  19682, -18928, -10422,  -3295,   -902,   2086,     79,   7587,  16212, -11170, -23248,    572,  11887,   7684,  14334,   8594,  -9184,   -204,  17932,  -5351,  -5436,  13243, -13186, -16517, -11018, -12103,   2380, -12004,   9059,   4367,   9270,  -5004,  -2371,   5620,   1581, -15486,   5239,  12196,   4981,  -3039,   3958,  -4597,  -6807,  -8787,  -6746,  -7098, -13032,  -1246,   9549,   3565,   1893,  -4625,  -3762, -15031,   5482,   3971,  -4030,   5537,  12204,   3416,  -8125, -12564,   6716,   4555,  -8349,    920,  -9098,   1870,   3972, -14541, -11857,     46,  -9111,  -6639, -19668,  -1058,   2382, -16259,  -1097,   -365,  -3135,   7700, -16954,   9856,  -6139, -16795,   9913,   7878, -15358,   1270,  14567,  -9827,   3227,   4327,  -1144,  -6589, -14717,  -7735,  12904,   8364,   -105,  -3407,   7536,   7411, -15192,   4418,  13448,  -5490,   3236, -11407,   2420,   9464};

    const static Filter<int16_t> sequential_conv2d_biasadd_filter(sequential_conv2d_biasadd_filter_element, -16, {3, 3, 3, 32}, {1, 1});
    const Filter<int16_t> *get_sequential_conv2d_biasadd_filter()
    {
    	return &sequential_conv2d_biasadd_filter;
    }

    const static __attribute__((aligned(16))) int16_t sequential_conv2d_biasadd_bias_element[] = {
           634,   -857,   1845,  -2507,    216,   -710,   -300,    170,   3315,   -314,  -5405,   -549,  -1224,    463,    102,    504,   -373,     68,    799,  -1074,   -541,    111,    110,  -1124,    -74,    727,     23,      1,  -5093,   -512,    162,  -2021};

    const static Bias<int16_t> sequential_conv2d_biasadd_bias(sequential_conv2d_biasadd_bias_element, -14, {32,});
    const Bias<int16_t> *get_sequential_conv2d_biasadd_bias()
    {
    	return &sequential_conv2d_biasadd_bias;
    }

    const static Activation<int16_t> sequential_conv2d_biasadd_activation(ReLU);
    const Activation<int16_t> *get_sequential_conv2d_biasadd_activation()
    {
    	return &sequential_conv2d_biasadd_activation;
    }

    const static __attribute__((aligned(16))) int16_t sequential_conv2d_1_biasadd_filter_element[] = {
         -1857,   -886, -13544,   2206,   2120, -10024,  -3836,  -3330,   -634,   2795,   1788,  -1046,  -3232,   2987,  -2656,   2339,   -708,   -684,  -3856,  -2531,  -3131,   2007,  -3767,   -885,  -5107,   9414,    987,  -4222,   2211,  -4662,  -2644,  -4961,   3141,  -4984,  -2376,    466,  -2948,  -3010,  -8880,  -4369,   -159,    885,    411,   1133,  -1212,   -805,   1087,   1653,   4451,    333,   -309,    197,    399,   8516,  -7651,  -2436,   1566,   1365,  -5988,   5059,   -930,    467,  -6556,    122,  -4125,  -4307,  -5397,   -633,  -4652,   5290,   -767,   -913,   2942,  -5454,   3598,  -3014,    531,   1947,  -1515,   1663,  -1479,  -6898,  -4915,  -5101,  -6440,  -4012,   2566,    342,   1411,   1099,  -6656,  -4788,   3870,   1840,  -2606,   -585,   2652,   6116,    544,  -2030,  -8280, -13430,  -1488,   1912,   3612,   3059,   4228,  -2952,  -4540,   4439,  -2444,  -2793,   2459,   4435,  -1234,   3667,  -2477,  -1455,  -4049,  -1828,  -1754,  -1141, -14197,   1190,   2378,  -4326,  -9674,   -179,  -4326,    -31,    -18,   -105,   3163,  -1083,   -725,    -13,   6609,   3446, -11700,   4787,    446, -13102,  -5751,  -1403,   4159,   7989,  -6742,   5540,    663,   4296, -13789,   1774,   -499,    543,  10064,  -3699,   3865,  -4295,  -1959,    146,   2177,    478,   2477,   2048,   2615,    546,    477,   1603,   2920,   -756, -15128,   1966,    515,  -8810,  -8530,  -7101,   3309,  -5736,   1089,  -5802,   2944,   8051, -25015,  -2088,  -4218,   2207,   2329,   2562,  -8245,  -6836,    107,   2792,    280,  -1595,   3468,  -7549, -10449,   2393, -14390,   -129,    294,   2078,  -9355,   3004, -10747,    409,  -4248,   -178,   2318,   -805,  -1417,   2063,  -1859,  -2059, -12503,   1903,   4910,    301,   4689,  -2357,   2403,   4104, -19987,   5106,   3199,    610,    526,  -3380,  -8614,  -2267,   1917,    910,   -165,   5232,   4167,  -2396,   5049,   1545, -15309,   1928,    507,   2944,   5256,   2742,  -4921,  -4905,   4409,  -1733,  -1334,  -1892,  -5082,  -2638,    134,   3687,  -3266,   1116,   3943,  -4491, -11570,   1524,   2124,   -946, -11617,    560,  -3950,  -5781,   4891,   7297,  -3094,  -4614,   2423,  -5763,  -5975,   8017, -13856,   3155,  -7318,  -1059,  -5072,    527,  -3998,   3776,   3137,  -7850,   -349,  -2974,  -2126,  -5743,  -1352,    906,  -6980,   2281,   8090,  -2253,  -3111,  -3774,    -33,   -288,   1874,   2374,    -66,    982,  -1849,   -277,   1414,  -3717,  -2177,  -1436,    987,  -1654,   -436,  -1208,   3731,   4930,  -5381,   2040,    303,  -6364,  -5392,  -1741,  -1776,  -3518,  -7260,      0,  -2500,  -6131,  -1480,  -4211,  -2603,   8456,  -2395,   2469,   -519,  -1337,   -151,   2010,  -3862,   2790, -10023,  -1910,  -8691,   2676,    108,   3300,   1220,   5718,  -4274,  -4545,    781,  -4863,  -8849,  -3082,   6884,  -1105,    586,    189, -11215,   1269,    657,   -298,   1136,   1879,   1778,    -94, -10952,  -4315,  -3024,  -1691,  -1043,   7696,  -4638,   4065,   -179,  -6866,  -2442,   2186,    495,  -3186,  -8493,  -2543,  -6055,   -329, -13811,   2319,   2575,   3687,  -2339,  -2733,   2985,  -4656,  -2493,  -4576,   4640,   3935,  -1493,   2194,   1352,  -1745, -11262,   3156,   2791,    251, -13574,  -3109,   -214,  -4404,  -9708,  -3146,    686,   8358,   1770,  -1591,   -298,    488,   1539,   1189,   1388,  -1543,  -1294,   2256,  -1418,   1017,   2075,  -1722,   6897,  -8317,  -9237,   1222,   6066,  -2855,  -8872,   1830,  -1776,  -3826,  -1701,   1940,   2214,   1536,  -5463,   5044,   1274,    333,    520,   7834,  -7334,   -617,    603,  -5049,    155,  -3743,    -50,  -1042,  -3989, -11590,  -3090,   2641,  -3641,   7622, -11597,   3810,   -384,   1648,  -1889,  -4767,   2289,  -4351, -12370,  -1605,   1419,   -607,  -8566,   6730,   2102,  -2855,   3594,    665,  -3484,  -9263, -16585,   2880,   -958,  -1548,  -1932,   -901,  -8537,   -595,    330,   -834,  -1563,   4351,    250,  -3909,  -3022,  -1690,  -7288,  -4643,   1829,   -522,   2386,   2480,  -7766,  -4281,    649,  -2552,   2938,  -4337,  -4645,  -3278,  -6466,  -6485,  -3290,  -3097,
         -6939,  -3269,  -8358,  -4179,   -338,   2720,  -7126,   -658,   9614,  -9080,  10212,  -2229,  -4450,   1432,   5962,  -5905,    -26,   9977, -10907,   4530,  -8837,  -1078,   4933,   1289,  -5169,  -1639,   8635,   4854,  -1580,   1312,   2832,  -4217,  -6225,     12,  -6837,  -3143,  -1628,   1914,  -3442,    839,   1571,    510,    110,   2845,   1229,  -1028,   -717,   -512,  -1438,  -1909,  -2242,   2003,  -2041,  -7724,   -789,   4066,   2679,   1981,  -5010,  -8660,   3650,  -4628,  -7434,  -5530,  -3112, -12752,  -8471,  -4924,  -2566,  -1022,   4113,   6038,  -4869,   7536,  -4680,   4109,  -2065,    616,    407,  -3205,  -2015,   3139,  -8341,  -1225,  -5370,   2707,   3159,  -2024,   2038,  -1810,   -684,  -5328,  -7505,   6941,  -3117,   -714,  -1917,    680,  -2539,  -2890,  -4720,   2796,   1248,   3383,   1924,  -1315,   -174,   2423,  -8096,  -4332,  -1148,  -5610,   3820,   8593,  -2422,  -7267,   5034,  -4761,  -4407,  -6854,   2401,  -4427, -10623,  -2502,  -6859,   3570,  -5216,   1563,   4059,  -1281,  -2855, -12834,   3761,   4126,  -2889,  -6336,  -9035,  -2278,  -3444,  -7852,    579,   3402,  -2851,   -545,    149,  -6222,  -6033,  -7876,    418,   1553,  -3606,   2014,  -3768,  -2280,   2719,   1023,   3483,    911,   2599,  -1507,  -2181,   2217,   -871,  -1199,   3435,   2186,  -1130,    532, -13159,   -862,  -9199, -14460,   3039,    812,  -1570,   3109,  -2656,   2658,  -7898,   5996,  -4273, -10729,   2636,   2416,  -8203,  -2120,  -1625,   8663,  -2551,   3867,    383,   3695,    419,  -3086,  -6007,  12119,  -4145,  -9732,   5571,  -4158,   2090,   7082, -10613,   4740,   4195,   -290,   2314,   3644,  -5485,  -6180, -13929,    167,  -5754,  -4796, -10803,   8084,  -2205,  -7451,   -315,   3668,  -3103,  -9914,  -1382,  -3886,  -2565,  -2764,  -5356,  -5016,    473,  -2983,   1099,   1300,  -7253,   2812,  -4304,  -1317,   8431,  -3513,  -1336,    107,   1945,  -2044,  -3464,     19,  -1208,   4716,   1571,   2770,     11,    704,     94,  -5990,  -2433,   2634,   2538,  -3372,    535,  -1226,  -4578,  -1157,  -1336,  -6580, -12377,  -6542,   9578,   1997,   9545,  -2265,    836,  -2433,    491,  -1324,   3292,  -6938,   -384,  -1173,  -7568,   2485,  -2770,    256,  -7660,    200,  -3924,  -3519,  -5263,   1201,    200,   7291,   -928,  -2619,   8921,   2098,   4735,  -5527,  -6308,  -3399,  -1013,  -2550,    563,  -2109,  -2599,    107,    294,   1002,   5470,   4765,   1422,   -338,   2275,   4104,  -4293,  -5346,  -2333,  -1498,  -4279,   1721,  -5635,  -4537,  -4940,    795,   5990,  -3503,   8702,   4036,  -5540,   7746,  -6294,  -3238,  -1184,  -9900,   2869,   -458,   2149,  -2168,   -225,    311,   1155,  -9946,  -6728,  -2447,  -1102,  -7245,    114,  -3279,   -128,  -4472,   8112,  -3844,   3834,   3186,  -4171,   3831,    391,   2507,   1667,   7284,  -5537, -13985,  -2305,  -3001,    519,   3207,  -2790,  -7991,  -1630,   3156,  -2247,    554,    982,    639,   4872,   7533,  -3397,  -1892,  -5024,   1331,  -1776,  -3460,    961,  -1341,    274,  -3467, -13745,   4466,   2743,  -2412,   5503,    455,  -3711,    -31,  -1999,   2952,   4288,   3496,  -2957,   5353,   -368, -10276,  -2972,  -7939,    797,   8775,  11117,   2432,   1563,   -757, -22887,  -1912,   -339,  -4007,   8378,  -3049,    -36,    828,   1874,   -822,    557,   1068,  -2528,    495,   1719,   2297,    429,   2618,   2844,   1574,   3458,   6166,  -1798,  -7669, -14754, -13582,   3982,  -4214,   7195,   4066,  -3907,   3912,  -8086,  -3557,  -1218,   1497,  -3617,   -942,   1379,  -5361,   1882,  -2763,   3653,  -2525,  -4131,   5439,    130,  -7710,  -5763,  -2392,  -4569,    786,   2179,    850,  -2340,  -1462, -15901,    -74,  -5287,   8290,  -5125,   -966,   -800,  -3929,  -8817, -10961,   3687,   2934,   2409, -10302,   5720,   -715,  -1627,   5613,    238,  -5499,   -196,  -1448,  -3705,  -4081,   1013,  -1220,   1659,  -1199,   4092,   -555,   6099,   1483,  -5386,   4288,  -1274,   3709,   4453,   1927,  -3265,  -2956,   2331,   1853,   2213,  -1394,   2037,   -827,  -4311,  -2096,  -6908,    653,
          2098,   1144,  -7938,  -3276,  -5055,   1100, -10849,   5993, -16166,   4839,   2357,   4586,   1296,  -1192,   5968,  -9785,  -8184,   4932,  -7453,   5002,  -2603,    273,   1005,   4672,  -5311,   1261,   -993,   -800,   2597,  -6406,  -2882,  -2127,  -4912,   1182,  -4239,  -5597,   1324,   1589,  -3997,   3239,   2129,  -1231,   -175,   1662,    814,   2437,   -303,   1492,  -5464,  -1802,   -265,   2061,   -905,  -2445,   2585,  -3759,   4045,   5825,  -6796,   1438,    430,  -4490,  -4394,    553,  -3839,  -1476,   2823,   1472,    802,   -220,  -5188,  -2659,  -2614,     83,  -3595,   2036,  -2033,   3072,   1207,  -1813,  -1317,  -3528,  -6275,  -1173,  -3017,   1943,  -5952,  -2776,  -4029,  -1107,    125,  -9704,   1416,   -284,  -4847,     35,   3747,  -2359,   -167,   2007,  -6247,   2579,  -1444,    645,     32,   1504,    101,   1197, -17851,  -9884,   -684,  -1618,  -1423,   4882,  -7598,  -1645,   2436,  -9945,  -4546,    163,   -945,  -6308,  -5667,  -6393,  -2106,  -1978, -14260,   3067,  -2744,   2570,   2341,  -5911,    806,  -3494,  -2947,   3166,   2666,    675,  -7475,  -3224,  -6762,    -86,  -5379,   1833,  -2934,   8611,  -1556,  -6911,   5423,   -867,  -9698,  -6919,   1311,   8321,  -1642,   3879,   1133,   1850,   3098,   2003,    150,  -1686,   1796,    453,   -630,   -550,  -2088,    997,   4444,    318,  -3778,  -5607,  -3852,   -647,  -5465,   6990, -10938,  -4833,   3495,   8059,   3550,  -3539,   4902,  -1514,  -3965,    472,  -2628,   3399,  -4617,  -4052,  -3607,  -4370,   1514,  -3490,  -2033,  12133,  -9351,  -4684,   2748,  -3246, -19346,   2920,  -3563,   3480,  -8435,    593, -10434,  -3648,   2375,   3017, -11604,   2007,  -4783,  -1528,  -8172,   9929,    717,   1479,   3423,   4552,  -5005,  -9698,  -3437,   2811,   1182,  -8502,  -1314,     86,    609,   -408,    515,   1495,  -3324,   1987,   2171,    356,    -91,  -1398,  -1394,  -3275,    508,   -630,   -878,   -665,  -7453,  -4653,  -2108,  -1701,   -677,  -1974,  -3311,  -6775,   1229,  -2715,  -5667,  -3276,  -9787,   2274,  -1754,   2926,   1615,   -207,  -3894,  -4327,   3541,   8175,   1887,   4143,   4250,   5726,   1473,  -3717, -13328,  15687,  -3032,   3767,  -4654,  -2411,   5920,   3625,  -5283,  -3984,   7760, -10685,    446,  -4737,   3399,  -4379,  -5729,   3644,  -5369,  -3298,   2820,   1534,  -3470,   2610,    949,  -1910,   2281,    -13,  -1435,   2324,  -1517,   -452,   1711,   -387,  -4639,  -2380,   1311, -18548,  -1680,   9728,   3551,   5256,  -5273,  -1469,   2009,  -1673,  -3093,  -8067,   3429,  -2462,   -779,   -710,  -5184,  -9663,  -1583,   3334,  -4195,   7680,  -2987,  -2527,  -4932,  -2901,  -2222,  -3452,  -3575,   3417,  -8059,   4998,  -6298,   2934,  -1624,  -4359,     32,  -3580,  -2881,  -5226,  -1054,   1577,   -493,   -692,  -2911,  -1152,  -1988,   1817,    748,   3997,   2148,    684,   2863,  -4019,  -1915,   2520, -11735,  -3567,    245,   2556,   1814,   5527,  -7418, -10506,   1480,  -5693,     15,  -1725,   2355,  -7519,   1993,   5618,  -1836,   1497,  -5293,  -5626,   -292,   2526,    544,   -548,  -1446,    779,  -3120,  -2271,  -5618,   -202,  -6982,   3505,     92,   2258,   1624,  -4984,   1413,  -3736,  -9657,  -7830,    767, -10823,  -6513,   5335,  -6514,   9737,   6236,   3870,   1285,   2306,    469,  -2208,  -1004,   2028,    340,    921,   2201,    870,    902,   2188, -11534,  -1747,  -7272,  -3368,   6469,   2247,  -3201,   4695,  -6415,   2736, -12463,    -65,  -1129, -24795,   -585,   8105,  -5011,  -5962,  -3221,  14191,  -5696,    878,  -5774,   8694,   5905,  -7027,  -1362,   1218,    486,  -6885,   3440,  -4304, -19608,   6130,  -3966,  -4645,   -377,    213,  -7551,   3584,  -8929,   5481, -11641,  11713,   1464,  -2072,  -9153,  13360,  -1711,  -3712,   -169,   3399,  -5605,  -8445,   1049,  -2437,  -3130,  -7017,  -1717,    533,   -193,   5431,    -80,  -1009,  -1706,  -3553,  -1908,  -2572,   2647,     60,   4135,  -7121,   1358,  -3291,   2388,  -3391,  -2011,   4811,   2800,   4894,  -1115,  -1417,    529,  -6429,  -5809,   7785,    836,    596,
          1715,   2031,  -1035, -11574,      4,  -5303,  -4945, -11672,    312,  -3600,   4596,   1422,   9781,   6034,    918,  -2507,  -7894, -13837,   8866,   7327,  -2095,   2378,  -1745,    247, -11042,  -3118,  -4675,   -724,    644, -14177,   4407,   1732,  -6814,  -3020,   8160,   1140,   3454,  -2120,   1401,  -6159,    690,   2237,    106,  -2005,  -1192,   2108,  -2426,    704,   6513,   5043,   2666,  -1666,    186,    326,   6970,  -4786,    686,  -7632,   5074,   2503,  -5788,  -2844,  -7790,   -859,  -1449,   4819,   6341,   8484,   2427,   7773,   -386,   3514,   3974, -18878,   4886,   2753,  -2402,    204,   3091,    665,  -3303,  -3009,   2236,  -4067,  -5732,  -2114,   2937,  -8806,   2117,  -1080,   4849,  -1748,   1415,  -2495,  -5732,   1577,  -6559,  12410,   3170,   8770,  -5915, -13400,  -1169,  -6806,  -7345,   3219,  -1953,   6172,  -4897,  -2376,   2915,  -7904,   6366,  -9176,  11994,   -219,  -2137,  -3234,  -3393,   2051,   1955,   1075,   5732,  -1943,   1223,  -1113, -14593,   2726,   5373,  -2932,    -38,   2731,     85,  -1854,   6858,   3768,  -1147,    556,   2482,  -9004,   1184,  -3113,   -751, -15840,    810,   3987,   8820,   2494,   4586,    528,  -9464,  -1162,  -2700, -13734,   7246,   4982,  -2435,   -916,    933,   2447,  -2562,  -2077,   1869,  -1242,    851,   2238,   1410,   3328,  -3403,  11461,   3911,   1611,  -3902,  -6853,  -3158, -13618,   2174,   1026,   5242,   2616,   3887,   3050,  11325,  -2020,    -71,  -1339,  -4139,  -1939,   5028,   2078,   1783,  -7018,   6823,   2115,  -8096,  13579,  -7507,  -5607,   2325,  -1177,  -7863,  -1864,  11062,   9099,  -1698,   4225,   5115,   3069,  -5835,   5502,   4578, -11925,  -1000,   1479,  -6702, -15461,  -9901,    830,  -4901,  10577,  -1392,    967,   2931,     43,  -2359,  -4836,   2014,  -3198,   2316,     64,    984,   1811,  -5813,    999,   4004,   6580,   1784,    837,  -3828,    897,  -5201,   2245,   2855,  -3621,  -4446,   1320,    393,  -4829,    219,   -304,   3748,  -2704,   1764,  -1024,  -1224,   1584,   4732,  -3889,  -1114,   8136,    866,   4238,  -9217,   4760,  -8205,   -303,   4200,  -1666,  -6957,   -252,   4820,   1119, -14464,  -8485,   3468,   7862,  -1523,   5563,    648,  -1866,  -4742,   1255,  -1162,  -6957,    335, -10128,  -2363, -10784,  -6181,  -1939,  -5271,  -3461,   1860,    754,   6187,   2184,  -1491,  -2515,   -800,  -1280,  -2729,  -1157,    534,  -1973, -11701,    -99,   5020,  -8825,  -2304,   -784,   9325,  -4976,   4219,  -3907,   5034,  -1575,  -3753,  -1818,   2457,  -1804,  -9102,  10635,   7144,   8530,  -4664,   -393,   8018,   1173,  -1362, -11791,  -4215,  -4522,    505,   1809,   -358,  -1473,   1533,  -3664,   1813,   1035,  -5191,  -5078,  -1897,    809,   2070,  -1121,   4074,   5378,   3070,  -1806,  -4748,  -1666,  -3513,   3946,  -1051,  -2247,   -354,   1249,   1488,    127,  -5090,   6403,   1180,    248,  -7589,  -7430,   4131,  -7546,   2208,  -6734,   4397,  -8858,  -2977,  -9105,  -3185,   2885,   4169,    933,   1972,   9719,   1683,  -4953, -16908,  -4864,   4237,  -1503,   2939,   4939,   2191,  -1517,   2039,    -17,    975,   1805,  -4736,   3663,   2248,   1766,   1373,   5110,  -2542,  10090,   9317,  -2869,  -2865,  -1833,  -4607,  -3233,  -6633,  -1962,  -3020,   3773,  -4475,   6270,   -314,   -205,   1800,   1214,  -1942,   1210,    585,    491,    971,    174,   3285,   1872,  -5227,    647,   3084,   1817,   3027,   4886, -15411,  -3600,   6719,  -4082,  -3012,    911,  10268,   -560,  -2966,   -232,  -4757,  -5954,   4653,  -4351,  -1124,   -259,  -1902,     12, -15442,   1848,  -3552,  -2303,   4365,  -6222, -21839,   -379,   -447,  -1632,  -4481,   1838,   1520,   -496,  -1688,  -1785,  -2679,    523,   7546,   3727,   1802,   6425, -13821,   7970,   -898,  11284,   -943, -12273,   3091,  -6080,  -1850,  -4544,   2324,  -6149,  -1770,   -902,   -909,    232,  -3153,   3117,  -1913,   2493,    916,  -4065,   3368,  -1782,  -3042,   3464,   3272, -11696,  -6718,  -1229,    -22,  -1609,  -4636,   -437,   4426,  -1698,  -7660,  -1515,    712,    100,
         -5587,  -2409,  -3232,   4975,    108,   4063,  -7574,  -2035,    590,  -1248,   3721,    -57,    253,  -7792,   8673,  -9566, -16324,   4208,    885,   -815,  -5518,    961,   6639,   1488,  -4565,  -2564,   -272, -11358,  -1101,  -1678,   3147,  -4659,  -2623,   2319,  -5184,  -5657,  -1404,   2047,   2940,    681,  -1855,   1792,  -1676,   -926,   -696,   1444,  -1579,  -2669,  -3997,  -5978,  -4748, -13718,   4310, -10933,   1067,   9891,   5687,   2300,   1987,  -8992,   1404,   6359,   4584,  -2569,   1639,   3805,   4557,  10539, -11399,  -8190,   5325,  -3903,    479,   -929,  -4317,  -3688,    157,  -1444,   2863,  -1752,    616,  -5983,  -3230,   -613,    830,   -568,   2839,  -1308,   -689,  -6337,   4265,  -1048,  -2950,   -505,   2937,  -2943,  -9160,   2801,     12,     97,   1051,   3242,   3174,  -2905,  -4426,   2014,   2595,  -3748,  -3110,    475,   2511,  -3401,   7144,   2147,  -7444,  -6565,  -1320,  -4532,  -1211,   5093,    982,  -8055,   3009,   2050,  -2308,  -1672,  -4898,  -3568,   6549,  -3579,  -2511,  -2342,  -3503,   1886,   -119,   1606, -10916,   3575,  -8850,   4361,   3090,   4787,   6143,  -2313,  -3340,   4394,    133,   2088,   1107, -10296,  -2912,    238,  -7855,   4308,   1198,   -125,  -1871,   -591,   4450,  -4025,    311,  -1526,   1216,   2556,   2737,   2289,   -901,   1514, -11799,   3597,  -5155,   1812,  -2991,   4991,  -2981,  -1475,  -6393,    532,  -1620,  -4657,   2747, -14337,   4256,  11775,  -3064,  -4654,  -2534,   8702,   1246,    382,  -2020,   3833,   1255,   5844,  -7922,   7250,   3261,   -611,   3791, -12130, -17118,   3342,  -6152,  -9159,  -5408,   -783,   3060,  -2302, -10596,    375, -13834,  -4178,   2506,   1744,  -5908,  13875, -12739,   5497,  -1248, -11258,  -2876,  -1502,   4927, -14322,  -2447,  -2314,      4,  -3453,  -5546,   4713,   -207,  -2440,  -2432,   6548,  -6859,  -6373,  -4040,   3014,   7066, -12250,  -5120,  -2248,   4262,  -5604,  -8953,   4061,  -1946,   -423,  -6121,   2085,  -1946, -11147,  -1896,   3111,    558,    640,  -1012,  -1682,   1070,   3928,    756,   2968,  -2634,  -6423,   9729,   -693,   2367,  -7498,   1293,  -6839, -12479,   7278,  -5905,   -978,   2394,   2582,  -3274,   5506,  -4007,  -6926,  17479,  -2846,   5088,  -4812,   -152,  -9193,   2149,  -2038, -15049,   1279,  -2571,   8021,  -1317,  -1202,   -816,   1523,    753,   1199,  -1635,   -236,  -2654,   1617,   2477,  -1926,  -7088,  -2217,   1847,    400,   1052,  -2621,  -3891,  -2798,   6203,  -3799,  -1979,  -6048,  -1371,  -2281,  -7256,  -1073,   4062,   1959,  -1981,  -5175,  -2698,   -761, -12048, -15741, -18718,  -4893,  -6706,   2283,  -2058,    601,  -2701,    795,  -7146,  -3881,  -3799,   -981,   -412,  -4873,   4820,   -715,  -1460,  -1191,    261,  -5355,  -2109,   6314,   3908,  -9208,   3213,  -1088,   2492,    776,  -3371,  -8913,    213,  -1505,  -1053,    410,   -607,  -3071,  -1979,  -5358,    814,  -7821,   -545,  -1934,  -4369,  -6144,  -1500,  -1481,   -349,  -3602,     85,  -1629,   1956,  -7041,    132,   5155,   4713, -13096,   1082,  -1775,   -177,  -5514,   -129,   3628,   7029,  -7731,  -6531,  -3175,    196,  10262,  -1854,  -4279,  -1555,   8846,  -3876,  -2255,  -1507,   -819,  -4578,   3473,  -2914,   -323,  -5288,    239,  -4949,   -906,  -1727,  -6683,  -3212,  -4337,   -642,   2062,  -1697,  -2763,   -407,    394,  -1172,   1416,   -870,   -687,  -4089,   9753,   -989,  -4832,   -288,  -1218, -16787,  -3431,   2092,  -1841,   2941,   1653,  -2686,  -4233,  -2333,  -1497,  -4618,  -1036,  -2540,  -9551,  -1773,   7555,  -2494,    -12,   8335,    785,  -3175,    744,   2609,  -6365,   9732,   -498,  -5784,   4411,  -1217,    983,  -9145,  -1492, -10429,  -3110,  -2105,   9730,      8,  -9261,  -3422,   3168,  -6405,  -1038,  -5494,  -5847,  -3224,    413,   -652,   -230,  -3898,  -2328,   2774,    997,    738,  -6671,   2308,   1225,  -9498,  -2727, -10021,  -1110,   -369,   4675,   5952,  -2651,   7558,    444,   6579,   1610,  -4925,  -6034,   4130,  -6034,  -1810,    268,   4175,   -418,   -590,  -1105,   1088,  -6212,
         -6920,   2093,  -3296,  -4835,  -4674,   1261,  -4653, -13715,   3089,   1100,  -2292,   4573,  -3073, -16710,  -7527,   4407,  -3853,  -1504,  -4536,  -4383,   -986,   2360, -10670,   -412,  11172,   1571,   3240,   2519,   2275,  -4954,  -1086,   2091, -12625,  -1456,  -7029,   -350,     69,  -5700, -12788,   1581,  -2517,  -1798,  -2841,  -2720,   -483,  -2100,    357,   -597,  -7403,  -3150,   6042,   5201,    241,  -2665,   5465,  -2161,   6171,   -683,  -2375,  -1775,   2449,  -7861,  -7222,  -7031,   3166,  -1126,   1078,  -1647,   2063,   2033,     98, -19978, -18631,   -380,  -4668,  -1606,  -2303,  -2613,  -6713,   6264,  -8157,  -2139,  -3418,  -3602,  -1025,  -8967,  -1129,  -2206,  -4090,  -4340,    674,  -5835,    232,   4314,   4273, -16756,   4518,    931,    -71,  -3329,  -2328,  -5436,    307,   -419,    925,   -510,   2973,   1638,    709,  -5245,   5928,  -6468,   2908,     -9,  -1484,   2366,    166,  -2321,   3169,  -2944,   -534,  -3601,   1414,  -4558,  -1187,   1719,   6146, -21766,    780,   1150,  -4053,  -3171,   -139,   5443,   7725,  -8516,  -9976,  -1898,  -7238,    -52,  -2794,  -4409,  -5777,  -1471,  -6727,   1007,  -4420,   6598,  -1269,   2890,   1443, -15323,  -8357,  -1764,  -3401,  -1673,  -2178,  -6951, -13903,  -2299,  -2030,  -1716,   -666,   2076,   2336,   2793,   -787,    -73,  -3283,    -75,  -8231,   -561,  -3871,  -8953,  -1274,  -6424, -10090,   -274,   7571,   5128,   3618,     78,   7886,   1999,    673,   -286,   1629,     -6,  -1414,  -5508,   -761,   9369,    105,  -1187,  10650,  -3819,  -1387,  -2396,   2621,  -6352,   7662,  -1383,  -8117,   4197,   -280,   5060, -10344,  -4264, -10143,  -1840, -11307,   6432,    287, -11604, -14722, -13547,  -9813,  -2368,  -1650,  -3907,    949,   -776,   4226,  -6517,  -6017,   1183,    717,    749,  -2657,  -7094,   1761,   1296, -12037,  -2351,   1247,  -1129,   1370,   4323,   -167,  -1317,   8851,   -903,   3221,    221,    280,  -7840,   5761,  -8758,   4494,  -2037,    524,   1688,  -2473,  -3817,   5111,  -2737,  -8782,   -551, -10914,   5278,  -3362,   -421,   3046,  -6639,    668,  -2550,  -5029,  -9978,   -976,  -3604,  -5656,    666,  -5908,    -53,  -2081,    134,  -1654,    198,  -3919,   1852,  13791,  -1123,  -2187,    753,    233,  -4854,  -2712,   2079, -12703,    820,  -4928,   2183,   1859,  -3153,    867,   3655,   -580,    228,   1155,   1996,   -773,   1319,   2375,   -176,  -1659,  -2138,   -263,   1474,  -4007,  -1342,   7282,  -1408,   4221,   1590,  -3654,  -2763,    782,  -9559,  -8082,  -5744,    941,  -2725,    160,  -8049,   -769,   1300,     78, -13270, -12794,  -1064,   3569,    730,    892,  -1008,  -2647,   3544,  -4789,   2102,  -6592,  -6555,   -172, -14059,  -1938,  -3503,  -8479,  -2648,  -1938,  -5350,  -3074,   -119,   3641, -18083,   5058,    -88, -14527,   4805,  -3286,  -5802,   3140,   2306,   1319,  -1988,   -548,   2172,  -1300,  -8642,   8357,  -4416,  -1341,  -1674,     27,  -7680,    999,  -9770, -10008,  -3395,  -2790,  -3072,  -1686,   -538,  -1244,   1436,   5657, -19508,  -5353,  -4058,   1110,  -3461,   -659,  -3047,   7095,  -7968,  -8411,  -2966, -15340,   2456,   -806,  -3915,  -4120,  -2995,  -7748,  -1872,  -5143,  -7371,   -492,  -1549,    361, -20999,  -6722,  -3229,   2267,  -6494,  -2095,  -8686,  -7872,  -1290,   -737,   1028,    458,   -501,  -2579,  -4030,    430,   2543,  -7668,   -194, -18220,   1688,  -3876,  -2320,   6391,  -1717,  -9837,  -3067,   6783,    433,  -1733,   1129,   3691,   3719,   1293,  -1838,    324,  -1509,   -148,  -7408,   1018,  10702,  -2109,   1127,   1902,  -1880,   -663,  -4176,    829,  -7527,   8919,   1909,  -6911,  -1530,   -931,   2087,   1393,  -1184,   -962,  -1637, -11584,   8862,  -3806,  -1921,   2438,  -6884, -10756,   1572,   4036,  -1474,  -1748,    -37,   2083,  -4955,   -556,   1384,  -7459,  -1694,  -1148,  -4178,   -202,  -6753,  -2985,  -3758,   1731,  -5533,  -3004,   1412,   4161,  -4583,   9205,    237,  -9488,  -1454,   -592,  -7761,   5088,  -4707,    821,  -1256,  -7996,  -4118,  -3339,  -2481,  -2729,  -2130,
          2702,  -2441,  -3517,   3912,   2328,   4472,  -4425,   -146,   1302,   -141,   6361,  -7167,  -2163,   1229, -12831,   2512,   3196,  -1348,  -2510,   6164,    -57,   1739,    687,  -1930,  -1201,   2052,   8428,  -8687,    149,   8834,   -379,  -3350,  -5981,  -1836,  -6873,   8339,   -528,  -2597,   4072,    794,  -1865,  -2051,   1536,   -993,    164,    434,    650,     -8,  -4384,  -1273,   8221,   1398,  -1964,   -586,  -4580,    848,   1627,   -447,    600,  -5260,  -2312,   7200,  -4443,   3103,   -171,   2175,    164,   2142,  -1206,  -1804,    726, -14784,   1852,    -48,  -3869,   2143,   1082,   1391,   7285,   1084,   2061,  -2508,  -9347,  -3967,    252,   4082,   5180,  -5610,   2587,  -2389,  -7621,  -3528,   -802,   8181,  -2083,  -6664,  -3157,   1910,   4176,   1003,    344,   2777,   2052,  -2537,   4862,   1653,   7106,  -4644,   1244,   3519,   2339,  -9888,   1019,  -1686,   2850,  -4875,  -3644,   3985,  -4080,  -3039,   4922,  -2394,  -7468,  -4816,    347,  10617,  -6213,  -7499,   4689,  -4371,  -5640,   -878,    463,    189, -10355,   1751,    952,  -2891,  -8978,   4384,  -1597,  -2560,  -3407,   5967,  -2347,   1376,  -1531,   5168,  -1541,   2753, -12132,   3619,  -3665,  -3884,   -810,   1200,   1030,   -311,   4228,  -1646,  -1707,   2063,   1704,    851,  -2682,   -456,  -1003,    361,  -5195,  -2418,  -7588,   5058,    411,  -5497,  -7234,  -6811,  -5632,    853,   6046,  -9782,  -2590,  -4372,   -581,  -2167,  -1177,  -1198,   -122,  -8259,   -300,   1378,   3760,   -963,  -1656,   1590,   5084,   2367,  -2432,   2523,  -1034,   3013,   1557,  -2107,  -5253,   3671,  -2846,     -3,  -4559,   -959,   1572,  -1469,  -4578,   4414,    320,  -5281,    973,   1632,  -7769,  -1299,   2286,  -2065,  -1856,  -2944,  -2135,  -4129,   -447,  -1662,   3538,  -4997,   1100,   -215,   3293,  -1272,  -2383,  -1480,    113,   3054,  -1910,  -2645,   1549,    846,   1029,  -2693,  11494,   -483,  -1602,   4147,    661,   -957,  -2666,   -581,   3016,  -4297,  -1719,   2401,  -6951,  -2821,   2852,   -745,  -4255,  -3126,  -1811,  -1488, -10236,  -3608,    970,  -2453,   4860,  -7117,  -1164,  -8044,   9033,   1665,    681,  -2817,   -603,    219,    535,   -307,   5265,   6146,  -2736,  -1016,   3859,  -5266,   1610,  -3154,  -4445,  -1692,   -828,  -3611,  -6541,  -1680,  -2306,  -4015,   4640,   2599,    363,   -221,   2525,  -1263,  -2551,  -3251,    358,   1509,  -2030,  -3480,   2889,   3325,  -2209,    -60,   -668,  -5509,    215,     90,   -876,   2027,   1905,   8523,  -2124,   2669,   1827,   2271,   7730,   3470,  -1659,   2758,  -6239,  -4004,   5057,  -1909,    490,    612,    128,   6111,   4842,   4373,     48,    347,  -4421,  -2149,    -61,    552,   4329,  -4405,   5980,  -3075,  -7821,   -201,  -2305,   6451,   -944, -12237,  -5262,    712,  -3290,  -7403,  -2173,   1103,   1437,  -5944,   -882,     10,   2535,   1070,  -2560,  -3837,  -2363,  -8483,   5375,  -1046,   1092,  -4070,   1338,   4839,   4269,  -4421,   5503,  -3284,  -6742,   4162,  -2618,   7768,   3325, -11939,   5375,  -1929,  -1310,   3381,  -3149,   2655,  -1557,   5489,  -2873,  -1795,  -6443,  -7268,   1765,  -9002,   -720,  -6104,   1030,    363,  -5516,   2525,   -513,   6644, -12511,  -7056,    339,  -2665,  -3837,    848,  -2413,    -63,   5740,   3712,    636,     98,   2711,   -346,   -603,   1964,  -2511,  -3674,  -4438,   2076, -14889, -13469,    199,  -9873,  -3759, -12179,  -5135,   -237,   3171,   3744,   2040,  -3223,  -4414,    320,   6341,  -1033,   2425, -10289,   1344,   1645,   3134,   2489,  -7363,  -2004,   1897,   6394,    165, -13227,  -5677,    379,   -577,    661,  -5841,    -93,  -1102,   2044,   3843,  -1583, -11938,  -1638,   -514,  -4822,  -3085, -10308,  -6309,  -1209,  -6990,  -2072,   3499,    984,   -878,  -4326,  -1286,  -4098,   -615,    880,  -1696, -10499,   -750,  -4201,   1224,  -1074,   -406,   -200,   -794,  -3791,  -2993,     46,    257,  -1291,    120,   -125,   -371,  -5849,  -1828,   -655,   -457,  -4181,    499,    810,  -6648,   1033,     54,    724,  -1407,  -1646,
         -2647,  -3223,  -3094,   7385,  -2697,  -3508,  -5365,   3897,   4096,    952,   -705, -10449,  -2551,  -3712,  -1764,   2225,  -2714,  -2303,    766,   1754,   -975,   1768,   1865,   6714,  -5244,   1477,  -5024,  -1372,   2425,  -4605,   6260,  12622,    434,    475,   1411,    747,     37,   2143,   1105,   2913,  -1148,  -2157,  -1075,  -1669,   -757,    681,  -1604,  -2784,   4625,  -4514,  -3580,  -6309,  -3247,  10120,   4313,  -5455,    718,  -1280,  -2708,    191,    922,  -6528,  -4205,   2917,   4554,   2528,   7920,   5566,  -3161,   2921,   6123,   4562,   6206,   1028,   3874,  -3999,  -1562,   1545,   3330,   1059,   2048,  -2799,   -710,  -3978,  -2652,  -3611,   2563,  -7328,   3877,    160,   -230,   3243,  -2147,   5554,  11735,  -2628,   -513,   -644,  -9151,   1228,  -3864,    741,  -1197,    556,  -2330,  -1589,  -5445,  -2611,   1184, -10321,     49,  -6748,   3557,   1402,    990,  -3790,  -2561,   5380,  -1082,  -2999,   3622,  -2388,  -1711,   2471,  -5044,   3368,   5756,  -2717,   4427,   -524,   1162,    865,  -2814,   1800,   3385,   1866,   3993,   -251,  -5602,  -1064,   1346,  -6189, -11055,  -1185,   6116,  -1064,  -2776,  -1606,   -874,  13091,   4881,  -6511,  -2723,  -2693,   2468,  -7627,  -2778,  -1378,   4696,  -1441,  -2153,   -863,  -1502,   1942,    801,    -11,  -2636,  -2994,   1454,  -1833, -10500,   3858,  -2103,   1191,  -9889,   1867,   3243,   -974,   3277,  -4203,  -2093,   4037,   1179,   6014,   2480,   1513,   2499,   -996,  -2870,  -3693,    501,   3726,  -8494,  -1517,  -8554,  -4523,  -3796, -12012,  -4746,   -980,   2847,   2567,  -4072,   3753,  -1441,   3604,   5742,   2629,  -4599,    644,    804,   3654,  -5046,   2751, -15400,  -2836, -10053,   1632,    -22,  -3769,   1627,  -6472,  -1481,   -912,  -1149,  -2217, -10769,  -7132,    -40,  -4634,   3581,  -4566,    -16,  -4110,  -3502,  -4577,  -2770,  -3011,  -3360,  -4729,  -4152,  -2542, -10038,    676,  -2523,   -603,  -1668,  -2646,  -3187,  -1023,  -8986,  -2878,  -2927,   2039,   4415,    272,   4839,  -2419,  -2807,   -176,  -1163,  -2699,    977,   6125,   4931,  -1613,  -2316,  -7424,   -269,   2453, -17335,   1859,    171,    264,   5579,  -3958,   -591,  -8135,   5269,  -1742,  -3171,   1463,  -1708,  -3186,     73,  10716,   -241,  -1790,   4609,    651,  -3329,  -2744,  -1855,  -5855,   1370,  -7713,    872,  -2065,  -2290,    412,  -2705,   -300,   2105,    680,  -1721,   -181,   6689,  -5561,  -1937,   -478,   2648,   4599,  -5646,  -1064,   4726,    658,  -3216,   7143,  -3433,   1321,   -721,  -2040,  -4432,   4439,   -535,  -6718,  -3169,   -964,   8982,  -1584,   2002,   1142,   1650,   1657,   4542,  -9711,   1557,   -444,    145,  -3070,   1297,  -1176,   1862,  -1176,   4207,   -200, -10488,   2881,  -2009,  -5698, -12944,   4461,  -2945,   1702,   5604,   -345,  -1918,   7743,   1512,   4544,  -5849,  -1592,   8114,   2046,  -1868,  12861,  -1959,   8927,   -572,   1062,   4557,    497,   1756,    223,     72,   -781,   4861,  -4108,  -4748,   4678,   1451,  -2535, -13778,   6877,    224,  -2163,   -470,   3462,  -2377,   -613,  -9038,   3629,   5070,  -3087,  -2648,  -1331,   1374,   1556,    935,   -561,    904,  -1827,   -378,   4544,   1264,  -6236,  -3651,   6342,  11008,   1387,   4227,   -336,  -3693,   4376,   6944,  -2938,  -1245,   -341,    -39,    161,    503,  -1235,   1110,  -3087,   -690,    464,  -7091,   1100,    670,  -2409,  -8120,  -6387,    393,  -1189,  12002, -14935,  -2604,  -2448,   7654,  -2595,  -3175,  -3180,   8715,   3571,  -3219,   7904,   2133,   2376,   2834,  -2761,   1483,  -2180,    403,   -642,  -3729,  11567,  -2328,  -2410,  -9903,   4035,     49,  -7781,  -4503,   1530,   3903,    912,   2909,  -7146,    758,  -2861,   3754,   4689,    836,   -593,  -2596,   5449,  -1751,   3518,   3382,  14681,  -3183,  -1109,   1950,  -5762,  -1718,    801,  -2061,  -1691,   -302,   -389,  -2027,  -5073,  -1906,   -622,   -955,  -2661,  -1782,  -1290,  14676,    780,    152,   7582,  -3781,   7581,    874,  -2872,  -1052,  -3327,  -2116,  -1537,  -2196,  -2473,
          2770,   -242,  -7039,  -4521,  -1070, -13525,   2300,   2203,  -4024,  -2083,    508,  -1690,   3980,  10733,   1621,  -2875,   4336,   1484,   2664,  -7395,  -1982,  -4654,   2329,  10242,  -7668,  -2843,  -3594,  -4224,  -1853,   1936,   5594,  -1504,   5054,    435,   3403, -14573,  -2847,    378,   6931,   -680,   -618,  -2448,   2307,  -2703,  -2305,    359,    248,  -1763,  -5452,    951,   4546,  -7969,   1558,  -1187,  -7549,    -12,  -5928,   -199,   -857,   5130,   -473,   2667,  -3291,   9502,  -1883,   -857,   3662,    984,  -2545,  -6128,   1836,  -1812,   8496,   -988,   3189,   -718,   1179,   -234,  -1222,  -5659,   4480,   1169,   2953,    719,    967,  -2088,  -1072,     35,   4058,   1079,   -279,   5658,  -3629, -12944, -12689,   4601,  -8805,  -2207,   1159,   -867,    778,   7999,  -2381,   4481,  -9416,   1497,  -1131,   8161,  -1684,   7768,  -1647,   1388,   -819,    936,    237,   5950,  -1794,   -523,  -3002,   5907,   6454,  -1290,   1538,   6262,  -2621,  -8374, -15168,   9226,   1720,  -1498,     94,   6400,   1041,  -2378,  -8588,     67,    239,    927,  -9946, -14796,  -2328,  -1155,   5697,   -636,  -1703,  -1087,   3898,  -1965,    864,  -6317,  -5603,   4837,   5872,  -1649,   -340,    125,  -3785,   5944,   8166,    -20,   1524,  -2606,    794,   1503,    661,    824,  -2735,  -2661,  -5773,   -843, -11024, -18002,  -2297,  -6295,   3026,  -1137,  -1921,    367,   6982,  -6694,   1118,  -7623,   1789,  -2253,  -1294,  -3420,   4863,   3110,   1264,   2108,  -1848,   2700,  -8465,  -1745,  -5055,   -748,   -580,  -3037,    151,   2751,  -3820,    112,   3632,    113,  -1576,  -1624,     60,   4394,  -3434,  -5339,  -2228, -21811,   1678,  -5975,   5531,   -937,  -7972,  -2533,    157,  15727,     39,  -2299,   2308,   9385,  -6474,    656,  -2808,  -3160,  -4207,   2303,   -515,  -2020,  -2212,  -1356,  -1778,   1892,  -1584,   2235,   1487,  -1744, -11360,   -539,   -854,   2169,   -722,   5158,  -2699,   5585,  -2345,   -857,  -3460,   -424,  -2844,  -6471,  -4894,   1369,     21,  -3207,  -4855,   -338,  -1520,  -3846,  -8922,   2905,   1428,    697,  -1457,   5476,    523,  -1165, -12746,   1338,   2211,   1121,   1169,  -3301,  -2396,  -2128,   2134,   3884,  -7798,  -1561,  -5463,   1916,  -1853,   3429,   1812,  -3087,  13082,   -765,   7002,  -7062,  -3856,   8153,  -3199,  -1669,   2115,   2220,  -1609,  -2745,  -2321,   -302,   1092,   -170,   2769,   -392,  -8677,  -7605,     46,   8044,  -3309,   3314,  -8610,   2030,   -841,     53,   2556,    203,  -1149,   2436,  -2218,  -2925,   5402,   4334,  -1175,   -202,  -4928,   6638,  12465,  -1323,   7156,  -1759,  -3254,   2861,  -1609,  -8804,    884,  -2944,   1535,  -2797,  -3409,   -451,   1790,  -5884,   1724,  -3066,  -6782,   5990,  -2629,  -5101,  -5773,   6019,  -4391,   -249,  -5318,   -404,    279,   9238,  -1394,   5854,  -8611,  -3208,  -2138,   2220,   -729,   1998,  -2108,  -3689,   1042,  -2210,  -2831,   2152,  -1593,   5117,  -2515,   6768,   6587,  -2735,  -3780,   4679,    980,  -5908,  -2138,   8029,   1551,   1447,  -3210,   2234,  -1031,  -3477,  -7569,  -1861,   5223,   -636,  -4128,  -6162,   -128,   4174,   4582,   -843,   7278,   1441,   1739,   2851,  -3119,   7436, -13860,  10439,   1817,   3015,   7022,  -2452,   -405,    974,   5706,  -8600,   -655,    139,   2135,  -2151,  -1260,   -752,   -445,  -2032,   4996,  -1895,   -861,   1699,  -1184,   6490,  -5399,   7086,   6073,  -3382,  -2250,  -7892,   2536,   2680,   -914,   3543,   -817,   -403,    642,   5407,   2110,   4755,    -60,   1987,  -5058,  -2119,  -4767,  -8516,   -838,  -1337,  -3707,  -9852,   -742,  -2398,   4221,    985,   2488,   4065,   2061,   5269,   1378,  -1943,  -4053, -12043,  -1265,   6354, -12041,   4735,  -2095,  -2056,    857,   7584,   -575,    236,   2097,   1377,  -2817,  -2629,  -8749,  -2495,  -2033,   1280,   2399,   4722,   3745,    180,  -1547,  -3164,    905,   2675,    189,   -602,  -9096,  -2086, -11421,   1003,  -4028,   8131,  -1506,   6138,    -24,  -2547,  -8831,   -670,   -176,   3630,  -2777,   3787,
         -7414,  -4733,   3248,  -6919,   1236,   -367,  -7887,  -2236,  11030,   2202,  -6548,  -5645,  -2562, -19461,  -6582,  -1202,  -3727,  -8383,   6934,  -7349,   1301, -14807,   -185, -11166,  13635,   2238,   6690,  -4830,    629,     17,   1232,    548,  -1431,   1463,   1159,    900,  -3705,  -6115,   -656,  -1706,   -928,  -1862,  -1363,    628,   1941,      6,    249,   -581,   2631,   4409, -11896,   4267,  -2217,   2733,   1999,   -497,  -2662,  -1706,  -5043,  -4592,   -123,  -5751,  -2077,   6942,   9610,  -1930,  10770, -10244,    819,  -1310,  -2917,   3216,   3045,  -3238,    -94,     -2,    -46,  -8681,   5226,    238,  -2866,   3530,  -3886,   6165,   2271,  -7231,   1468,   -435,  -1048,   -502,   -387,  -9104,   2490,  -1947,  -2344,  -8281,   9905,   1117,   -503,   -995,  -3484,    245,    911,  -8067,   -272,  -6794,   5555,   -371,  -6310,   4000,    937,    552,  -7806,   1553, -11282,  -6741,   -702,  -2066,  -4384,   9736,  -5537,  -2449,    346,  -8331,   4888,   1954,  -5801,  -3471,    330,   -420,  -4529,  -3519,  -1845,    414,  -1506,    897,  -7476,   2809,   2260,   2840,  -2427,  -1597,   -749,  -6227,   3365,   1890,   1942,   1355,   2199,  -5794,  -2217,  -2254,  -1030,  -5244,   -890,  -6450,  -1656, -14042,  -6493,   9475,   2626,   -322,  -1601,  -1632,  -2422,  -2695,   -171,     79,  -3220,     90,   1129,   -971,  -1801,  -1535,  -1598,     -6,    531,   4658,  -8886,   3093,   2647,   4685,      1,   1773,  13905,   4113,   4911,  -7148,  -3292,  -5949,   3607,  -2528,  -1185,  -3368,  -7222,   1388,   7930,    529,   1504,   5919,    537,  -5224,   8294, -10393,    -63,  -7161,    597, -12448,  -7877,   2375,  -3027,    752,  -5134,  -6930,  -2576, -11475,   2091,  -9045,   7259,  -3071,  -4030,    701,   1078,   -390,   4395,   2277,  -5239,   6022,  -1765,  -2116,    299,  -7837,   5645,   2102,   7570,   4929,   -204,   -330,   3491,  -2474,   6509,   -356,  -1253,    -56,  -2232,   4947,   1816, -11956,   -247,    165, -10615,    233,  -1846,   6386,    -91,  -8962,  -8779,  -1061,   5733,  -2989,   2672,  -3367,  -1711,   -815,   1386,    390,  11658,  11630,  -4339, -13015,  -6028,   -109,  -4969,  -3387,   -178,  -1857,   1654, -14145,   2476,  -5618,    683,   4163,  -5137,  -3125,  -8494,  -3569,   1895,  -9030,   5383,  -4575,   5036,  -2342,  -1503,  -7848,    363,   2609,   2724,   -380,   2261,   -447,    881,  -1696,   -573,   1552,  -6370,    932,  -8770,   5385,   1121,    134,  -3273,  -2448,  -3709,  -7330,   -935,  -1191,   2840,  -3939,   6465,   3463,  -5932,   2053,  -8635,   -240,  -1185,  -3525,  -1872,  -1055,  -1674,  -1792,   1904,  -3043,  -4787,  -7985,   7118,  -1976,   1956,   3579,  -1333,   3060,  -1905,  -3632,  -2852,   -970,  -3475,   -656,   -912,   2499,  -8474,   2500,  -2408,  -4066,   4413,   2294,  -5132,   1880,  -5347,   3908,    412,  -6629,   1643,  -5747,  -1310,   4581,  -2038,   4388,   6855,   -709, -10272,  -3059,  -5328,  -5173,   4155,  -7602,   6287,   7763,  -6179,   -221,    385,  -2509,  -2356,   2010,  -8374,   -522,  -9366,    -98,  -4993,    151,  -2394,   1613,   3129,   1246,   -303,   -383,   3310,   4268,  -4468,   1216,  -2360,    413,  -4105,    252, -11503,  -1918,  -1975,  -3537,  -8512,   1243,  -3007,  -8992,  -2660,  -2459,   -505, -17394,   2594,   6593,  -1164,   -542,   1255,   1444,   1087,   2624,   -418,  -2326,  -3883,   1669,    254,   -624,   2732,   3517,  -5289,   2355,  -5451,    122, -14457,   6896,   4784,  -8572,  -7164,  -1609,   6994,   3846,  -1969,  -3962,  -5841,  -4809,   8854,  -7863,   2878,  -4858, -10558,   4579,   5998,  -1019,   -361,  -1605,  -1177,  -3989,  -1088, -14447,    494, -11403,    894,   2377,  -1795,   1322,  -3829,  -2446,   7152,  -2939,  -3446,  -2319,   2861, -11087,  -4688,  -1679,  -1412,  -2357,   4266,   3303,   5820,    655,   -566,   3381,  -3017,    -32,    364,  -2516,   2713,    251,   4036,   2647,   3208,   1981,   3450,   4550,    525,  -2047,  -2782,   3190,   -773,   6019,   6461, -12313,   1393,    861,  -6796,  -6325,  -2601,   1711,   2364,  -7391,
         -7479,   1446,   5598,    335,   5821,   2589,    681,   4213,   4514,   4435,  -2597,   7514,   2180,  -1117,  -8952, -10097,  -1833,  -1527,  -4047,  -4655,   4108, -13375,   1871,   6461,  -2214,   3629,  -1248,  -8017,  -6506,  -5507,  -2565,    559,   4947,   1076,  -2140,   1483,  -4488,  -5499,    560,  -1402,   1112,   -986,    360,   -874,   -900,   1708,  -1334,    125,     54,   2607,   2249,  -3093,  -3477,   5363,  -1419,   -461,  -5976,  -9784,   -514,    888,   6372,  -6801,  11298,  -2498,    654,    395,  -8333,   2460,  -3215,    -62,  -4768,  -6349,   1449,    244,  -3485,  -2568,  -4424,  -8027,   3685,   -345,   5531,   2407,   3490,  -2249,  -1807,   -784,   5054,   3056, -10957,   1158,   4189,  -4091,  -1719,  -2953,  -7319,   5660,   1176,   5166,  -1289,    178,   1044,   5795,   3044,   1232,    354,  -5791,  -8359,  -2425,  -1662,   2959,   3561,    657, -10784,  -3407,   4414,  -3668,   2541,  -1809,   8789,  -8049, -11634,  -3232,   2400,  -6923,   4148,   2650, -12305,   8466,   -295,  -5798,   6045,    724,    772,  -1455,   -603,   5073,   2114,   2009,   1405,   4472,   1829,   4027,  -1347,   1628,   5193,  -4025,  -2595,   -617,  -7811,  -2239,  -7031,   -883,   1326,  -8702,  -5137,   2716,   -229, -14769,   -980,  -2251,   2221,  -1234,    417,  -1320,   2023,    379,  -2826,    771,  -4461,   3061,   1609,   5431,   -507,   8370,   5206,  -1879,  -6039,    234,  -1615,   -439,  -2007,   5041,   2011,  -3742,   5658,   4783, -10363,  -6078,   -470,  -5492,   6720,   -231,    888,   -615, -13275,   1528,   5319,   6091,  -1040,  -5065,   1276,  -6694,  -2502,  -4068,   2160, -14432,   -990,   3298,  -2152,   8923,  -3864,  -3882,   5212,   8866,   4306,   1313,   5555, -13611, -12422,  -3211,  -6357,  -3553,   -260,   -811,   7962,    912,   3623,  -2210,  -3670,   2214,  -2841,   2210,   9682,   1645,  -6501,  -3463,  -3429,    -61,   3869,    333,  -1834,  -2663,  -3841,   4406,   3016,   4023,   4187,   5020,   1602,  -1244,   6649,  -2544,   3494,   3016,  -4326,   4230,  -1622,  -1020,   4996,  -1832,   1280,   1245,   1840,  -2764,  14499,  -7173,  -3963, -11002,   9689, -13216,  -8774,   5409,   3964,   1056,   4401,  -1898,   1799,  -7250,   1891,    720,   7291,   -500,  -2714,  -3081,  -2126,  -3423,      9, -12674,    757,   -674,  -1783,  -1212,   -867,  -3241,   2247,  -5334,  -1235,  -3106,  -1159,  -2339,   1210,   1105,  -1537,  -2598,   3759,    199,  -9215,   2731,  -4470,   1973,   5534,  -2920,   2606,   3825,  -7364,   -342,   4301,   3000,  -5617,   5203,   9335,  -3640,  11603,  -7096,  -2357,  -6435,   2280,  -1103,   5102,   1376,    325,   2319,  -2998,   3547,   -945,    378,  -3112,   -796, -11378,  -3532,   -927,  -1312,  -4727,   -135,   4850,   -385,   4816,   2951,  -9366,   4035,   -110,  -9129,   6825,  -1958,  -1205,  -4140, -10230,    612,  -5930, -19265,   4028,  -2641,  -3703,  -2399,  -3790,  -2958,  -4687,  -4550,  -2095,   3418,  -8791,   3355,    218,   2186,  -8118,   4095,  -1805,   2405,   1919,   5571,  -3526,   3978,   -129,  -4483,  -2122,   5746,   3629,  -1197,   1022,   4572,   -571,   1263,  -7087,    461,   3009,   -995,   1558,  -5954,   -565,  -8296,   7229,   3809,   3979,   2422,  -4902,  -3465,   2512,  -2499,   2352,   1495,    945,  -7509,    -77,  -2774,  -4045,   9169,  -2167,  -1280,  -1053,  -1333,   -207,  -2795,  -1426,   2655,   -318,  -3062,    442,  -2215,  -2746, -10031,  -3146,  -4079,   4385,    926,  -8076,   3782,  -1334,     79,   5390,   3121,  -1493,   2094,  11069,  -5256,    -15,   2138,  -3479,  -6094,  -1109,    600,  -6053,    869,   8595,  -3042,  -1041,   -312,  -1308,   1212,   7537,  -1652,  -3831,  -1038,   3180, -21131, -10992,  -4930,  -1718,  -2558,   2106, -12321,   8108,  -6821,   5097,   3125,  -1862,  -1313,   -617,  -3636,  -9842,  -7529,   2305,  -3361, -11425,   3466,  -1766,   -197,  -3112, -11354,   7785,   4612,  -2843,   2298,   1200,   -732,  -6434,  -6690,   1333,  -1758,  -1062,   1879,  -8146,   -597,  -4241, -17553,  -2668,  -2721,  -9296,  -3112,  -7291,    117,  -1183,  -4282,
         -4266,   -961,   2801,  -5145,   6569,  -3745,  -1484,   3098,   3866,   1187,  -1119,  -2386,   3332,  -1685,  -5930,   1653,  -2791,   2866,   -101,  -4107,      4,  -6447,   4947,  -1467,  -2928,  -3035, -12392, -13135,  -6360,   -720,  -2313,  -1776,    594,  -1186,   2145,  -1570,  -5396,  -2600,    297,   -201,   -161,   -897,   2212,   2154,   -292,   1051,   1590,   1912,  -5968,  -2742, -10525,  -3552,  -2364,  -4149,   -199,  -8013,   -742,   2879,  -3968,   4422,   2452,  -2560,  -3458,    903,  -4145,   3029,  -8450, -10160,   1458,  -1381,  -1080,   -180,   -812,   1276,   4715,    -71,    714,   5230,   3061,  -5820,  -3158,   1750,   -626,   3352,  -1290,    284,  -6135,  -6920,  -3355,   1524,  -7337,  -2603,    721,   1967,   1061,  -2131,  -5230,   1388,  -2172,   1354,    355,   -334,  -1632,  -1994,  -7752,  -4066,  -7134,   -899,  -4822,  -4570,    578,  -6995,  -4416,   -603, -15776,   2222,   3727,   3139,  -5963,   1543,  -3877,   -218,  -7591,    988,  10691,   2431,  -3276,   2366,  -5770,   4443,  -3228,   1121,   1655,   1450,  -4661,   2079,  -7387,  -2303,   -270,   -481,  -1194,  -6388,  -3252,   4791,  -4734,    568,  -7091,   2876,   1703,  -8659,  -1330,  -7240,    123,   6302,   2426,  -8742,    987,   -774,   2889,  -2737,   -493,  -1317,  -1049,   3117,     17,  -1159,  -1727,  -1783,  -2489,  -7487,   1195,   3659,    -69, -10408,  -7076,   4920,  -1684,  -3932,  -9448,   2755,  -2253, -15166,  -6263,  -3729,  -1614,   5034,   3226,  -5702,  -1961,   -909,  -1854,   2812,   1863,  -2107,  -9157,   4325,    969,  -8735,  -3450,   -847,  -1623,   8555,   2721,  -2359,  -9251,   5714,   3891,  -3722,  -4872,  -2935,  -2787,  -9425,   3292, -12673,  -4932,  -1709,    -29,   1669,    443,  -3357, -10416,  -4888,  -5064, -11595,   3542,  -1491,   -613,   1673,  -5371,   -182,  -7378,   -457,   3897,   1075,   4558,   2572, -12124,   1710,  -5857,  -2388,  -9189,  -4467,  -3824,   1174,    553,    948,   1725,  -3848, -14580,  -3261,  -6766,  -2976,   2072,   -751,   -278,  -3903,    965,   2725,   3787,  -4714,   3510,    248,   2865,   1007,  10067,  -1546,  -1418,   1651,    206,   2429,   5342, -10149,    376,   6292,  -5642,  -3946,     74,  -4044,   4645,  11889,  -1510,  -5590,   -839,  -3549,  -6532,  -5949,  -6796,   5424,   4468,   -315,   1792,  -5140,   -866,   5788,   2411,  -1415,  -1143,    197,   -832,  -1158,  -1049,    769,   -538,   -671, -11338,  -4958,  -2770,  -7615,    639,    570,   1026,   -873,  -9122,  -1924,   2026,   6199,   2063,  -3195,   7630,  -6788,  -5953,   -188, -10719,  -1444,    325,     89,    875,  -3521,   1827,   2540,  -2097,  -5206,    610,   9235,    273,   2870,  -2108,    231,   5751,  -5241,   -381,    585,  -2002,    682,    583,    850,  -4218,   -603,  -1080,   2946,  -4084,   5270,  -2346,   2135,   5668,     41,   1959,   1688,   3535,   7726,  -7463,  -3302,  -3118,  -4570,   3918,  -2872,  -3105,  12977,  -3889,  -3632,   -273,   1546,   -856,   3532,   2972, -12714,  -1697,     50,  -9750,   2825,   -859,    939,  -3623,   6915,  -3859,   5616,  -4333,   2764,  -3761,   2289,  -2155,  -4418,   4004,  -2043,   4378,  -1363,   -372,    738,   4080,   2557,  -5181,   1398, -18427,    516,  -2987,  -5173,    301,  -4863,  -1442,   4480,  -5307,  -4145,   1048,   2276,   1676,  -8473,    104,   -714,  -1270,  -1531,    420,   -295,   -752,   -530,    178,   1440,    396,   3367,    188,   3603,   3718,   1465, -15519,  -7394, -11018,  -5263,   2715,  -1624,   5675,  -1955,  -5643,   4338,  -9081,  -4624,   1786,   -846,    188,   4021,   6991,   3026,  -5348,   -435,   9511,  -3239,  -3961,   9740,   2161,   4981, -11154,  -7450,   8971,   2370,  -2501,  11113,   -747,    725, -10083, -17540,  -3248,   -702,   9548,  -3897,    108,   1497,  -5771,  -5675,  -7544,  -7964,  -6362,   8248,   5114,    378,   7715,   1728,   2582,  -2704,   -117,   6182,   8499,   1004,   1636,    854,   -274,   1444,  -5267,   7295,  -8212,   -475,   5508,   2623,   9370,    851,   -569,  13414,  -7368,  -1080,  -3203,    387,    333,   1479,  -1102,   3341,
         -5635,  -4499,   5224,  -3067,   6903,  -1769,   2396,   6523,  10524,   -394,   1709,  -9292,  -4570,  -1478,  -3966,  -5287,   -276,   -665,   7046,   3380,  -8498,   8358,  -4570,  -3885,  -6583,  -8943,   -206,   2624,  -2456,   -902,   1636,   3043,  -2588,   3259,  -3374,   3266,   1926,   3365,   2179,  -3833,  -1274,  -1430,  -2266,   1902,   -786,  -2408,  -2164,  -2568,  -2578,  -1329,   2968,   2058,   -301,    254,   3640,   1087,   1889,  -1274,   2174,   8457,  -4649,   2899,  -9407,   8093,   6199,   8684,   7720,  -4937,   -754,  13025,    695,   2057,   2655,  -2148,    972,   1616,   1143,   4621,  -4935,  -3880,   -956,  -4900, -11280,  -7069,  -2726,   2915,  -3464,  -6424,   1337,   2396,   4957,   4906,   6383,    -83,  -1210,   1028, -13206,   2989,  -3228,  -6838,  -2142,  -1568,  -5568,  -6027,  -9239,   3997,  -1136,  -2085, -11912,   1463,  -4316,  -2213,   6478,   1489,  -4576,    687,  -5054,    733,  -9325,   1006,   5902,   3874,   5740,    328,   6616,   4936,   1152,   1393,    -81,  -1258,    487,   7212,   2615,   2813,   1872,   3825,  -2085,   -846,   -352,   -728,   1040,    235,    735,   1724,   3767,   1827,   6506,   4568,   4585,    112,    366,  -2824,  -2648,   3278,   3325,  -4601,  -4049,   2761,  -5799,  -1561,    330,  -2858,    260,    678,   -758,  -2342,    866,  -1074,   -791,    462,  -3174,  -6503,   -725,  -9838,   2636,   2924,    607,  -3629,  -2003,  -1093,   -150,  -3437,   1996,  -6649,   5356,   2828,   9428,  -3498,   -520,  -3131,  -5513,  -1863, -11430,   3896,   1938,  -3833,   5958,  -1510,   3088,  -3747,  -8320,   1506,   1563,    201,  -3425,   8018,  -4748, -19582,  -6283,  -6100,   -317,  -5353,   4860,  -6663,   9114,   2305,   4139,   8048,  -4949,   3770,  -5489,   6653,   5769,  -5439,  -4862,    947,  -6918,  -4746,  -4259,  -2666,  -4106,  -5808,   2442,   7359, -10059,   1675,  -3909,   4183,   2637,  -8773, -16409,   1765,   6324,  -1445,  -4766,  -3234,  -2508,  -5224,  -1078,  -1475,  -2573,   -882,    525,  -1215,   -648,   1045,  -5224,  -5941,   4499,  -3177,    395,  -5478,  -3617,   1614,   4456,   2565,   8364,  -6323,  -5677,  -4672,  -3539,    952,   -142,   3543,   4363,    945,  -4414,   8338,  -6104,  -3824,  -6673,  -7071,   -791,  -3631,   -999,    396,  -3092,   1453,   -973,   -636,   3963,   -230,  -2868,   3935,  -5523,  -4635,  -2272,  -2889,   1576,    933,     -3,   2768,   1731,    389,    191,  -5846,   1097,   -260,  -4161,  -8307,  -3906,   1291,   -976,   2459,   -783,   6677,   1916,   1723, -10303,  -2055,   6871,   5355,   2280,  -2108,  -8050,   6477,   1151,   3910,    668,   -715,   -401,   -447,   3448,   6900,  -5315,    959,  -9321,   -336,  -3520,  -5608,  -1229,   2463,  -5868,  -5042,   1263,   -607,   1645,   5180,    194,   3144,    337,    301, -15397,    213,  -4285,  -2227,   -786,  -2405,  -5576,   3005, -16870,   8491,  -8154,  -1291,   3094,  -2054,   -234,    -22,   6738,    694,  -6128,   1803,  -1281,  -4248,  -4975,  -7834,   -850,    705,   1109,   3363,  -2276,   1375,   3132,   6725,   1939,  -3075,   2921,   3415,   1520,  -1866,   -236,   -627,  -6673,  -2160,   3015,   -104,   2953,    499,    527,   2352,   7743,    563,   7430,   -492,  -6652,   1216,    818,  -5016,    172,   7577,   1797,  -3334,   1221,   2551,  -2614,  -7184,  -1857,  -1223,   1352,   1042,    121,   1392,   -658,  -1288,  -1646,  -1545,   3429,  -1713,    253, -15310,  -3625,  -1002,   8745,  -3550,  -2803,  -2760,  -4355, -10617,  -2133,  -7843,   1386,   6229,   5511,  -3136,   2833,  -3140,  -3594,  -5347,  -5480,   6364,  -3335,  -3856,   8870,  -2465,   1919,  -1073,  -9910,   1923,   5390,   6277,  -2138,  11524,   2926,  -2734,  -4416, -11235,  -3610,  -7512,   1261, -10283,  -6676,   1665,  -9814,  11021,  -2013,  -3797,   5175,   3940,   2443, -14673, -11981,   1387,  -5887,  -1508,    611,  -5380,  -3423,  -1066, -15750,   9455,   2099,   1167,   3795,   6794,   1512,  -5603, -21363,   2320,  -3107,   2854,   -333,  -3394,   1161,   3768,  -1600,  -3657,  -1994,   -926,  -3956,  -1353,  -3543,    419,
         -2632,  -2754,   1078, -10125,  -3245,   1446,   1693,   -403,   4847,  -2801,  -5191,  -4342,  -3831,  -4874,  -5330,   2962,  -4820,   1035,  -4550,   2175,   1987,  12900,     54,   5064,  -2919,  -5164,  -6246,  -3290,  -1968,    435,  -5815,   6271,   3441,   2247,   6287,  -3174,   1636,   5255,   2823,   -125,   -390,   2287,   2673,   2037,  -1644,   -939,    434,    480,  -3964,  -5312,  -1726,   -429,     86,  -2726,   1500,   4285,  -2055,   1544,   3376,   6062,   -502,  -1768,  -6303,  -9095,  -2909,   1360,  -4549,  -3589,  -2716,   6396,   3949,   -885,   -788,  -2216,    110,   1441,   3003,   4494,  -3454,   -507,  -6150,  -5635,   3509,  -7258,   1418,   1106,  -7144,   1751,  -5643,   1580,  -8413,   3241,  -2182,    491,    -26,   2327, -17064,   -192,   7283,  -5083,   3848,  -3249,   -259,   3790, -13010,   7043,  -2365,   2519,  -1857,  -2414,   2332,  13683,   2002,  -2009,  -5179,   2400,   3303,     36,  -7119,  -8759,  -6947,   5474, -13535,   3433,   -305,   2729,   -276,   1012,  -7193,  -2203,    115,   4189,   -604,    115,   1803,  -5465,   6107,   -714,   3486,  -3144,  -5916,  -1034,   1944,  -2699,  -4329,  -1933,  -8533,   4009,  -3013,   3730,   1477,  -3168,  -3238,   5090,  -2477,  -4249,   3903,   5687,  -2636,  -8170,   -706,   1628,    -71,   2486,   2163,  -1043,  -2307,   1199,   1943,   -615,   4801,  -5984,  -4181,  -1666,   4394,  -3111,   5015, -10786,  -2392,   1358,  -1958,   -464,   6556,    849,   3940,   2742,  -9445,  -5117,   2987,  -3110,  -4207,   3523,   5722,   7078,   -408,  -2600,  -8359,   1977,  -1866,   3779,  -4694,   2683,   2044,   1338,    884,   9505,  -3020,  10989,   1744,  -1816,  -4478, -14534,   -844,  -1724,   4169,  -7112,  -6769,  11741,  -3727,  -4968,  -5118,   3997,   6850,   -368, -10826,    524,   7684,  -3868,   2910,   -714,    -57,   6378,   1652,  10928,   8452,   -546,  -5734,   6347,  -2804,   4318, -26822,   1934,   6217,   6931,   4534,  -4713,  -1506,  12393,  -6711,    253,   3826,  -1314,   2086,  -1226,    813,   4046,    383,   1646,   1022,   4256,  -9805,   2541,   5615,   1582,   2308,    561,  -7666,  -5874, -10186,   3653,  -8599,   6262,   7173,   3436,  -2024,   8512,  -5235,  -2418,  -4420,  -3491,    190,   3634,   6362,    929,   2383,   3260,  -5183,   2845,   7005,   3859,    598,  -2267,  -2858,  -7984,  -6147,  -4764,  -2044,  -1904,  -1881,   1756,  -2199,  -2580,  -2221,  -1401,   3720,   7251,    605,   2042,   -427,   5790,  -5762,   2370,   -471,  -6140,   1315,  -5659,  -5873,  -4456,   2047,   3605,   2091, -13461,  -3478,  -1212, -13936,   5820,  -6008,   7039,   4849,   8380,  -1352,  -4116,  -1249,  -2951,  -5002,   1092,   4524,   3282,  -1663,   2998,  -5221,  -1628,  -3719,  -5804,    741,  -1732,  -2691,   2065,   1785,   2707,   3913,   2033,  -4655,   1244,   2463,   -627,  -1009,     64, -12185,    870,  -7711,  -3231,   1995,  -2401,  -2383,  -5635,  -3659,   6964,    960,   -966,   4242, -12146,  -2447,    170,   1246,  -2234,    999,  -6541,  -8869,   4764,  -1054,   6208,   3421,   3027,   4774,    -65,  -3151,  -2233,   1067,   5552,  -2024,    143,   2121,   3811,   1649,   5826,  -8695,    495,  -3092,  -3471,   9236,  -2575,  -5698,   6744,  -2748,   5646,   -727,  -1280,  -1422,   6333,  -1339, -11186,   3439,  -5584, -11137,  -4962,   -529,    512,    925,   2703,    147,    855,   2500,  -2633,   1920,   1550,   -857,   5509, -12227,  -1672,  -5126,  -4301,   2908,   2310,  -2632,    398,  -7159,   2518, -10392,   -619,  -1112,   1709,   -741,  -1173,  -3247,   4704,  -5380,  -4776,  -3573,  -3248,  -8066,   1938,  -6229,  -2247,   -571,   1222,   6932,   6082,   5242,  -2288, -12829,  -5639,   2456,   5873,   4192,   -433,   -520,   2240, -11111,   -584,  -3098,  -2378,  -5944,  -5274,    981,   3347,  -1647,  -3898,   5412,   8305,  -1772,    786,    336,   1659,  -3303,   2800,  -2522,   2801,   1775,   -632,  -8938,   3552,   4005,  -6660,   2028,    860,  -7255,  -3519,   1304,   -643,   1125,   4809,   -725,    991,  -1498,   1194,   2465,  -1713,  -4910,   2608,  -4645,    -14,
           486,  -2036,  -5057,  -1203,  -6117,  -3762,   4244,   -930,  -5204,  -3365,  -1044,  -4918, -10090,   -968, -10731,  -7831,  10076,   5225,  -2929,    613,   -359,   4026,  -3512,   2044,  -1396,  -2038,  -3288,  -3872,  -1428,  -5253,  -7000,  -7706,   6231,   5722,   1574,   7019,  -5719,   -679,  -1328,  -2276,  -1570,   2005,   1036,  -1004,  -1264,      2,    619,   2397,  -2192,   5576,   4861,   1573,  -3610,   6464,  -6277,   5946,   4912,  -4628,    997,  -6646,   -525,  -6158,   4124, -13875,    553, -12107,  -4366,    554, -16436,   1369,  -7369,   2761,   8781,   4556,     73,    745,   1979,   -309,  -1279,  -1641,   3818,   2378,  -3902,   -472,  -2605,  -2144,  -5100,   4057,  -1926,  -5954,  -8308,   5961,   2702,    128,   3228,  -7936,  -1994,  -2041,     64,   2687,  -1843, -10517,  -7407,   1143,    293,  -3048,  -1762,    219,  -4609,  -2778,  -5477,    244,   3220,   -983,   1927,  -8509,  -1788,  -1121,    315,  -4615,   -745,  -9978, -13579,   5351,   2243,    -25,   5460,  -5627,   -960,    613,  -1087,  -1033,   2294,   -234,    773,  -8571,   4698,    839,  -1252,   6477,  -7324,  -1862,   2698,   -745,  -1727,  -5588,  -6266,   8616,  -6201,   6164,   2655,   -869,   5200,   6155,  -1438,  -9946,   3794,  -1982,  -3850,   -360,  -1139,   -495,  -2201,  -2074,  -3083,  -1030,   3285,   1727,   4239,  -2424,  -2217,   9838, -11068,  -3816,    615,  -2363,   4443,  -2022, -11219,   1257,  -8932,   4878,  -5478,   9394,   3465,   2190,   -256,  -4090,    782,  -6968, -12947,    147,   4410,   1222, -16892,   6067, -13635,  -2906,  -3115,  -6409,   5811,   3262,  -6699,   6139,  -9442,   3060,  -2540,   3123,   2057,   5834,   1958,  -2318, -12680,   -980,  -1925,   6112,    702, -10822,  -8126,   2974,  -5576,  -1033,  -2007,   4719,   -968,   1911,  -2295,   4367,  -2740,  -6113,  -7627,  -2246,   5673,   -363, -10791,   7148,  -5125,  -2590,   3428,  -1510,  -6916,  -3386,   2080,   3150,    674,  -8457,  -6330,  -3531,  -3631,   -896,    409,  -1084,  -2338,   -991,  -4131,  -5135,   3435,   2406,  -4574,  -1623,  -4567,  -1187,  -3921,   4459,   1263,  -8497,    916,  -7344,  -2755,  -3979,   3002,  -3651,   6159,     17,  -2863,   4580,   -339,   1747,  -7561,   2185,  -1270,  -3531,   1250,  -5999,  -1778, -11003,  -7269,    -57,   6597,   6188,   2836,   2740,  -6757,   5023,   1318,   4364,  -1259,  -1582,   1626,   1629,   -144,   -835,    755,   -231,   -512,    857,  -1630,   5676,  -4670, -11508,    -32, -10674,   5889,  -3619,  -1359,  -7027,    527,  -1878,    640, -12394,   9841, -17591,  -4295,   2715, -12660,  -3383,   4681,   1234,   3238,   6895,   -277,  -2391,   2906,   3072,   2362,   2009,   5124,    859,   2959,   4028,  -2430,  -1559,  -1659,   6336,  -2299,  -9060,  -3619,   3245,   3330,  -8161,   2333,   6536,  -2128,  -1352,  -1666,   3064,   4870,  -1397,  -2284,   1556,    721,  -1674,  -3314,  -1643,   -145,    449,  -2846,  -3407,   4968,  -4390,   4875,  -2309,  -2358,  -4547,   5556, -12228,   3725, -11002,  -4750,   3326,   1807,  -6753,   -130,   8580,   4797,   6526,    209,   -818,    961,  -4880,   4098,  -4986,  -1930,   2581,  -2174,   5048,  -7876,    867,    989,   6724,    285,  -7615,  -4523,  15500,  -1760,  -5113,   3441,  -4227,  10505,   5947,   3223,  -7799,  10085,   8813,   -347,    328,  -3388,  -1501,  -1102,    957,   1909,  -2815,   2341,   -909,   1267,   5728,  -1913,   1840,  -5772,  -4280,   -818,   3414,   6575,  -2091,  -2200,   5644, -14399,  -1748,  -1278,  -6371,   7602,  -2256,  -2764,  -5968,  -3285,   4892,  -9866,  -1296,  -1318,   7766, -11336,  -7702,  -8945,   2152,   1525,   3058,   4331,   -974,    639,   5126,  -8334,   4738,  -1679,  -1237,    -60,   4522,  -9265,  -2654, -13832,  -4657, -12068,  -2897,  -1265,  -6999,  -6506,   4682,  -4909,   2251,   2556,  -5555,  -1830,   1088,  -1076,   2198,  -3594,  -5036,  -4858,   3497,   -967,   -854, -20048,   7078,  -1954,   4631,   1471,  -5490,    412,  -1117,   1298,   2374,   1820,  -8410,    623,   -412,  -2935,  -2071,   2368,   2959,  -3235,  -6040,  -2827,   -218,
         -5452,  -7524,  -2978,  -2762,  -2858,  -1822,   -933,  -3939,   4213,   3065,   5493,  -6768,   4001,   2436,   2764,   5068,  -3105,   2227,  -1775,  -1157,  -2551,  -4742,  -3539,  -2436,  -1459,  -1257,   1056,   5766,   1630,   1520,   1312,  11003,  -7029,   5493,    228,    416,   4672,  -6487,  -5628,  -7274,   2563,   1119,  -1877,  -2115,    466,    534,  -1759,  -2322,   1465,   1651,    123,  -3579,  -4626,   3467,  -2830,   -746,   -701,  -1678,    278,   4005,  -1794,  -6218,   1642,   5024,   -315,  -4160,    -53,  -1167, -13641,   1288,  -1717,    999,  -4351,   4564,  -1544,  -1336,   4144,  -1296,    988,     13,   3353,   2852,  -4231,    661,  -1979,   2496,   -310,  -4896,    770,   7486,  -2211,  -1403,  -2925,   5456,   4282,   -472,  -2435,  -1754,   1435,   1285,   2963,   9239, -12132,    735,   -329,   1779,  -1515,   1244,   1441,   -149,  -5661,  -2153,   -564,  -4421,   3774,   6396,    599,  -1924,      1,  -1749,    822,  -2331, -10967,  -4182,  -2845,   3339,   2474,  -3656,    572,  -5042,    -99,   2230,   1216,  -2565,   3925,    959,   -149,   4077,   3329,  -3442,   2188,  -1387,  -1284,  -4261,   9137,   1587,  -6572,  -3064,  -9920,   1053,   2593,  -4465,  -1894,   2426,  -2019,   3723,   4771,  -9010,  -6696,  -1766,   1707,   -381,   2322,    482,  -1402,  -1310,   -838,  -2240,  -6561,  -2615,    180,   -709,   1696,   -687,  -2887,  -2040,   2166,  -3983,  -9352,  -2180,  -7101,   -615,  -2325,   1995,  -2150,   1928,   1393,  -2176,  -4938,  10133,  -5019,   3003,  -2305,   5251, -13572,  -1420,  -6728,  -1730, -10136,  -3730,  -6061,   7227,   3825,  -6543,   4699,  -9940,  -6227,  -3686,  -3881,  -2147,  -2406,  -9229,  -2351,  -3621,  -6907,  -1944,  -1590,   6247, -10832,  -1785,    -73,   1048,   -192,  -6521,   4211,   4573,   2035,   1262,  -1793,   5505,  -3104,  -1810,   1213,   7987,  -9827,   3566,   4097,  -5042,  -6556,  -2974,  -2053,  -5216,   -142,   1242,     16,   7136,  -4390,   3289,   1640,  -1890,   1131,   1353,  -3649,   1995,  -1924,  -5562,   -198,  -3895,  -3021, -12059,   2666,  -5567,  -1562,   -627,  -5329,   -235,   1040,   5989,  -1199,  -8798,   7991,  -4554,   1680,   -860,  -8486,   1385,  -3691,   -697,    -34,   3029,  -8279,  -4351,  -1224,   -897,    326,  -9006,  -8993, -13983,    -26,   2894,  -2300,  -5124,  -2140,   2878,    410,   5637,    516,  -3690,  -2982,  -2644,   1143,    994,   -515,   2671,  -1591,  -2298,   2417,  -5033,  -1358,   5739,  -4839,   5648,    934,    355,   1165,    541,   -759,  -6704,  -1621, -12856,   2308,   1605,  -1937,  -1330, -13962,   2037,    200,   -722,   2349,   5831,   1843,  -2861,   -324,  -3307,   1104,  -1761,    392,  -3667,   1375,  -1005,   -706,  -6530,    878,   2752,    105,   3627,  -6272,  -6253,   3945,  -2021,   -415,  -9985,  -2944,   -374,    800,   2207,   1730,  -7195, -11751,  -3099,   -828,   6500,   1092,  -3218,   2044,   1467,   -323, -12012,  -3267,  -5761,   1704,   4423,   1451,  -6363,  -2239,  -3549,    336,    636, -11869, -11114,   2235,  -4483,  -1360, -11079,   3507,  -1874,  -3603,   1145,  -1396,  -5223,   4237, -10505,  -1639,  -6010,  -1313,  -3934,   2761,  -1243,  -5143,   3768,   4841,   4191,  -7088,   -997,  -6310,   1847,  -5282,  -1509,   4445,   3583,  -2168,    850,   3002,   3352,  -7414,   4515,  -1153,    145,  -2363,   2307,   1768,   -566,  -1498,   1207,  -1391,  -2365,    311,    -79,  -3376,  -1412,   -391,   4425,   -647,  -7260, -12470, -10183,  -5428,   7040,   -283,   9464,  -4436,   -423,   2736,   1500,  -1748,  -7410,  -2907,   1132,  -4484,   8048, -16602,  -5521,  -4099,  -7239,   3994,  -8967,   3246,   3989,  -4803,  -4908,  -4427,  -9702,  -3232,  -7449,  -6049,     72, -10979, -12410,   -272,  -1468, -12473,   7104,   4529,   8994, -15844,  -4293,   -178,  -6277,   7795, -18632,  -4885,   4668,  -3360,   3238,   2583,  -2991,  -5364,  -1128,  -4135,   7802, -10944,    719,   1069, -12130,  -1702, -10609,  -3085,  -2505,  -2355,   4762,  -1550,  -4047, -10310,  -6878,  -1991,  -2594,   1180,   -617,   1468,  -1475,  -5818,  -4897,
         -2071,   3373,  -3949,  -3803,  -4762,   1523,   -812,   -420,  -8454,   2055,    389,   -300,  -4647,  -6220,  11714,  -4660,   3144,  -1959,  -5021,   3973,  -3958,   -238,  -3705,  -1344,  -2246,    682,  -1014,   3226,    565,  -1404,  -4240, -14958,    607,  -2663,     16,   1656,  -1383,   3880,   4591,  -1599,   1253,   -818,  -1493,    162,     24,    -64,   -569,  -1608,    959,  -3492,  -3117,  -1474,   1084,  -5522,  -5256,  -6293,    172,   4414,   -878,  -7614,  -2482,  -2442,   3484,  -9346,  -2135,  -5138,  -5319,    504, -12555,  -2828,  -2795,   3538,   3454,  -2230,   3815,   -362,   2739,   5067,   2146,   2780,  -3274,  -6177,   -884,  -4086,    762,  -1665,  -4141,    451,  -4361,   7361,  -6434,  -6418,   3630,   -427,    281,  -8967,  -1108,  -1402,   -698,   3759,   1720,  -6080,  -7932,    122,  -2139,   6109,  -3066,     83,    258,  -2774,  -7465,    995,  -2163,  -1431,   2880,    461,   -469,   -959,   6125, -13188,   -421,   5832,  -7693,  -1982,   2567,   -676,   1417, -11200,   2029,   1431,    818,   1181,  -1597,  -2656,   4521,  -6447,   2173,  -5792,  -1415,   1493,    553,  -1914,    743,   3181,     62,  -1046,  -7461,   1220,  -4615,  -3654,  -5780,  -7190,   1869,  -2467,  -1248,   1987,    262,  12729,  -2765,   3225,    129,    462,  -2039,  -1926,   1400,    277,  -2594,  -2085,      0,  -4338,    -80,   3501,  -2869,  -3332,   1144,    292,  -4633,  -5397,  -7709,  -4646,  -1356,  -2469,  -9011,  -3839,   1237,  -4462,   1530,    367,  -5635,  -5609,  -2123,   -884,   1696,   8159,  -8928,   5735,  -4457,   2511,   -618,   2542,  -1394,  -2251,  -4240,  -2176,  -6079,  -1663,   1086,  -6201,  -7662,  -3185,  -4063,  -3732,    866,    -74,  -2644,    161,  -1420,   5507, -17388,    239,   -245,   3147,   1962,  -1188,  -2914,   -270,   1099,   7039,    313, -10342,  -8452,  -1224,    637,   6264, -16543,   8816,  -1335,    614,   2785,   -631,  -4494,  -2149,  -3886,   5949,    243, -12742, -12512,    269,  -4586,  -1237,   2005,   -716,  -2031,  -6855,  -3335,   2118, -12193,  -2896,  -2772,  -6549,   7519,  -9314,  -3450,  -4519,   -302,  -7355,   -342,   3701,    381,   5067,  -2427,   4333, -13119,  -5633,   2224,  -2899,    180,  -7617,  -6394,   4332,   1938,  -9745,   3892,  -1656,   4074,  -3102,  -5031,  -3826,  -2957,  -5553,   2640,   2245,   4459,  -6932,   4790,  -2581,   -975,   -933,  -3092,  -2395,  -2240,  -1244,  -1285,   -267,   -917,  -2542,   1774,  -2820,   4984,     68,   -308,  -2653,  -6605,   2094,   2509,   8343,  -2544,  -5815,  -4058,  14727,  -1834,  -6491,   6636,   4647,  -7095,  -3243,   -562,   4233, -11711,  -7197,    661,  -3561,   1401,  -6697,    -12,   1338,  -3340,  -3590,  -1310,   2840,   2264,  -2278,   5350,  -9088, -10658,    152,   5015,   3900,   3641,  -4000,  -1926,  -4902,   4046,  -3299,   1538,  -2446,   3108,  11218,  -5911,   3272,  10341,   1016,   2196,   -295,  -5012,   7020,  -2949,   3932, -11793,  -2505,   4309,   8948,   -713,  -6900,  -4804,   -820,  -7122,  -1269,  -5729,    381,   2804,   -933,  -2718,  -7207,  -8285,  -3425,  -1333,   -896,   2180,   1215,  -1844,   5208,   -427,  -1300,   2050,  -1894,   4097,  -2897,   3232,  -3457,  -5454,  -1035,   -596,   4976,  -2082,  -1935,  -2602,  -2464,  -9156, -10828,  -6781,   3553,   3924, -11544,  -7200,  -1099,   -133,   2618,   1155,    880,   2181,    387,   -321,  -1535,   5050,  -2920,  -4639,  -6629,    -76,   3061,  -3877,  -3954,  -6934,   1844, -10398,  -6072,   -876,   1223,  -2597,    -95,  -1299,  -2158,    941,  -5850,  -2152,   4597,  -7002,   8832,   3731,  -4278,  -9220,  -1820,  -1803,  -1457,    764,   1383,  -3600,  -2633,  10497,   2236,   -949,  -7393,   -172,   1221,  -3566,  -1466,  -4630,   -598,   6368, -13934,  -7139,    730,  10120,   4440,   3490,   2493,  -3093,   2091,  10825,    847,   6349,   -531,   2387,   2545,   1539,   8076,    764,   -628,  12207,   1864,   4292,   6893,  -3542,  -3484,  10412,   8153,   9751,   1378,    259,  -1371,   1738,  12644,  -1312,   2977,    192,   -323,   6302,  -3518,   2170,   1071,   -635,  -5208,
         -9461,  -3083,  -2562,  -1667,   6766,  -5111,   -925,   2448, -12031,  -9337,   3797,   2016,    382,  -7564,   4785,  -5138,  -9046,  -8258,    296,   3167,  -5482,  -1366,  -4389,   3223,   3409, -14037,  -4747,  -1829,  -4549,   -332,  -2625, -15893,  -8174,  -5703,  -2583,  -2796,   1376,  -5505,  -4315,   5054,  -2208,   -362,    577,  -1470,   1558,  -1520,   -833,    870,    907,  -2754,  -1750,  -4727,   2241,   7422,    776,   6589,  -7063,  -2624,   1123,   6989,   -825,  -5766,   2808,    682,  -3704,  -6229,  -5852,   3701, -12198,   4959,  -2587,  -3780,  -9896,  -8875,   2828,   1355,    460,  -1860,    548,   -105,  -2024,  -7311,    122,   1191,   1352,  -5673,   3292,  -5475,  -1878,  -7326,  -5659,   3226,   3316,  -2148,   -660, -11214,   7167,    253,  -3202,  -1662,  -2116,  -5313,  -7895,   3979,   2570,   2021,   -903,  -6975,   -836,   4714,  -6126,  -3154,  -8514,  -5930,   5507,   5780,  -3736,  -4151,    223,   -323,   2211,  -4813,  -7012,   -724,   1373,    558,   5136, -11299,  -3683,  -2301,   -166,   1634,  -1787,   2571,   1659,  -5315,   1077,  -4580,     18,   -748,   2633,  -3462,  -3677,   5780,  -1564,  -3325,  -5266,  -1587,  -4985,   1762,   1653,   1118,  -5283, -14285,  -4056,   7933,   1699,   2233,  -8193,   -254,  -1185,   -787,   1586,   2791,   1723,  -1140,   -362,  -2051,  -3515,   2278,    -20,  -6333,  -2074,  -4879,  -9268,   5819,  -8652,  -2978, -16307,  -6024,  -2270,   7922,  -2669,   7359,  -4033,  -2589,   3261,  -2817,  -2612,   3166,  -3962,   6212,  -9183,  -3774, -14567,  -6541,   4468,  -8791,  -7030,   1392,  -6648,  -3460,  -2042,   4919, -10026, -12454, -11135,  -3832, -11840,   -646,  -4849,  -7736,  -1539,   -216,  -2238,   8536,   5912,   5569,  -4633,    523,   4029,    753,   1799, -11869,   1751,  -1190,   1499,   1053,   2931,  -1284,   5953,  -1154,   6411,  -3555,  -8985,   5090,  -4340,  -5590,   -697,   -181,   7954,    279,  -3138,  -4106,    555,   3002,  -5072,  -4932,   2659,   1929,    376,  -8985,   -288,    -53,  -1963,  -5710,  -2202,  -2599,   2426,  -1735,    538,   4184,   3423,  -3190,  -4031,  -9055,    605,  -1782,  -7057,  -9664,   6732,   -301,  -8557,  -9874,   -975,   2710,  -8274,   2738,  -3022,   1366,     28,  -7412,   7792,   3136,   -405,    585,   2133,  -9337, -12737,  -8229,   1991,   1461,   4156,    285,   1262,   1384,  -1238,    351,     78,   -899,    474,  -1845,    884,  -2214,   -824,  -6102,  -4674,  -4628,   3422,  -5194,   1624,  -3559,  -3731,  -2824,   -839,   7520,  -4808,    -96,   1274,   3876,  -1826,  -3304,  -2069,  -6416,  -8595,   4537,   2280,   -787,  -4456, -13209,   5890,   3174,   2243,  -2458,   -595,   -558,  -2871, -10661,   5131,  -1430,   3620,  -2730,     -2,  -2317,   6949,  -5140,  -3913,   2220,  -3138,    374,   1879,  -4433,   7577,   1700,  -3071,   1674,    117,  -1567, -13183,  -3320, -10615,   4861,    565,  -6665,  -3940,  -5362,  -5206,   2776,  -3665,  -7827,   2709,   8451,  -2516,  -2493,  -2704,  -5916,   5574,   1953,  -2329,   4723,   1490,   -650,   5364,  -9282,   3365,  -2233,    -77,   4403,   1489,   1503,   3633,    344,  -2449,  -1139,   4322,   -408,   5094,    563,   3024,   3250,   3709,  -6995, -10007,  -1878,   -990,  -1835,   6024,    408,  -5937, -22290,  -4500,   1682,   -379,  11359,  -5672,   2220,  -3009,  -1225,   1112,    659,  -2023,    726,  -1197,   2055,  -6351,   -910,   2399,   1012,   6887,   -747,  -1165,  -1132,  -5671,  -4472,  -6764,  -6889,   2169,   2101,   -894,   -704,     97,  -5239,  -1213,  -1009,  -5222,  -3513,  -7326,   4639, -18537,     61,   -702,   -714,   3313,    -11,   5183,   7658,  -9223,  -9253,  -1518,   4172,  -4208,  -2990,    829,   -585,  -5656,  -1741,   -663,  -5086,   6773,    212,  -3478,   4343,  -6223,   6886,  -4937,  -1776,  -2456,   5416,   5976,  -1738,  -2567,  -3401,  -3808,   5249,   2929,  -4999,      3,   1076,  -3759,  -6394, -10049,   4822,   4628,  -1962,   1783,   4270,   4502,   3578,  -3738,  -1324,   -164,  -7503, -12031,  -2178,   5074,  -4573,  -2244,  -4542,   2219,  -3895,   3763,  12363,
         -5308,    779,   1205,   5567,   3073,  -1319,   3698,  -3155,   1615,   4294,   -328,  -4713,   3915,    728,   1279,   2058,   8193,    328,  -9145,   5631,    842,   1890,  -6255,   4847,   9376,   2047,  -1457,    177,   6637,   1916,  -6711,   3882,  -5269,   3674,  -3908,   -420,   1417,   1501,    587,   1570,   2383,   -290,   1210,     86,  -1547,  -1697,   2275,   -161,   2088,   3458,  -6023,   -710,  -5675,   -992,  -2177,  -4235,  -2038,  -3689,     78,    819,   1288,  -1927,  -2726,   4811,   3010,  -1183, -14451,   3610,   2880,   -738,  -1223,   2221,    694,   3167,  -1538,   5735,   2417,  -3221,   -227,   3239,   2397,   2917,   2544,  -1507,  -1937,   -913,  -7290,   -604,  -1114,  -1190,   2928,   1597,   4411,     95,  -1935,  -4414,   -506,    901,    211,  -2318,   3765,  -1775,  -1885,  -3986,   1943,  -3011,   -543,  -7947,    848,  -1080,  -9993,   2361,  -1703,   4263,  -5093,   2449,  -1428,    436,   1656,   -559,   4351,   3812,  -1564,  -2468,    802,   1418,   -222,  -4358,  -5441,   1461,  -1757,  -4101,   1771,  -3101,  -1072,    -43,  -2208,   4291,   2751,   3817,   1697,  -3153,   1162,   1183,  -8645,   5745, -14202,  -1600,   4235,  -2050,   7365,  -1139,   4746,  -2528,  -3071,  -1791,   7066,      6,  -2745,  -4752,    -66,  -1173,   2144,    305,   1599,  -1976,    898,  -2732,  -4902,   1905,   2435,   5991,   2322,    -68,   3554,    -91,   7394,   5229,  -2603,    572,  -8747,  -1063,  -7455,  -8208,     23,  11703,  -2200,   4223,  -3133,    909,  -1197,   2723,  10986,   3791,   8144,  -3403,  -1181,  -3125,    342,   6141,   -902,   1294,  -7890,  -1489,  -6007,   2108,  -4503,  10276,   6031,  -1685,  -6034,   3063,   9323,  -2602,  -1939,  -4752,   2191,   -627,    945, -15434,  12860,   1339,  -1869,   6371,   3589,   3843,   1898,   -218,   -924,   1516,  -4218,  -5213,   -746,    933,    175,  -7796,   1877,   1049,   -579,   1541,   7426,   -524,   -921,   -826,   -366,  -1270,  -1530,  -4815,  -1484,   4933,  -6747,   -351,   1145,   -924,   1622,  -3470,   3983,  -1208,  -4983,  -1055,  -2130,  -1117,  -3227,   2506,    815,   -599,  -4825,  -1066,  -3227,  -1899,  -2298,   9380,   5359,   4461, -15097,  -4243,  -3137,   -302,  -4539,   2988,  -3203,   3987, -11669,  11475,  -1768,  -2972, -10369,  -4500,   -229,   4745,  -2945,  -2617,   1268,   -470,  -4867,   1641,    476,   1215,  -2312,  -2405,   2043,   1105,   2195,   1899,  -1123,   3357,  -9140,  -7751,   7933,   2314,  -1212,  -5284,    758,   1566,  -2142,   -108,  -6138,  -3111,   3627,     65,   4986,   4578,  -7491,   -222,  -2678,   2396,   -998,   2937,   -796,   2507,  -2621,   1716,   2578,    519,     27,   2437,  -2047,   3455,    569,  -2648,   2805,    351,  -5706,  -6838,   -808,  -2696,  -6133,   1187,  -5418,    602,    641,  -8062,  -2242,   2616,   -856,  -1252,  -2679,   1554,  -5578,  -2163,   2622,    -79,  -4784,    556,  -6452,  -1426,  -2875,   -634,  -4424,    434,  -5952,   -388,  -3300,    213,   1500,  -1888,   2213,  -2839,  -6154,   -972,  -6629,   -928,    543,  -6327,  -3465,   2589,  -3657,  -2167,  -2602,    925,   3130,  -3774,  -1121,    558,   2254,  -4180,   3334,   1360,  -4887,   3301,  -4806,   5315, -12821,  -7783,   1958,  -3680,   2133,   -181,  -2043,    460,  -1217,  -3778,   1604,  -1547,  -1328,  -3576,    339,   1403,     63,  -1739,    849,  -2828,   -462,    135,  -8073,  -2885,   6367, -14397,    992,    669,  -7074,  -3094,  -3863,   3556, -13133, -18069,   8702,    883,    116, -10077,  -2654,   2715,   5309,   7182,   1624,  -1588,   2941,  -1017,   2178,   5931,   2634,  -1917,  -3613,   1079,  -8523,   -819,   1655,   -267, -10597,  -5388,  -3434,   -440,  -9161,   6339,   9369,   3114,   1101, -19051,   4287,  -3837,   2141,  -5280,   3537,  -4826,  -2771,  -5020,  -5784,   -139,    305,   1735,   1586,   3865,   2931,   1673,    -99,   -378,   1250,  -1745,   2374,   3256,   8505,   1876,  -3448,  -1273,    657,   4894,   3283,  -4457,   2528,   1391,  -2757,   1540,   -408,  -3540,   2582,   5313,   -203,   5839,  -4095,  -2150,  -3613,   2464,
          2301,     54,  -3568,  -4273,  -2710,    488,   1012,  -4000,  -1411,  -5287,    179,   4955,  -7518,    -98,   4530,   1961,  -2548,   7461, -10323,   2038,    667,   1327,  -1597,   3537,  -4525,  -2078,   6277,   8950,  -2178,   -756,  -4528,   -177,   2714,  -1789,  -4125,  -2608,  -2610,  -3232,   -211,    524,   1041,   -290,    668,   2218,   2427,    169,     90,    589,  -1308,  -2865,  -3443,  -3266,  -3304,  -1390,  -1441,  -3022,    903,   -723,  -6704,   4223,    985,  -1013,  -1096,   1573,   7046,  -4430, -14712,  -2531,   -321,  -1037,    -47,   -294,  -4283,   3215,  -5911,   6702,   1680,    184,   -159,    546,   7508,   2396,   1642,    404,    828,  -1890,  -3902,  -3471,  -2058,   1113,  -6130,   3994,  -8255,    216,    512,  -7800,   -978,  -2343,   4598,    459,   2078,   -531,   3636,   2936,  -3452,  -3051,  -1056,  -5782,   3046,  -2602,  -5305,  -3321,  -1272,   2925,  -8972,   4226,   -757,  -3125,  -1063,  -6874,   -557,   1997,  -5278,  -1207, -10844,   2443,   3188,  -9551,   -789,   -534,  -9865,   1897,  -4995,  -1745,    806,  -4793,    755,  -1400,   3793,  -6009,   5161,  -2866,   3104,   5015,   1694,  -1955, -17828,  -3632,  -7397,  -2322,   -843,  -7637,   4387,   8296,  -4422,   5198,   5873,   1380,  -2558,  -4229,  -1100,   2419,  -1354,   1193,   1047,    869,  -1700,   -355,  -1740,  -3767,   4014,  -4870,   3055,  -3600,    720,  -3002,  -1333,  -1949,  -6461,  -9231,   3045,  -1240,   -666,  -8773,    305,   4019,    848,   6031,   3491,   -207,   7642,  -1759,   -175,    734,   3122,  -5131,  -1744,   -705,   1942,  -9339,  -5163,  -3134,  -6479,  -3625,   3271,   2424,   -645,   9712,   8286,   1753,    171,  -5091,   -481,  -1017,   -446,   1801,   -260,  -2555,  -7531, -14263,   2661,  -1057,  -7119,   -599,   1601,  -2902,   5545,   3641,   5043,   -299,  -6681,  -2914,  -3363,  -2740,   3300,   1540,  -2430,    415,  -5739,   1592,    158,  -5240,   2683,  -1097,   1265,  -2446,  -2515,   3161,   1258,  -2236,   3009,   2890,  -1267,    828,  -1572,   1194,   4541,  -4619,  -8131,   2731,   3760,  -2531,  -2248,   5001,  -9503,  -5410,   2097,   3452,    400,    379,  -6674,   5317,  10226,   3384,   4190,   4090,  -1912,  -1058,  -7787,   5749,   6595,   -674,  -3870,  -4332,   -463,   1707,  -9014, -10327,    156,   4150,  -4341,   1712,   -435,     75,  -1992,    399,   1050,   1316,    876,  -1615,   -747,   -654,   2132,  -2885,   1139,   4018,   -153,   5785,  -5258,   1618,   1312, -11382,  -6199,   -993,   5514,   1447,   1101,  -1946,    902,    687,   -562,  -6890,   -915,  -5199,   4092,   2153,  -2116,   6788,  -2476,   -553,   3377,   4519,   -118,   -870,  -1554,    238, -10982,    415,   -872,   -813,  -4311,  -1334,  -1717,  -7026,   1219,  -1802,  -2539, -11887,    766,  -1247,   -915, -10281,   4911,   6253,  -2397,  -2375,   5269,  -1700,  -6054,  -3407,   6456,  -4283,    504,    163,   3639,   1209,  -1752,   5582,  -7629,   -679,  -2681,    595,    395,  -2483,   5057,     35,   4080,  -1737,  -4600,  -6605,  -7156,  -1836,  -1043,  -6298,  -4074,   -570,   2450,  -8112,   4210,    -88,   2225,   4310,  -5888,  -2820,  -4542,   2601,     61,  -2799,  -6541,   1817,  -2648,   3196,  -7527,   -466,  -3866,  -2593,   4107,  -1801,   -583,  -5747,   1019,     83,   1453,   1032,  -1254,   -730,     35,  -1096,  -1414,   2143,  -1983,  -1266,   -775,    801,    294,   1083,  -6836,   -725,   4755,   -394,  -4775,   -921,   9109,    604,   -127,   7101,  -7088,  -1714,   2390, -11425,   7692,   5572,  -6488,    568,  -3886,    348,   -650,   1313,   7323,  -3641,   6862,   6390,  -9425,    646,  -4112,  -2045,   6796,   2797,   5196,  -2095,  -5276,  -2031,  -6595,   6218,  10964,   3499,   1725,   4656,  11311,  -3422,   2441,    130,   5719,  -4200,    528,  -2440,   7634,  -2685,  -1937,   6883,    931,   1769,  -5888,  -3325,  -1796,   2322,  -3713,  -8914,   -155,  -2516,  -1547,  -4373,  -4585,    852,  -2343,  -1647,   8949,  -1955,  -1289,  -1205,   1925,    943,    277,  -5632,  -3484,   1481,  -3411,   3696,   2837,  -1214,   -351,  -8069,
          8965,   4752,   6504,   -606,     93,  -1036,   2558,   3885,  -8081,  -5892,   5222,  -4451,  -8210,  -2597,  -4433,     89,  -2455,   3830,   1151,   3246,    852,   1664,  -7866,   6431,  -6159,  -1657,   4716,  12025,  -9048,  -1639,  -3810,  -3014,  -1284,      4,    865,    -78,   -455,    104,   2808,  -2431,  -2332,    363,  -1902,   -942,   1837,   2146,  -1481,  -1408,  -3112,   1135,    617,  -4206,   7132,  -2326,  -1490, -11615,  -6011,    237,   4358,   5041,  -6146,   1857,  -1748,  -2910,  -3631,  -7466,  -4745,  -1124,  -3036,    137,  -4492,   6202,  -3435,   3027,   4038,  -3340,    813,    617,   1646,  -2577,  -6009,   5061,   3417,  -7839,   2938,  -2735,   1000,  -3891,  -1434,   4049,   -794,   -836, -11601,  -2381,   1143,  -9573,    691,   -470,  -4648,  -5453,   -803,   -790,  -2111,  -1671,  -4423,  -4277,  -6122,   8878,  -4705,    452,  -3034,   -360,  -5722,  -5856,  -3898,  -9199,   -457,   1523,   2603,  -5603,   -846,   5612,  -5557,   1329, -11180,  -1599,   6018,  -2559,  -8074,    339,   2214,    422,  -5016,    421,   2304,  -2878,   7297,   -971,   7501,  -4832,   1777,   1707,   3819,   3547,   4469,   1604,  -7686,  -3795,  -3606,  -1943,   1331,  -9472,  -5443,   -164,  -2431,  -2871,    271,   1623,  -4834,  -7760,    -13,    -89,  -1246,  -3183,   -781,   1107,    815,   2251,  -1067,  -3029,   5286, -17574,   3592,   1299,   4440,   4127,  -8678,  -8558,  -5988,  -6616,  11037,  -1103,  -6976, -10693,  -4978,   -980,   -118,   -414,  -1117,   -765,     68,   3808,   2220,    643,   3339,   6966,  -8832,   1035,   5981,  -2781,  -1717,   7527,  -3707,    636,  -3489,   1178, -10216,   4806,   4987,   4322,   8248,  -1835,   9949,  -2375,   2707,   4061,  -2428,  -7957,  -2730,  11862,  -8874,   -286,  -3442,   5187,    277,  -3467,    704,  -3301,  -2627,    -85,  -3410,  -2994,  -5899, -10432,   2933,   4091, -12389,  -1983,  -1733,   -634,   3470,  -4567,  -5413,    546,  -3185,  -2027,  -3172,   1042,  -3422,   -541,  -5912,   2035,   -491,  -2308,  -5504,  -1266,  -2718,    175,   3196,   5009,  -1195,  -1656,  -3654,   5020,  -5648,   -459,   3046,   5149,  -6397,  -1182,   3523,   -474,  -4295,   5895,  -1098,   1227,   3864,     20,  -3943,   1576, -20086,  -5762,   2305,   3929,  -9748,   -903,  -7834,   2928,   3816,   -553,   -228,   3241,  -2010,   1742,  -4374,  -3692,   2515,   1941,  -1423,   1428,   -670,     71,    -11,    -65,   3869,  -1638,    589,  -2284,   1077,  -3144,   1403,  -1295,   4124,  -3477,  -3322,   6260,   -426,    234,  -2631,   1680,  -7708,  -3853, -13253,   7080,  -6280,    227,  -2357,    324,   -791,   4730,   1454,   -167,  -2603,   1203,  -1833,  -5026,   -551,  -2700,  -1468,   -442,   -141,   1548,  -1227,   -915,  -5477,    975,  -9378,   -107,  -5368,  -1680,    402,  -5113,    -44,     28,   -633,    243,   3019,  -2829,  -3937,   2065,  -7213,   5104,   2050,   3446,   2598,   1064,   1941,   -547,   5157,  -9817,   1118,  -1743,    778,    262,  -1575,  -8798,  -4473,   1894, -13499, -14467, -11094,  -2157,  -1558,  -2762,  -1034,  -4830,  -6066,   -730,   -703,  -3481,   -916,  -6651,    -62,   1417,   6124,   2213,   -534,    849,  -1172,   5776,   2868,  -5590,  -8419,   8656,  -5817,  -2254,   -159, -12226,   2542,   1536,  -5594,   2743,   2196,   -145,  -1903, -13067,  -1210,   3007,   2643,  -1945,  -1882,   -684,   3194,  -1054,  -1269,  -1983,   5960,   3513,  -2189,    869,  -5174,   2522,   4880,   -498,   8491,  -4584,   3013,  -1520,   4026,  -7429,  -1359,   2502,  -2103,  -1855,   7144,    743,   3857,   2759,   3027,  14442,   6290,    136,  -2949,  -2685,   -469,  -3950,  -2035,   1472,  -8636,   4277,   2524,   1014,  -6285,   1120,  10967,  -5106,   1537,    719,   -380,    987,   5232,   5222,  -5254,   -808,  -4222,  10332,    818,  -2708,  -1711,  -2963,  -2562,  -6578,   4327,    159,   3857,  -2866,    539,   -689,  -5559,  -4975,    524,   5550,  -2338,    824,   -331,  -6074,  -3376,  -2688,    839,  -2380,   -643,    -41,  -2395,   4254,  -2560,  -1518,  -4933,   4320,   -159,  -2922,  -6651,   2566,
          7740,   3705,  -6234,   3803,   6154,   -442,   1337,   6764,  -7690,  -4746,   -617, -13034,   -455,    682, -10283,  -5650,   5540,  -4954,  11496,   2539,  -3019,    -87,  -2187,  13606,  -4863,   -433,   2608,  -7647,   -828,  -2402,  -8828,  -5974,   3091,  -2971,  -3634,   2155,   1810,   -310,     16,   1278,   -232,    294,    464,   -667,   -109,   1937,   1600,   1095,    581,    859,   2316,   4991,  -6959,    -43,    679, -10986,  -5506,  -9551,   5339,  -5047,   2535,  -2787,   -307,   2737,   4898,  -1753,  -1943,  -1568,   1935,   -501,   -164,   4219,   -133,  -4229,   1700,   -829,     42,  -1258,   1872,    423,  -6133,  -3176,  -3616,  -4355,  -2249,    552,  -2854,  -4951,   2652,   4858,    950,  -9549,   4392,  -2092,   2645,  -9056,  -1123,  -1488,   2361,  -4956,  -1435,   -966,   1493,  -1830,  -2020,  -5939,    711,  -1827,  -2804,  -1711,  -1978,  -2113,  -1878,  -9226,   2434,   1112,   2968,   1881,  -3302,    553,   4669,   7395,  -2917,     81,  -3182,  -3298,   1222,  -6009,   -989,    561,  -3901,  -1968,   3093,  -2091,  -1432,  -5702,  -1560,  -7344,  -4903,   4535,  -2343,   -954,   1455,   2486,   -689,  -2717,  -1063,  -6061,   2976,    308,  -1171,  -4708,   2832,  -8234,  -1276,   2919,    528,  -1203,  -1614,  -1471,  -1993,  -1170,    -50,  -1488,   -983,    519,   3408,   -822,   2882,  -2113, -12178,   3954,    946,  -3085,  -1483,   4836,    527,  -6746,  -1847,   6851,  -5365,   1319,  -3729,  -7738,   2222,   3538,  -4275,  -1236,  -1568,    627,  -1099,   1882,  -5718,   4798,  -2970,   3696,  -6277,  -1408,   2513,  -3908,  -2805,  -2922,  16828,   -764,  -4243,   -177,  -4730,    893,  14542,  -6678,   3694,  10183,   7879,   -326,   4313,   8194, -10018,  -9659,   3885,   -952, -13753,  -1959,   2061,    -13,  -3186,    334,  -6132,  -3803,  -2388,    682,   2008,  -7000,  -7753, -11768,  -8894, -10004,  -4044,   1522,    768, -12035,   -124,  -1364,   7085,  -3951,   2472,   -682,   3157,  -3212,  -2732,    -67,  -1734,  -2000,   1010,   1947,   1829, -14523,   1398,  -1823,   3048,   -204,    533,    659,  -2380,   7274,  -5615,   1134,   3895,  -4357,  -5430,   1038,   3007, -15713,  -5370,  -5971,  10498,  -5052,  -1024,   -497,   -300,   8037,  -3955,    625,   6661,  -2488,  -1359,   1996, -13306,  -2704,  -4703,  -4737,   5859,  -2622,   1799,   1886,   1650,  -1462,  -3013,   -408,   1561,  -1828,   -462,   -584,  -1208,    889,   -529,   1837,  -7248,  -3397,   5155,    306,   1818, -12624,  -5694,  -3260,   4329,  -6198,   -780,   -365,  -1867,   1775,  -4929,  -8498,  -2923,   5396,  -4965,     43,  -1006,   8173,  -2712,   -480,   5667,  -7291,    687,  -2639,  -1633,  -2671,  -5212,  -4901,  -1784,  -1743,  -2604,   1675,  -1422,   -875,  -3169,  -4222,   2731,   2917,  -7272,   1251,   1959,  -7428,    714,   1237,  -4824,  -8816,  -3236,  -1796,  -6927,   3838,  -7016,   7399,  -8002,   -576,  -2717,   1384,  -4214,  -3061,   -143, -14154,    593,  -3034,   2994,  -1242,    751,  -8786,    -10,  -2551,  -1467,   3930,  -6612,    750,  -4328,  -5719,   2657,  -2539,  -5847,  -1513,   -786,    -50,   3747,  -5147,   3588,  -5608,   2962,  -4976,   6309,  -1149,  -3712,   4202,   4886,  -7318,  -1246,  -1975,  -2941,   -473,   2810,  -6629,   4733,  -4627,   2331, -12848,  -5017,    715,  -3739,  -6314,   1323,   2840,   2363,    527,    521,  -1659,   1209,  -2157,   -911,  -2548,   3775,  -4363,   1485,    893,  -2065,   6970,   1235,   1073, -12278,  -1007,  13574,  -1231,   1322, -10328,    119,   1748,   -336,  -1525,   2503,    213,  -1077,    568,   5686,  15265,   -665,    326,  -7273,  -2125,   6214,  -2816,    580,    644,   4373,  -7717,   -200,    303,  -7021,   -796,  -4339, -10585,   8385,  -1043,   9729,  -2193,   2894,   7857, -11501,   1381,   2461,  -1257, -14807,  -2102,    800,  -4658,  -6291,    -48,  -1140,  -6313,  -2985,   1087,  -3814,  -3812,  -7527,   2314,  -2443,  -4113, -14065,    647,   1704,  -8290,  -3847,   3703,   -745,  -4182,  -6050,  -2740,  -4740,   3766,  -3799,  -7529,  -1232,  -1556,  -4744,    819,  -4719,  -5572,
