#include "mnist_coefficient.hpp"
using namespace dl;

namespace mnist_coefficient
{
    const static __attribute__((aligned(16))) int16_t sequential_conv2d_biasadd_filter_element[] = {
         -5465,  -7356, -17043,   8663,   1605, -16030,  -3537,   7500,  -5526,   4645,  -9941,  14319,  11044,   2382,  -4893,   5970,   -445,  -5847, -18470,  17213, -10719,   4468,  -8007,   6485,  -3829,  -6444,    691,  -6679,   6951,   1522,  -9385,   8932,   2077,    478,  -3993,  -6886,   4524,  17357,   4529,  10420,  -3102,  -8800,  -8177,  -7015, -11974,  11590,   5298,  18311,  -8111,  -5808,   3834, -11725,   9902, -10432,   7234,  10461,  -3843,    205,   6433,  -7491,  10338,  -6123,  -3816,   2946,  -7679,  10175,   5535,  -9741,  -8763,  -6647,   4131,   3957,  -2333,   6317,   -691,  -2801,  -2064,  -2015,   -591,  -7859,  -8579,  -4396,  -8249,   5683,  11193,  -9614, -16408,  -3247,  14175,    925, -13578,    457,  -2853,  -7338, -11048, -10746,  -4153,  -6381,  12895,  -2309,   2417,   5698,   2491,  -2465,   5238,   6629,  -2392,  11598,    636,  20532,  -4253,   6846,  12112, -13204,  12553,  12090,  -4084,   4583,   2148,   1995,  11257,  -6159,   8752,    241,  -6611,   -352,    248,  -2422, -11310,   2281,   2874, -12369,   8815,   4117,    230,   9177,  14806, -17445,   4616,  -4663,  -4160,  -7580,  13878,  11714,  10794,   6618,  -8156, -10686,  -5583,  -2173,  -9120,  -8241,  -7822,   -899,  -4943, -13775,   2998,  -2464,  -9389, -11702,  10093,   -687,   1173, -19752, -16147,  -8350,  -2092, -17495,  13146,  12085,   9848,   9193,   2701,   4603,  -4217,    348, -17553,  -2100,  12886,  -1624,  -8735,  14363,   9284, -18969,  -6682,  -9697,    903,  -3835, -10302,   8702,  13716, -15115,   5004,  11506,  -3744,  13555,  -9563,  -6858,    247,  -1237, -15702,    839,   5999,  13808, -16092,  -2001,   6718,  -2607,  10179,  -8929,   2164,  11454, -10560, -17249,   8203,  -2108,   6150,  -1366,  -6394,  -1734,   8472,   2704,   9425,  -3619,  -9723,  -2931,   1028,   9800,  14983,  13118,   4311,  -7932,   -289,  -7363,   4798,   4471,  13667,   2040,  13414,  -3728,  20178,   2268,  -4574,  -9702,   3473, -16031,   7393,  -1392, -12765,    289,  -8389, -12765,     38, -16321, -11476,  -1161, -14631,    112,   2130, -18038,  -6174,  -2943,  -1120,   7622,  14224,  -9106, -11459,  15089,  -1555, -12449,   8357,   1287, -15114,   3368,  -7166,  -1321,   6895,     20, -18311,   1661,  -4269,   9882,  10259,   8032, -22884,   7703, -11460,  -5454,  14145,   4727,   2111,   6023,  -9796, -13186,   3356,  16979, -10572,  -8514,  -6077,  10958,   6330, -15938,   7555,  14861,  -5165,  -6446,  -2781,  16287,   8944, -15896,  13135,   3758,  12159,   1685,   5043, -17959, -14043,  -8122,   2467,  18479,  -8646,   2886, -11138, -22950,  -1642,  -1430, -11378,  15140,  -8240,    448,    354, -16263,  -6733,  -6154,  -6813,   8734,   9096,   4425,   1161,   6784,  -2617,   7912,   4350,   2231,  -6390,  -3051,   1005,  10497,   9795,  16307, -13113,   9749,  -5415,   7818,   -954,   -419, -13351,  15754,  -4219,   5092,  -6270,  -1240,  -6023,  10493, -14350,   4215,  10662,    635,     17,   3406, -11993,   7967,   6747,   1626,  -4689, -12656,   5692,   2297,  -1241,   9751,  -9982,  -2245,  15383,  -1327,   2588,  -6325,    283, -12831, -14010,  15350,  -1729, -20020, -10308,   5291,    968,  -6986,   5122,  16264,  -4376, -12261,   7308,   7190,  -6451,  -3260,  -3049,  10753,   9362, -10839,  -9051,   1159,   3473,   2149,  -4830,   3958,  -5026, -14158,   2605,   7072,  -9596,    653,   7141,   -338, -17294,  -6490,   6654,   2308,  -3477,  -2184, -11514, -10073,   1011,  -9853, -10331,   1160,   3598,   1712, -13031,  -8387,  11512,   2788,   5550,  -3020,   9786,   1927,  12874,  -4674,  10507,   3122,  -6529,  14577,  16326,   2834,  -3887,   7519,  13246,   1757, -16091,  -9871,   9619,  15419,     22,  -5818,   -181, -12895, -16100,  -6755,   8369,  -8115,  15881,   1548,  11728,   5819,    694,   7701,   7986,  11052, -12225,   6188,  12909,  -5332, -20721,  -6385,  -5119,   7106,  -5450,  -1978,   3621,  -8199, -13787, -15252, -16098,    163,   5874,   5975,   1171,   2939,  -9360, -12126, -14525,  -2126,  -3602,   9396,   1277,   3910,   7054,   8413,  12994, -10951,   2347,  -2240,   9283, -13691,
          6337,   6055,  16989, -14058,  11645,  -6627,  11039,   3567,  13241,  -4466,  11757,  -3881,  -1843,   8655,  10528,  13086,   1112,   9052, -16533,  -1473, -12787,  -2624, -11496,  -2704,  12552,  -1152, -17200,  -8794,   3410,  -1678, -14585,   5388,  -1241,   4204,  -5317,   7664,  -9108,  10102,  -8721,  12194,  -3215,   7939, -11534,   3957,  -4915,  -4724,  -1306, -11241,   1810,   2290,  -4493,  -5685,  15524,    667,   -524,  -3447,   -830,   6031, -10919,   1696, -17922,  10456,  -3756,  14828,   8608,   2766,  -5389, -10822,  -3216,  -1966,  -5217, -14233,  11787,   -176,   3045, -16185,   7903,  -7083, -13399,   2340,  -2807,   -160,  -4246,   6547,    418,   9419, -14315,  13994,  12000,   6100,  -3272, -16818,  -4244,  -1603,  -8774, -10526,  15410,   9712, -12033, -12099,  11783,   1764,  -6210,  -3773,  -7145,   2247,  -6277,   4177,   5481,   2870, -14774,  12193,   3834,   9059,   8348,  -2703,  -3815, -10726,   1120, -15549,  12402,   -515,   9212,  -8383,  14249,   7012,  -8180,   1331,  -4533,   1698,  -2535,   1029, -11692,  10683,   8365,   6922,  -1457,   6690,  -5918,   7266,  11189,   8033,    771,   9829,  -5788,  -2430,  -5139,  -1395,  -4275,   6019,    584,  -6264,   -360,   8864,   4749,  -4054,   8508,    126,   2038,   9421,  -8095,   2773,   1132, -12454,   5206,  -2641, -12032,  13690,  -4844,   4374,   6469, -12768,  12078, -11684,    744,   -753,    451,  -5451,  10978, -17897,   1522, -12717, -17378,    774,   5630,  -5347,    697,   4544,  -3987, -13868, -10927,   1785,   5735,    374,  11432,  -9120,   8685, -21208,  -8270,  -2727,   5390,   5956,  -5329,  -3748,  11004,  -5545, -10526, -13187, -16303,   6290, -13413,  -8690,  -7537,  13174,  -5432,  11722, -15787,   2344, -20532, -11125,   5660,   2330,    478,  -5192,  -3376, -10344, -10215,  -8298,   1145,   5613, -16708,  12531,   1930,  -5057,   -111,   1979,  -6052,   9709, -15692,  10739,   4202,  -5070,    361,  -6612,  -3104,   8222,  -1018,   3527,  -4784, -18132,   5827,   3073,   5057,  -6137, -11283,   5215,  17711,   4541,  13777,  -6285,   2138,    931,     52, -11005,   9661,   1712,  21346,  -5502,   5745,  -1906,   4932, -17145,   3572,   -512,   9804,  -6686,   2497,  -6285, -10998, -12586, -14431,   6482,   3208,   -182, -14330,   7900,  -3680,   2712, -10627,  -6568, -10176,   9776, -10989,   1530,  -2669,  10387, -12888, -15350,   3878,  12769,   1556,   4971, -16633,   8122,  10130,   9206, -25433,   7337, -13929,  11942,   3910,   5952,   1352,   5383, -17464,  13440,  -5265,   5878,  14005,  -2535,  -2793,  -8535, -11103,  17504,   4236,   2421, -10163,   4175,   6848,  13970,   -866,   3744, -15739,  12228,  14254,  -7813,   5744,  10611,  12738,   8650,  -4538,  -8859,  16642, -19894,  15064,  -7836,   4747,  11079,  -1905,  -7777,   1107, -10267};

    const static Filter<int16_t> sequential_conv2d_biasadd_filter(sequential_conv2d_biasadd_filter_element, -16, {3, 3, 3, 32}, {1, 1});
    const Filter<int16_t> *get_sequential_conv2d_biasadd_filter()
    {
    	return &sequential_conv2d_biasadd_filter;
    }

    const static __attribute__((aligned(16))) int16_t sequential_conv2d_biasadd_bias_element[] = {
          -162,   1005,   -525,   -232,   1662,    451,   -331,   -271,    758,  -4613,   -488,    199,    218,     26,   -142,     96,    219,  -5070,    684,   3603,    239,  -2669,   -411,    750,    501,   -934,    105,    627,    -97,  -3147,   2153,   -256};

    const static Bias<int16_t> sequential_conv2d_biasadd_bias(sequential_conv2d_biasadd_bias_element, -14, {32,});
    const Bias<int16_t> *get_sequential_conv2d_biasadd_bias()
    {
    	return &sequential_conv2d_biasadd_bias;
    }

    const static Activation<int16_t> sequential_conv2d_biasadd_activation(ReLU);
    const Activation<int16_t> *get_sequential_conv2d_biasadd_activation()
    {
    	return &sequential_conv2d_biasadd_activation;
    }

    const static __attribute__((aligned(16))) int16_t sequential_conv2d_1_biasadd_filter_element[] = {
          1984,   -625,   3014,  -4493,   -820,    999,  -8809,  -7453,   1390,   -998,   5121,   -563,   1629,    867,  -5995,  -2916,  -2871,    279,   3406,  -7812,  -3012,  -1903,  -1971,   3578,    655,    356,   1030,   3910,  -2359,   5264,   5434,  -3290,   2639,   1771,   3472,   -294,    128,  -1957,      5,    405,   3154,   -824,   6829,  -2464,  -2506,   1847,  -8557,   5174,   3839,   -165,  -4858,  -8920,    558,  -3125,  -6014,   2186,   9820,    285,  -4052,  -3870,  -1073,   4514,    236,   4341, -13576,  -1269,   4717,    726,    182,  -3186,  10359,  -6069,   1631,   1054,    852,  -7866,   1155,     87, -10669,   1001,   1608,  -1424,   4346,  -1912,   2417,   2363,  -1609,  -3158,   5968,   1095,   9975,   1094,  -1329,  -4950,   1059,   1729,  -6560,  -2900,   2479,   3537,     67,  -1657,  -8472,   1117,  -1087,   1436,  -6538,  -5118,   1602,   -819,  -5128,  -1119,  -1861,  -1626,   6773,   4681,   -550,    490,   6491,  -8663,   8569,   1521,   -710,   3761,  -1425,   5395,  -1919,   4507,   3920,  -1013,   -206,   -139,  -2105,    755,  -9332,  -2078,   -810,   2070,    410,   1055,  -3624,   5348, -10778,  -5432,   -157,  -1795,   6123,   8632,  -2344,     11,   -978,  -1482,  -6364,  -3574,   2479,   4629,   -562,  -9501,     43,   3380,    530,  -3146,   2034,    151,    141,    221, -10187,   3076,   6279,  -2283,  -3966,  -3541,  -1352,   4835,  -7682,    999,   3650,    482,    614,   2053,   -536,   4185,   -918,    661,   1499,  -1073,  -1617,    635,  -2160,   -506,  -9610,   2299,   2738,   -773,   -324,  -7283,  -1644,    769,   -273,  -1719,  -2866,  -2358,   8240,  -1311,  -1294,   2768,   -687,   1917,   5513,  -1175,   2457,  -1538,  -1024,   2395,  -2532,   4379,  -8232,   2277,   -487,  -3067,   1021,   -565,    298,  -1964,   4686,  -1655,  -6074,    247,  -1408,   2676,  -9067,   -756,  -2235,  -2793,   3544,   -520,  -1847,   -188,  -9572,  -9341,  -2515,   2845,  -5661,  -2681,    998,  -7080,   -691,   2247,  -2038,   -693,   3829,   6087,  -3170,  -1485,   6257,  -8398,  -2402,    496,   2953,  -6636,  -1068,    526,  -8623,  -2445,   2279,   -268,   7399,   2611,  -2513,     81,  -5167,  -1028,  -4392,     32,   2907,   3066,  -1526,  -3083,   1463,  -1586,   2976,  -2939,   -617,  -8454,  -1816,   5451,   2310,   6207,   3962,  -1792,   4790,   1066,    101,  -4571,   4400,    950,   9045,  -2280,   4904,  -7904,   1396,   -879,  -5153,    924,  -3326,   -238,    190,  -8288,     87,   1058,  -2470,  -2159,   8290,    449,   -659,  -2777,  -1295,    268,   1993,   1828, -12274,  -3253,  10229,   3246,   -496,  -4319,   6246,  -2305,    593,  -2998,   1031, -11372,  -2159,   3719,  -6781,    561,   2088,    288,   3272,  -2781,   -678,   1563,  -2133,  -4233,   -538,   -846,    874,   -411,  -1644,  -4598,  -2821,  -3281,  -4153,    528,  -5860,   4986,  -2294,  -9072,    263,  -4624,   -765,   -328,  -2060, -13345,   -255,    578,   6332,   1677,  -2404,  -1198,   4797,  -3155,   1891,   1569,  -2909,  -7474,   8055,  -1037,   2739,  -9691,   -779,   2758,   8985,  -1576,   5086,  -3014,  -3095,   -583,  -2210,    361,    905,   3240,    542,    416,    292,  -8991,   -764,   5206, -10837,  -1650,   4071,   1540,   7460,    511,  -1074,  -3947,   3929,   1820,  -2674,   1532,    456,   2480,  -3393, -12993,  -5064,  -1605,   6722,   -921,   2280,  -2674,   1631,  -1123,   -387,   4133,   7849,   -462,  -5204,  -6887,  -1828,   2690,  -2986,  -2347,   6878,   2089,   1783,   -558,   -682,   1473,  -1068,   1549,   4977,   1048,  -1836,  -6044,   -987,   2844,  -1264,   3312,    120,  -2714,   5472,    917,    330,  -1181,  -2670,  -3922,    485,  -3181,   8156,  -1171,   -813,   3101,   -116,   2608,  -3102,   -600,  10060,  -4796,    859,  -2670,  -7355,  -2862,  -7509,  -2189,  -1003,    375,     73,  -2623,   7365,   4179,   6935,  -1343,  -2073,  -9043,   -204,  -1783,  -7523,  -2014,   -829,  -2620,   1681,  -1320,  -2705,   2293, -10648,  -1171,   -583,  -1574,   5609,   1014,   -401,  -6028,   3327,   1345,    347,   1118,   8838,     60,   1492,  -3647,   -471,  -6421,
         -4469,  -2969,  -2836, -10251,    252,   3130,  -4511,  -4294,  -2073,  -1846,  -1320,    659,   -675,   2146,   1320,   2581,   1051,  -2670,   1344,   1660,  -2401,   -531,  -3463,    613,   4163,   -364,   -985, -17437,   1473,   5437,  -1167,  -4434,   4029,  -3211,   1105,   1972,   -352,   -593,   4680,  -4092,   1410,  -2158,   2313,  -7193,   1385,  -1229,  -2626,   3121,    652,  -1377,   6824,  -7117,  -1433,   1500,  -1212,  -1108,   2998,   -228,    939,    259,   1735,   3897,   3053,  -1486,  -7206,   1673,   6617,   6054,  -1401,  -8870,   8505,   1300,   -481,    -35,   4170, -11599,  -1362,   3848,  -5380,  -1468,   1636,   2465,    -67,   1054,    682,    372,   1022,  -2432,   6525,  -2409,   -974,  -7853,  -1551,  -4443, -13763,    -32,  -1197,    475,  -3913,  -4560,  -2846,  -6686,   7196,  -1746,   7689,  -1499,   1296, -15750,  -2090,   -903,    719,   5427,   5196,  -3040,   2495,  -5717,    627,   1613,  -4645,  -8563,   7807,   -623,   1719,  -6122,   -474,   5947,   3326,  -3228,  -7765,    416,  -3449,  -4778,    958,  -2415,   2758,   3605,  -3924,  -2907,   4353,  -4121,  -2625,   3712,  -2021,   -268,   9817,    442,   5813,  -7008,   -782,   -474,  -4218,  -4733,  -7979,   2066,   5305,   5394,  -3623, -14771,  -1898,  -1048,  -3291,   1190,  -5440,  -6438,   1563,   -351,    -45,   4004,   7142,  -2353,   1302,  -7903,  -2242,   4322,  -5938,    433,   8246,  -3145,   -433,  -2958,    556,    884,    414,  -4788,   2985,   2128,  -4603,  -7828,    832,   2276,  -2223,   8600,   1825,  -2325,   5357,    -12,  -2036,   -720,  -9456,  -3081,   -791,    290,   5565,  -1341,    974,   2651,  -5073,   -948,  -6465,   -145,   5990,  -1519,   1879,   -395,  -9465,  -4338,  -6350,  -3337,  -3492, -11920,    867,  -4932,   6785,   2617,   2773,   1542,    -32,  -3628,    -64,   -852,  -1342,   1492,  -3300,   1708,  -1220,  -1662,    -43,   1755,  -4623,  -5314,  -3759,   -212,   -439,   -470,    -61,  -6949,   2193,  -1758,   2297,  -1313,   5558,  -2986,   1051,  -2092,  -5030,  -6788,  -2719,  -2417,  -4792,  -3866,  -1109,   1765,  -2690,  -2657,   5373,  -1030,   5240,   -517,   1815,    272,  -3053,    346,  -6901,    690,  -7955,  -2751,   2223,    323,   3754,    313,   -177,    288,   3305,   5292,    777,   1150,   7966,   3665,  -3862,   1552,  -1637,  -1716,  -1570,   -568,  -3310,  -2780,  -6914,    -40,  -2593,  -3419,  -2514,  -3358,   2815,  -1752,  -6317,  -1799,  -4042,  -2773,  -2913,  -6484,   6231,   3846,   4013,   -660,   7155,  -7560,  -2841,   1330, -11736,  -4219,   3366,   -856,   7387,   6008,  -1548,   2176,   8403,    421,  -5862,   1699,  -3029,  -1311,   1190,  -3078,  -1447,   2916,   1140,    202,    338,  -6684,  -2606,  -1869,  -3125,   -180,  -3980,  -1193,  -2973,    939,  -3040,    935,   4222,   2108,  -4819,   2357,  -1231,  -1422,   2219,  -4998,  -7249,  -4714,  -9067,   -469, -10544,  -5392,  -2355,  -5051,   2128,   4993,  -3847,   -587,   4858,  -1843,  -2445,    912,   2041,  -5218,  -8725,    183,   4015,  -4527,    946,  -3123,   2477,   -426,   2487,  -2067,   4201,   2261,  -1910,   5144,  -3493,   3414,  -1710,    539,   -888,   2586,    980,   3439,  -5426,   1986,  -6160,  -1507,   2744,   3984,    800,  -3277,  -1339,     19,  -3535,  -1786,   6155,   4762,   -459,   5299,   4181,  -2640,  -5756,   -269,   2539,   3094,     25,   1642,  -5797,   4574,  -2522,  -1271,   -405,  -1598,  -3994,  -3006,    988,  -1959,   -913,    991,   4596,   1997,  -2991,   -353,  -9238,    715,  -1400,  -2111,    817,   5914,    137,  -1481,    -94,   1226,  -9891,  -2914,  -5866,    -72,  -1403,  -1950,   7304,   1856,    752,   1186,   1307,   2829,    -35,   1963,   3330,   1666,  -6795,   1061,  -3155,  -6663,  -1228,    199,   5462,  -1383,  -2717,   1329,   1320,   2374,  -1005,   1389,   7779,   5560,   1288,  -1010,   3675,     88,  -1388,   -974,  -1054,   2490,    316,   1204,   1667,  -1899,    267,    308, -10149,  -6273,   2025,   -186,   4757,    600,   1071,  -4718,   7335,   8310,  -3150,  -2648,   3485,  -1555,   -582,   5138,   3845,  -6763,
         -2558,  -1304,  -1931,    918,    528,    249,   6128,  -3952,   3092,  -3064,   3116,   4025,    843,    594,   -445,  -3963,  -2709,     53,   -728,  -1778,     -2,   1053,   2911,  -2155,  -3492,   -162,   1221,  -7401,    108,  -3517,   5951,  -1000,   -982,   -574,    188,   4455,   1674,   1556,  -2045,   6014,  -2294,   -260,  -7833,  -4407,  -2760,   2798,  -1104,    208,  -2286,   1156,  -3241,  -9557,   1593,    318,   2334,  -2186,   2103,  -1215,   1126,  -3485,  -3237,    680,  -3867,   -394,   4920,   -239,   8713,   6621,    289,   3173,  -1248,   1856,  -4044,   1296,  -1286,  -7279,   1550,    403,   -839,  -1332,   4458,   1770,   1148,  -3952,  -1237,   2063,    -13,    462, -11680,  -2644,  -3631,   2604,  -1600,  -1650,  -5861,   -509,   3510,  -2018,  -3434,   2561,   1234,  -2347,  -1576,  -1213,  -4064,   1660,  -4691, -13146,    457,  -3070,   5762,   1923,  -1895,  -2996,   2580,  -4065,    935,  -2714,  -7980,  -4953,  -9447,  -2231,   4035,  -8217,    243,  -6368,  12630,   2372,    496,  -3374,   1293,  -1706,   -882,    936,   5096,    193,  -2958,   -156,   -757,  -5293,    475,   -435,   -500,  -3801,  -3167,  -2868,  -5402,  -4257,   -718,  -3472,  -2280,  -5112,  -8504,    822,   4409,   6552,   2294,   4525,   1979,  -1657,  -2077,   -356,   2963,   2483,   -394,   5027,   5022,   5792,  -4641,  -3254,   -296,  -6164,    392,  -2958,   1499,  -1856,   2879,   -720,  -1457,  -3721,    833,  -1100,   4683,    579,  -1790,   -774,   -420,  -5567,   1630,    292,   4432,   -887,  -5269,  -1171,  -6172,  -5077,    864,  -3553,  -2535,  -1120,   4342,  -1108,  -2394,    267,  -2027,   8705,  -2509,    -25,  -7300,   -513,  -1808,   1065,   1774,  -2772,    289,    828,  -1147,  -1550,   6556,   -266,   1508,    333,   8238,  -4142,    269,   2300,   -922,    951,  -2042,  -1986,  -1455,     28,  -6971,   1058,   2172,   -321,  -2636,  -3617,  -5371,  -7482,   1650,   1816,   8221,  -2422,   1673,  -3517,  -1287,  -7560,  -2647,  -2261,   2381,  -2524,    795,    431,  -7419,    772,  -4078,   -247,   1351,  -9128,    388,    445,    855,  -7316,   4117,  -1433,    496,   2609,  -3108,   4971,   -186,  -1601,   2907,   -364,   -880,  -6871,   2339,  -3209,  -3013,  -5772,   1181,  -2137,  -8705, -12064,   1236,     35,  -5527,   8403,   4689,   -912,  -2583,   1537,   2112,   3807,  -2302,   4948,  -3769,    577,  -8847,  -9858,  -1811,  -2169,   -970,   4578,    279,  -2181,   3297, -14528,  -1249,    244,  -7151,  -4370,  -2044,   1802,    239,  -4470,  -3156,    469,   6145,   4960,   6624,  -2110,   2017,   3244,  -2315,   3323,   3513,   4253,  -1264,   -120,   -401,  -7041,  -2620,   2477,  -2348,  -3864,   2727,   2655,    649,  -1264,  -1226,   3403,  -2730,  -6028,  -6434,  -2017,  -9972, -10800,  -2042,  -7097, -11571,   1184,  -7830,  -2800,  -2518,   -666,  -2920,  -5510,  -2576,   6366,    225,  -1881,   4340, -16086,  -2732,   -584,  -1100,  -1247,    536,  -2700,    -73,  -4342,   -164,   1665,  -4288,  -1631,  -3107,  -2588,   3019, -14610,     -1,  -1093,   1281,   1509,  -1321,  -2338,   3313,  -4208,    363,   -722,   5373,   -992,   1541,  -2008,   -902,   3692,    514,   1227,  -3084,    -12,  -2973,  -2000,  -3297, -12367,  -2974,  -1674,  -9048,   3082,  -6443,    944,   1567,   8358,   2244,   3292,   -827,   1776,  -2703,   -652,    145,    811,  -2864,   2937,   4292,   4554,    831,  -1555,  -2013, -10286,  -3498,    320,  -3206,  -6441,    448,   -882,   2928,  -2440,  -3047,  -2940, -11055,   1875,  -6114,   -625,    119, -12238,  -1555,  -2740,   -125,   1555,   3504,    621,  -3958,  -4437,    432,   1944, -15592,   2504,   2695,   1092,   -261,   5524,  -1249,   9258,  -1748,   3721,  -4321,   -729,  -6310,  -5993,  -1260,   2549,  -3191,   3073,    507,  -2296,   6778,  -7330,  -2491,    909,   8336,  -3853,  -3852,  -1889,  -4385,  -5816,  -2724,  -1658,   2587,   -289,    415,  -1885,  -3987,  -1460,   -711,   4898,    237,  -2264,  -1415,   1281,   1498,    117,    399,   3455,  -3596,  -6670,    824,  -1190,  -2226,  -7220,   -497,   1450,  -5472,   -591,
         -4136,   1668,   1491,    175,   1901,  -4921,   2233,   1807,    684,   -479,   -923,   -648,   -174,  -8089,  -1300,  -1678,  -1233,    525,  -9007,   3784,  -1706,  -1810,   1772,  -1996,  -9070,   1540,  -3409,   1969,   1078,  -7644,  -1616,   3542,  -2108,    766,  -5934,   -827,  -1042,   5229,  -7100,   1146,  -6675,  -1076, -15453,   3018,  -1942,  -4625,    774,   1480,  -2634,   2161,  -3265,   -468,  -1577,  -1317,   5830,  -4678, -11118,  -1769,  -3269,  -9462,   -470,   4350,  -6502,  -1088,   1060,  -1244,  -1016,   2015,    782,  -1283,  -5492,  -6982,  -2686,   1015,  -3410,   6003,   -294,  -1249,   1564,    731,    669,    557,   2944,   1664,   2463,   -185,   1437,    368,    487,  -3040, -25833,   3298,   -930,   5615,   8983,   -671,  -2364,    101,  -5184,   -288,    388,   3848,  -1264,  -8799,  -5503,  -1884,  -2493,   2954,  -1632,  -4862,   7130,  -1745,   -286,   -192,  -4658,   1761,    882,   1047,  -1437,   -576,  -9825,    337,  -5194, -10964,  -1671,   1302,  -3087,   2978,  -2802,  -1182,    694,   1846,   1896,  -8327,  -1205,  -1932,  -4367,    334,  -5124,   -436,   -962,  -4346,  -8509,   1154,  -5015,   2129, -16110,   -364,   -467,   2265,   6141,   1239,  -9234,    -30,  -2847,   7871,   1039,   9658,  -6542,  -2271,  -3260,    529,  -3690,   5717,   -397,   1384,  -1835,  -1590,  -2642,  -1094,   2557,    911,   -908,    816,   1432,  -1858,  -7090,   1708,  -5667,  -7216,    335,   5428,  -3036,  -3452,  -8562,   2026,   5379,    924,  -2473,  -2837,   3183,  -8117,  -4840,  -2573,  -7165,   -898,  -1910,   3913,   9632,  -5235,  -3161,   -665,  -5922,   -549,  -2519,  -9871,  -1835,  -1964,   -894,  -1616,  -8119,   2966,    560,    422,   9339,  -4307,    339,    653,    869,     72,   -969,  -4211,   3369,  -5571, -10251,   -227,   4432,   5838,   1144,   7730,   6397,  -2651,   1272,   1795,  -1785,   1080,   -355,  -7899,  -4962,  -1393,   3055,   -402,  -1789,   4753,  -2128,   3931,   -535,  -5075,  -2130,   -841,  -7306,    856,   -119,    111,  -5162,   3498,  -4624,   1248,  -3529,   1282,    244,  -2551,  -2225,   -354,  -1246,  -2524,  -5422,    690,   1132,  -9468,    255,   2915,    477,   -177,  -9278,  -1488,  -2830,  -6574,  -4455,  -1479,  -4276,    640,  -6291,    -10,   2089,  -8299,  -4330,   8498,   -395,    442,  -5229,   3531,     80,   4573,   2433,   1472,  -7705,  -2337, -13018,   3790,  -2647,  -7403,  -2910,   3549,  -5655,   2146,  -1417,  -3623,    -71,  -4695,  -2010,  -6167,  -8921,   -909,   2673,  -5831,  -2583,   2978,   -430,  -1806,   4554,   -435,  -9451,   5540,   -504,   -842, -12486,  -7928,  -2991,   1148,     12,   -976,  -1373,  -1639,  -3900,  -1307,  -4485,  -1068,   4299,  -4115,   1190,  -3186,   -708,  -2907,  -2094,   1595, -26561,   8794,  -1886,    975, -22307,   5810,   1504,  -2864,  -7769,   2991,  -1954,   3357,    608,   1885,  -1585,    969,  -5924,  -8031,     61,  -9437,  -4765,   -678,  -1355,  -1068,  -4904,   6125,   1093,  -1460, -14104,   -756,  -5815,   -542,   1087,  -2129,    170,   5850,  -2491,   1737,  -5717,  -2822,   3555,   3742,   2144, -11277,     45,  -1396,  -3068,  -1965,  -5189,  -2438,  -2247,  -4777,  -1695,  -2454,  -6024,  -2955, -10713,   5019,    294,  -4772,  -5430,   5148,  -9181,   1492,   -867,   9807,   -897,   8828,  -6880,  -6415,  -3726,   -897,   -321,   4093,  -1951,  -1766,   1823,   1087,  -3820,  -2624,   3283,  -9732,  -1134,  -2108,    912,  -5698,  -6021,  -2506,   2958, -12166,    699,   2527,  -1908,   -541,  -4204,  -2381,   4961,  -4325,  -3849,   1769,   3869,  -4613,  -4432,  -1971,  -8108,   -533,  -1556,  -2164,  -2108,  -3123,  -2482,    319, -11347,   -378,  -1064,  -9478,  -2210,    754,  -6655,   2516,  -1951,  12516,    743,    312,   2093,  -2755,  -2306,  -2015,   3543,   -830,    956,   -838,  -3756,   2595,  -5787,   1070,   5849,   3293,  -1557,   5506,   5560,  -5400,   2563,   1871,  -5575,    388,  -1757,  -1873,   1744,  -5668,  -7839,   2504,  -2088,   2715,   1736,   -254,  -6638,    419,  -2266,  -2942,  -8406,   3795,   1094,  -2762, -15956,  -2077,
         -1723,   2041,   1520,  -3730,   -799,  -2929,     27,  -3991,   -696,    757,  -2696,   5598,  -2835,  -7459,   2105,    -74,   2344,   1482,  -6809,   3683,   -963,   1482,  -7132,   3488,   1094,   1909,   -852,   1827,   1202,   1344,    349,   1706,  -2454,  -1278,  -9415,   2484,   -687,   1438,   -922,   2679,  -1285,  -2086,  -8193,  -1760,  -2400,  -4336,   -171,   4038,   -385,   -506,    663,   -358,  -2707,   4325,  -6555,   2611,  -3674,  -3491,   4503,  -4615,  -1287,   1387,   2820,  -2528,   1396,    826, -12049,   6586,   1880,   2507,  -8759,  -6029,    206,  -2146,   1288,  -1073,  -2100,  -3510,  -2301,  -4080,  -1607,  -1150,   2904,  -1930,    419,  -2089,    743,   -994,   1414,   1082, -15948,   3660,  -1198,  -3643, -20450,   7692,    695,  -2584,    264,  -2737,    131,  -1126,  -3835,  -3244,  -1859,   -191,  -1602,  -4587,    378,  -3123,  -4901,   1247,   2793,  -1522,  -7394,  -1575,  -3988,   -326,  -8074,  -1934,  -7515,   1470,  -1174, -21220,   -995,   5477,  -6821,     13,  -2323,  -2914,    125,  -4391,  -2132,  -1950,   5067,   2441,   2369,  -1133,  -1769,   3594,   -682,  -2100,   -478,   -379,   1298,  -1217,  -2711,    -70,  -2112,  -3583,  -6547,   1397,  -7024,  -1976,   -580,  11134,  -4665,   4976,    294,   1158,  -6987,   1459,  -1161,   1660,  -1766,   -376,   4779,    241,  -1988,  -3126,   4286,  -8100,    652,  -2787,  -2101,  -8174,  -2751,   1310,   7532,  -2541,     71,   -186,  -9496,  -4025,  -4517,    556,   6013, -16201,   -714,   1835,   4734,  -2601,     32,    646,  -4870,   4898,   -432,   4835, -21708,   -678,   1666,   -430, -10821,   5861,  -2881,  -3590,   1687,  -1826,     30,   1345,  -1492,    686,   -630,   2521,   -554,   -294,   1202,   -876,   6573,   2243,   2054,   -748,   -112,   -788,  -2060,    575,   9344,  -5346,   -673,   3874,  10132,  -5330,   2117,  -1171,  -7680,    143,   -818,    737,    -13,  -4035,  -3377,   1209,  -5391,  13002,  -2755,   4656,  -9411,   -162,    385,   1867,  -7001,  -1512,   1388,   2750, -10773,  -1865,   2195,   5307,  -2062,   3713,   4920,   4040,    729,  -6563,   3836,  -1026,   -918,  -4453,    683,   1291,   5109,  -4313,  -4083,    274,   5288,  -9901,  -4170,    144,   1598,  -4637,  -5094,  10254,    150,   2466,  -9155,   7967,   1287,  -8640,   4813,   1674,   4144,  -1325,   3560,   3607,   -227,   3008,    906,   1961,   7636, -10272,   1446,   8054,   1287,   6526,  -3132,   2139,   6961,    646,  -4361,   5648,  -9360,    860,  -5094,  -6622,  -4709,   3410,  -1650,   -527,  -7789,  -2031,  -2558,   4164,  -3410, -16426,   -969,  -7633,    269,   1524,   2527,   2378,   3769,  -1082,    230,  -1313,  -4047,     -8,    721,   3294,  -3555,  -1696,   3457,  -5646,   3130,   -677,  -8890,  -1528,   3261,  -8618,   8025,  -6097,   -364,   2106,   3180,   1008,   -777,  -8337,  -4406,   9971,   -529,  -3083,   1844,   6809,   5328,  -2980,  -4107,   8429,   1186,    790,  -3855,  -4044,   3664,  -3958,   -626,  -3149,   6312,  -2158,  -1637,  -1036,    228,  -1968,    599,   4767,   3636,  -6146,   2744,  -1370,   -467,   -327,    630,   5981,   5648,  -6681,   -653,   -514,   -902,  -7000,    764,    644,   2733,  -6388,  -5759,   2559,   5477,  -8875,   3097,   4111,   6776,  -2774,  -1930,  -6378,  -4523,  -4126,   4710,  -7245,   2012,   3103,   2363,   -662,   5239,  -7641,    494,   7299,  -2822,   1426,   5433,    290,   3907,    516,  -3430,  -4380, -11673,   -728,   2236,   -332,  -2965,  -2373,   -644,   2478,    413,  -5360,   5290,     88,   1760,   2159,   1750,   1944,  -7085,   4201,  -5541,   5251,   1182,  -4826,  -1061,   -959,  -3377,   1929,   -508,    966,  -4318,  -6874,   -610,    737,   2004,  -3960,  -6928,   -256,   -465,  -3284,    904,  -3449,  -1041,   6442,    968,   3594,  -6689,   5050,   1446,   2645,   6557,  -5528,    799,  -3735,  -1725,   5090,   1921,   -934,  -3836,    -92,   2551,  -5313,  -4469,  -2454,  -2054,   1772,   3962,    -13,  10524,   1390, -14365,  -4688,  -2385,   6347,   -302,   5705,  -3581,  -2227,   4758, -11739,   -675,  -3755,   2666,  -3684,
         -1613,  -2168,  -2753,   1539,  -4703,   7071,  -4684,   3150,  -1506,  -3457,  -3301,  -6221,  -5233,   3873,  -3827,  -2456, -13075,  -2748,  -8158,  -8873,   4854,  -4909,   2530,  -2045,  -3197,  -7520,   1064,    870,  -4113,   1617,  -3685,  -4148,   1197,   3842,   4706,  -6636,  -3961,   -753,  -4843,  -3567,   1737,   2132,  -3137,  -9547,   8649,   5143,  -7436,   8034,  -6278,  -4304,  -5836,    406,   1893,  -1050,   2391,  -1742,  -2621,  -2182,   2821,   2572,   1559,   1508,  -1803,   -162,   1082,   3621,   2863, -15339,  -1218,  -4281,  -2920,   8558,  -1293,   -678,  -2607,  -1354,  -2058,   1778,  -2489,  -1489,    338,   -911,    -91,  -1861,    487,  -1806,  -2334,  -4446,   6151,    614,   6663, -12636,   3338, -10456,   4559,  12029,  -3039,  -5578,    418, -10561,  -6942,   1777,   3531,  -3415,   -234,    161,  -2357,   -908,   3030,   4254,  -1424,   -572,   3628,  -1616,   1499,  -7244,  -1482,  -8981,    835,   3109,    603,   8609,   4863,     89,    186,   6244,  -7845,  -9732,    655,  -6741,   -840,  -9525,  -4014,   3722,  -5140,  -5503,   3745,   2598,   6985, -11153,  -3433,  -2203,  -6907,   2449,   5224,   8120,   3520,  -7646,   1207,  -4995,   3997,   -223,   2477,    -40,   6874,  -4380,   2087,  -8279,   4677,   2898,    185,  -1573,   -842, -10089,  -3535,   9887, -13297,  -1793,  -2882,   3408,  -2047,   4924,   2262,   1325,  -1239,   3505,    120,   5053,   5105,  -3284,  -1300,  -2298,  -5901,  -5347,   3131,   3351,   5189,   6857,   1490,   2135,  -1008,   6381,  -9251,  -2889,  -4827,    594,   8218,  -6370,   3874,   6579,  -3511,  -5605,    469, -13017,   -686,   -506,   1455,  -2050,  -6095,  -2740,  -5167,  -2531,  -2075,  -5981,   2841,   5737,  -9107,  -4737,  -1497,   2166,   2621,  -2646,  -3801,   2448,   -359,  -2724,   4384,   1279,  -1139,   -693,  -4767,   4095,   2431,  -2282,  -1104,  -4840,    604,   1392,  -3811,   3588,  -3924,  -8741,   3123,  -9293,   5379,   1979,  -4727,  -7936,   4138,   5228,    453, -10000,   4515,  -6332,    391,   6648,  -1850,   -972,   3636,    582,   -343,   7817,   -613,  -1677,  -3746,    367,   -255,  -2644,   2305,   3222,  -1930,    769,    596,  -2926,  -1173,  -2574,    811,  -2083,   2499,   1368,   6390,   8233,  -2344,   5440,  -1923,  -2105,  -3339, -10701,  -6735,   -363,  -1531,   -605,    307,   4076,  -3548,    840,  -1834,   1550,  -2559,   1094,  -2791,  11245,  -3039,    717,   3828,   2532,  -5067,   4664,   3329,    -91,   1121,  -3657,   -551,    666,   5517,   2533,  -2291,   3352,    879,  -5275,    121,   1213,   8667, -14734,  -1086,    281,    -78,   1820,   -257,   -164,  -6247,   1358,  -1476,   -148,   1806,  -1986,    206,    107,  -2673,    994,  -4419,  -1787,  -2383,  -1861,   4264,   1706,  -5484,  -1555,  20750,  -7915,  -5076,  10510,  -4697,  -2625,  -4017,  -1197,   1462,  -3861,    419,  -4817,   5346,  10112,  -8714,   1485,  -1319,   6417,   2460,  -6784,   -812,   1176,  -5950,  -2216,   1558,  -6914, -10192,   3304,  -6087,   3150,   -638,    925,  -2202,   5361,  -8842,  -8625,   -369,   -497,  -1894,  -5023,   1763,   4817,  -1954,  -1001,   2316,   5018,   3203,  -3267,  -1641,  -3899,   2822,  -2962,   5816,  15189, -14414,  -1605,   2707,  -7360,  -4936,   2516,   4241,   -155,   5214,  -1320,   1366,  -9873,   1580,   1833,  -7632,  -1585,    576,  -8393,  -1836,  10279,  -4959,   2561,   -803,  -1346,  -3441,   3329,  -1824,   -381,   4363,  -2821,    424,   6068,  -2145,    101,    477,   3285, -10558,  -7588,   2983,   -616,    550,   3119,  -2728,   5151,  10800,   5867,   7485,   4571,  -4951,   4475,   4255,  -5528,   1728,    318,    -62,   6024,  -3228,  -8238,   1266,    -46,   5537,  -1643,  -4660,  -6652,   1501,   3956,   2623,  -1766,  -5878,   1150,   2760,   6025,   2077,   5207,   -353,   1031,  -1991,  -4065,   2805,    284,   2740,   3536,  -2582,   -667,   2477,    296,   2471,  -1960,   5395,  -2309,  -3313,   4725,   5409,  -1042,   1457,  -4777,   -316,  -3765,  -1159,    982,   -204,  -6348,      2,  -1787,  -3907,   -472,  -1697,  -7287,  -8939,   1417,
         -1615,  -3294,  -7510,   8626,  -2007,  -3207,     35,  -3046,    247,   -746,  -1285,   1565,   3244,    997,    760,  -3063,  -4632,    644,  -3049,  -6062,    303,   2244,  -4287,   -213, -12341,  -1203,  -2893,   1226,  -7222,   2681,   -711,  -3548,   9302,  -1411,   3308,   -287,   4114,   1409,   -895,     81,  -4017,  -2196,   4953,  -6303,   6195,    640,   1241,   8233,   -365,  -2862,   -715,  -7608,  -2412,  -3639, -10051,  -2046,  -4633,  -1109, -12089,     51,   1434,   1998,  -9254,    830,   3108,  -3577,   2132,  -3875,   2387,  -2129,   3105,   3981,   2248,    -23,    699,   -583,  -2513,   1361,    889,  -1075,   3042,  -1839,   -509,    833,    -53,  -5916,  -1324,  -2693, -13399,    320,  11495, -10427,  10292,   3400,  -3876,   1682,   1425,  -7607,  -4977,  -8035,    905,    582,  -1309,  -5422,   1149,    906,  -4859,   -899,  -2796,   2992,  -5404,   1857,  -3394,   1313,   8214,  -5214,   -622,   -705,   3018,    565,   3376,   5692,  -2395,  -1221,  -3492,  -1021,   1166,  -6427,   -954,  -4261,  -1589,   6824,   -567,  -3568,   3523,  -6676,  -1000,    230,  -7584,   4396,   2061,  -3561,   4326,  -3529,  -9056,   5347,   8291,  -4127,   3018,   1698,    614,  -2243,    944,   -919,  -6005,    343,   5491,   4546,    191,  -3170,   4396,  -1110,   3967,  -3177,    723,   3605,  -1874,   -390,   -654,  -1361,   -822,  -2378,  -3057,  -4495,  -9316,  -3007,  -5088,   3386,   2836,  -3714,   1036,   4583,  -2697,  -4892,    197,  -3265,   3422,    444,   6356,  -7038,  -2147,   4684,  -6399,   -190,  -3953,  -9387,   2548,   5002,  -1402,   1563,    515,  -3259,   1667,   1364,  -1613,    116,   2013,  -2909,    180,  -2029,  -7736,  -8010,   1025,  -1471,   1527,  -2401,  -1695,  -2845, -14503,   7262,   1275,   1402,   2170,  -1611,   1748,  -4869,  -3601,  -2702,   -823,  -3470,  -6926,   -301,   2820,   -794,  -4029,   5152,   2249,   -803,    915,  -2093,   8195,   1164,  -2528, -14744,    421,  -2358,   2482,  13350,  -1270,   2697,   8398,  -8471,   2526,    114,   4612,  -2160,  -1392,   3376,  -6036,   5218,    694,  -2987,  -1402,   4050,  -5272,   2617,  -3419,   -169,  -5366,   3448,   3842,  -9970,  -5419,  -3466,  -2900,  -3572,   5310,    515,     30,  -1705,  -5623,   7081,  -4776,    821, -10585,  -1501,  -2637,  -2081,   -593,   -559,  -2184,  -6871,     46,  -2801,   -834,  -8690,   4421,  -1193,   -537,  -4438,   9309,  -1765, -10508,    641,  -8638,   1736,   -376,  -3128,   5157,  -3284,  -2524,   4441,  -8936,    631,  -4880,  -3625,   -211,   2289,  -3468,  -1913,   1592,  -3447,   -620,  -6384,    979,   5429,  -1458,   9492,  -4167,   2106,  -8207,   1201,  -1543,  -1238,  -2025,  -1185,   -554,   -802,  -1511,  -2394,  -2280,  -2869,  -5116,   2407,   6230,  -1035,   3280, -13707,   5007,  -2038,   7218,  11209,  -5073,  -4179,  -9591,  -6929,  -1634,  -4776,   -893,  -6367,  -5142,   7687,   -453,    149,    675,  -2737,  -2122,  -1458,   3542,  -1149,  -1944,  -3980,   1677,  -1762,    174,   -331,  -3211,  -4829,  -5241,   1741,  -7596,   1826,  -6017, -10807,  -5587,   -366,  -2311,   1885,  -2987,    398,  -3430,  -6480,  -8366,   2757,  -2874,    674,  -2273,  -1862,  -2152,  -1725,   3377,   5506,   2931,  -4206,   1374,  -6949,   1234,  -8769,   1762,   2787,   4016,   1984,  -4004,   2805,    475,   3648,  -2072,  -2742,  -7662,  -4455,  -1528,    379,  -3216,  -7756,  -1457,   2653,  -4246,   1363,   1778,  -5486,  -1349,    475,   1882,   5147,   4219,  -5808,  -1834,   4734,  -4843,  -6467,  -3485,  -3857,   -550,    243,   4332,  -8580,  -4328,   6185,   -267,   3170,   2671,  -3620,   7492,   1001,    340,   1459,    344,   -345,  -2537,   1061,  -2173,   4469,     -2,  -6152,  -1476,  -1524,  -1101,  -1660,  -2950,  -9213,   2846,   3175,  -4112,   4570,   3004,   1160,  -2657,   4554,  -4252,    798,  -3762,  -2399,   1382,   1325,    245,  -1643,  -5195,   1999,  -2408,   3934,  -4763,   -595,   1371,    497,  -2508,   -171,  -3135,   7988,   1434, -12027,   -376,  -5195,  -2705,  -2145,   4613,  -5228,  -2941,  -6024,   3973,   -680,   -591,  -2312,
         -4105,   5990,   1180,   2964,  -3884,  -6558,    989,   1206,  -4191,   2128,   -743,   2281,    521,   6881,  -4435,  -4168,   4970,   7334,  -3381,   1462,   1249,   -736,   3967,  -5452,  -4975,   5263,  -5535,   5789,  -4571,   -934,  -5626,  -5657,  -7605,  -2971,  -2996,   -567,   -539,   2034,   -369,  -9059,   8690,   3591,   1885,   3817,  -1481,   3692,  -6926,    169,   5521,   3026,  -2773,   1765,  -2049,   -445,   2114,  -6437,   2160,  -8901,   3465,   -141,  -4996,   4517,   4301,  -7233,    -12,    677,   1216,  -9011,   1670,    896,  -2229,   5335,     28,   3146,  -3893,   1790,    506,    -60,    792,  -2346,   4526,  -2310,   -918,  -5526,     65,  -1986,  -2890,  -1591,   3520,  -4407,  11523,  -4860,  18143,   -818, -11884,  10522, -14983,  -1480,   1381,  -5007,   2221,  -6735,   -340,   1374,   2396,  11491,  -8046,   4714,  -1751,   -296,  -3586,  -8939,   -893,  -6052,  -1181,  -2224,   5567,    192, -23546,   4513,  -6656,  -4252,  -1651,   8689, -10266,   -552,    133,  -7773,  -5464,  -2258,  -2752,   5087,  -3572,   4436,  -8642,  -2538,    167,   -784,  -9070,   4800,  -5939,    -14,  -2052,   1019,  -7009,  -3674,  -6904,   7848,   7373,  -6297, -16609,   4450,   -257,    -60,   1518,   4369,  -3238,   2419,   8459,   6098,  -8423,  -3664,  -4677,  -3417,    103,   4685, -11098,  -3076,   2387,   -663,  -4175,   -415,    739,  -6301,   1542,   1485, -10075,  -2166,  -3481,   4301,  -3025,   -305,  -5449,  -4855,  -2126,   -201,   1857,   2240,    -78,  -7349,   9349,   6887,  10558,   6484,   -249,   3745,  -1120,  -2067,  -1791,  -7348,  -5189,   4304,  -2684,   2890,    515,   3995,   -493,  -4402,   2255,  -4991,  -1435,   3092,   -965,  -5550,   1262,  -2105,   2107,   6510,  -2072,   6134,  -5281,   4639,   -740,  -2399,   -962,  -2420,   1996,   2209,  -7201,   -822,   9389,   2484,    652,    126,  -1856,   5569,  -1911,  10193,  -2834,  -2285,  -6079,  10942,  -7247,   -559,  -1644,  -2029,   4850,   -385,  -1855,  -3927,  -1678,  -1320,   1145,   3768, -15070,   3844,   5614,  -1910,  -4466,  -2602,  -1393,   -757,    324,  -2402,  -1424,   6343,   1904,   4410,   4034,  -8147,     18,  -2986,  -3470,   2181,  -4793,  -6590,    193,   6413,  -4723,   -333,  -6620,  -1821,  -1801,   4757, -12642,  -5621,   -319,  -4312,   2364,  -3247,   3757,   9331,   1617,   -238,   5041,   -805,   -136,   3721,  -2886,   3070,    -47,  -6408,    744,   3377,  -1995,  -4723,   4018,  -4125,   -810,  -2118,  -3464,   -479,    148,  -4542, -13929,   3442,  -7815,   2250,  -5015,  -3956,   3046,  -5332,   2069,   6292,   3203,  -3081,   4596,   7447,   3141,  -1625,   -564,  -1397,    -12,  -4343,    901,   1829,   1348,  -4748,  -3178,   -303,   1387,  -2613,  -2690,   -984,  -8585,  -7540,  10290, -11613,   6847,   7866,  -2504,  -2877,   -517,  -5146,    -57,   3764,  -6313,  -2428,  -2250,  -3646,   3164,   7289,   5754,  -1239,   -621,  -3022,  -3195,   4743,  -3316,   1766,   8852,  -1560,  -3282,   4059,   2791,  -2901,   6912,    -57,    447,   5331,  -2738,   1409,   1738,  -5996,   1778,   1329,  -3053,   3655,   3221,   -179,   2751, -12415,   1816,   1652, -10106,   3373,     -3,   1812,   2083,  -3652,  -2196,   2864,   9582,   -174,  -2026,   3359,   3947,  -4272,   4324,   2536, -10429,   5962,   2526,   1812,    814,   -911,   5502,  -4166,   4537,   2935,  -2783, -13857,   5623,  -3961,    608,  -2743,   1721,  -1317,  -4030,   -204,     55,  -1412,   3484,   6481,   1958,   1259,  -8037,   7009,  -3714, -11546,   6861,  -9879,   4175,   1335,  -1107,   5129,  -2156,   3547,  -2780,   -849,   8023,  -1020,   -738,   2177,  -1182,   4766,  -3003,   -805,   6488,   7918,   -838,  -3284,   1142,  -1530,   1174, -10158,   8911,  -4114,    808,  -3107,   3076,  -1909,   2257,   5327,  -5443,   1017,  -5323,   -749,   1705, -12072,   2743,  -1314,  -5954,   2378,  -5281,    870,  -1691,   2407,    629,   3417,  -5096,  -2592,    172,   -766,   -259,   1623,  -4270,   7596,  -5762,  -4285,  -3838,  -3369,  -6958,  11136,   1015,   -291,   8479,  -3927,  -5968,    292,   3260,  -4953,
          1661,    773,   -118,  -4052,  -6146,    168,   -822,   5045,   -763,   2190,  -3674,   3014,   -870,  -5033,   -115,  -9725,   1406,   6470,  -1425,   1396,   1639,   4452,  -1491,   -300,  -1658,   1080,  -5282,   3596,  -6630,  -3820,   1903,  -3636,   2583,  -1809,  -5695,   1094,  -2954,  -2402,  -1162,  -4025,   3519,  -3061,   4663,   5692,   9637, -11847,    809,  -2706,   1564,    703,   1458,  -2200,   -881,   1983,    681,   2085, -10360,  -7872, -10539,    117, -10005,    330,  -3365,   1676,  -2323,  -5790,  -1300,   8376,  -1152,    403,   1107,   4319,  -2700,   1246,  -6824,  -1968,   -545,   -142,  -1781,    957,  -1628,  -2508,   -447,  -3288,   5192,    369,  -3118,   2443,  11217,  -5869,   3416,  -5534,  -4434,  10376,   5659,   4796,   5839,  -7359,  -3080,   2405,  -5399,  -6931,   1389,  -5184,    330,   1763,    483,   3164,   3914,  -7403,  -3147,   -231,   3681,   1617,  -2073,  -2456,  -6546,   6473,   2297,  -5286,  -4220,   5353,  -1633,   7501, -12571,   4687,   3949, -12140,  -3444,  -1189,  -1771,   5333,  -2525,  -6722,   -450, -16140,   -776,  -2473,  -7117,   2336,    560,   1108,  -2936,   -178,   6727,  -6162,   2589,   1671,   1184,  -4303,    800,  -3895,  -4816,   -982,   -665,  10558,  -4347,    758,   1676,   3862,   1445,  -4615,  -7606,   2765,  -2127, -18057,    274,  -9102,  -4363,  -2092,  -5248,    126,    679,  -1446,  -5020,   3335,   3421,  -3303,  -4716,   1920, -16513,   3327,  -2418,  -8858,  -4147,  -1781,  -3425,   1007,  -3102,    648,  -3162,   5955,  12770,  -1110,   6404,   -505,   -537,   5623,    341,   3505,   -506,    305,  -4619,   8266,  -2149,   -892,    288,   2378,   6269,   2019,   8911,  -5898,  -4890,  -5157,   4221,  -4407,  -3255,   1534,   2618,   3630,  -4905,   1314,   2092, -11667,  -8133,   1303,  -7848,  -1856,  -9722,   2689,  -4165,   4257,  -7678,   2957, -10703,   1346,  -2556,    -45,    533,  -1441,  -1511,  14555,  -4051,   1348,  -4758,  -7005,  -1770,   6002,   4929,  -1415,  -2038,   -506,    875,   3666,   5329,  -6709,   2751,  -1969,   2507,  -1998,  -5222,   2444,     28,   4970,     71,   3666,    520,   2999,  -2246,  -4186,  -4434,  -4514,   4687,  -3569,  -1343,   4079,   2833,   4518,   -446, -11306,    162,   4092,  -5039,   3246,    212,  -6308,  -8470,  -5183,  -4364,   2983,   1291,   4603,   -551,    240,   2268, -13325,   9624,    877,   4167,   4342,  -1942,  -9798,  -6986,   4025,   5323,  -3619,   1418,    466,  -3321,   3194,    595,  -3935,   3236,  -2427,  -1745,   -615, -19820,   3861,   7152, -10725,   -574,    405,    283,   7981,     -9,   2722,  -1157,   3472,   2106,   -194,    852,   -945,   2528,  -3195,   3433,  -1618,     52,   -693,   1675,  -3458,   2488,  -1886,  -1172,  -1503,   7623,  -1552,  14136,    -61,  14016,  12582,   -724,   6778,  -4286,   2400,   6671,     35,   3808,  -5641,  -2614,  -6354,    517,  -2896,    275,   2063,   2564, -10720,  -2585,  -7265,   2886,   2304,    331,  -1936,     -5,   3277, -12558,   6746,  -1451,   6051,   7931,   5780, -14883,   6995,    386, -14491,   -144,  -3448,   3201,   6608,   2281,  -3782,  -3399,  -6148,   1691,  -4523,  -7099,   2321,    -77,   3895,    135,   3721,   3712,   7215,   4554,   -445,   5001,  -7280, -10312,   2482,   3131,   3869,   3803,   6273,  -2632,    218,   8112,   4504,  -4428,   1498,  -1639,   3244,   -268, -18861,  -6863,  -3204,    -58,   2199,  -3038,  -2586,  -1887,  -4618,   5856,   3275,  -5914,   8892,  -4654,  -2427,  -8880,    541,   -971, -12202,  -2436,   4324,    110,  -2229,  -3090,  -3153,    539,   6102,   8101, -10238,   1440,   -137,   -574,   3740,   2706,  -3864,  -1561,   1307,   -125,   5928,   2782,  -4256,  -3381,  -1843,   6601,  -7646,   1606,  -4508,    989,  -1549,   5449,  -8516,   2015,  -3745,   2277,   7202,  -2365,  10166,    739,  -5474,    850,   6192,   3110,  -2648, -10125,   2093,   8178,      8,   4336,  -4824,  -3678,   -109,  -2681,   3626,  -7402,   -703,  -5634,  12085,   -974,   8571,   2059,  -5748,   5128,   4695,   -840,   3018,  -2638,  -1512,  -2317,   3738, -10335,   3723,
         -3738,  -1105,  -2236,   1455,   3512,   6200,    424,  -1753,   1547,   -584,  -2895,  -1107,   3486,  -1698,   1320,  -2735, -10208,  -1743,  -1636,  -3740,   3003,   -353,   6506,    540,   3648,  -2847,    710,   1224,  -2155,   5790,  -5362,   1586,   3596,    723,  -1105,   1056,  -2382,   2875,  -5696,    -30,  -5740,  -2400,   1711,  -1334,   7809,   1230,   1381,   -344,   1892,   -350,  -3773,  -2371,   1727,   2084,   2555,    638,  -6570,    983,  -1725,  -1382,  -1612,  -6780,  -5138,  -2865,   2013,  -2535,   -315,   1255,   6793,   2183,   3368,    527,   -300,    770,  -2704,   -429,   1587,   2102,    152,    -67,   -499,    877,   2230,   -851,   3370,   -635,  -1507,    572,    606,  -1731,  -1990,  -2104,   1667,   3534,  -1602,   -267,   2170,   -250,   -277,  -1482,   3347,  -2353,   7080,  -3002,  -2400,    550,   1521,    419,   1132,    708,    402,   -114,  -1322,   -968,   -336,   1241,    -36,  -1231,   -709,   -224,   3267,  -1161,    487,   -246,   -192,  -1547,   -976,   -231,  -6178,  -1115,  -1561,  -2313,    986,  -2310,   -633,   1017,    481,  -1400,   2040,    -40,   2487,   3134,   2553,   -704,   2970,    658,  -1908,  -3259,  -3137,    261,  -1918,   1283,  -9681,   -921,  -2087,   2491,   6617,  -5043,  -4652,   1770,   -661,   -813,   1644,   -567,    144,   1025,   7606,  -1368,    589,   1002,   1412,  -1166,  -1279,   1594,  -3928,  -3207,  -1119,   -342,  -3065,  -2749,    659,   2331,  -2886,    769,    955,  -2906,     11,   -674,  -6391,   6496,  -7599,    764,  -9509,  -1300,  -2210,  -1052,  -4754,  -3616,   2349,  -3828,    929,      8,  -2460,    698,   3968,   2822,  -3115,  -1287, -10309,    193,   1079,  -2187,  -2929,  -6169,  -5050,   -657,   -880,  -1579,    666,  -3420,   5010,   4551,   -549,   -439,  -1142,   -646,  -2288,   -860,  -1726,   -806, -14373,    412,  -9149,  -2283,  -1435,   1502,  -2763,    577,  -4609,    733,  -3596,   -653,   1482,   -682,   -823,   4771,  -6784,  -2399,  -2047,  -3477,  -1963,   -472,  -1582,   1151,  -1270,    307,  -3159,     36,   -502,   1798,  -1164,   2961,   4039,  -2391,  -5189,    -99,  -2562,  -1516,   3088,  -4439,  -1620,   1713,  -3952,    421,   -589,   -868,   -379,  -5262,   2456,  -1213,  -2760,  -2459,  -1949,   -726,  -6153,   3304,    519,  -3147,   4367,  -2082,    -72,  -2474,    387,    182,   1667,  -1652,  -4809,  -2146,  -1680,   2053,   4858,  -4714,   5017,   1690,  -1908,  -1507,  -1201,   1013,   2604,    101,   5036,  -3500,   -823,   1174,  -3435,  -2846,  -2209,   5066,  -1973,  -1919,  -3751,  -1444,    955,   -423,   5391,   1117,   8111,      6,   -807,  -1766,  -1556,    701,   1522,   3953,    908,    164,  -3502,    477,   -847,     17,   2745,   1569,  -3929,   2340, -13975,     30,  -3234,   -348,   3279,  11271,  -4840,  -1101,  -3617,   1970,  -1279,   1179,   1219,   1662,   -213,  -2114,   2045,  -2702,  -1700,   -754,  -2870,  -1490,   3624,    542,  -1762,   1049,  -1530,    258,   2261,  -3061,    626,   -274,   1313,     66,  -1367,   1536,  -6892,   -355,   3116,   1557,  -8887,   1613,   1508,  -2734,    855,  -9945,   -897,   -868,  -5377,   2050,   1215,   -574,    223,  -2350,   1772,  -1363,   7816,   1565,   1688,  -2253,  -1424,  -5855,  -1909,   -579,  -4345,  -2913,    773,  -2463,   2333,   7201,  -7005,  -2853,    230,  -1552,  -2613,  -2748,   -863,  -4669,  -1705,   -112,    718,  -2179,    510,   -841,   -753,   4468,  -2673,   -859,   9792,  -3014,  -2662,  -3049,  -5445,   -166,   1006,   -273,    -60,     63,    784,   -977,  -1487,   6567,  -5810,  -3164,  -9497,    515,  -1711,   1379,  -4533,   2585,   1689,  -1409,     12,    144,   1560,    411,   5806,  -4452,   4441,   2078,  -6373,   -181,    437,    559,   1408,  10098,  -2761,  -2022,   1279,  -2305,  -3605,   -141,    664,   -844,   3949,   1610,   4546,  -1389,   1175,  -1460,  -3998,   1808,  -6104,  -1914, -18876,  -2734,    719,  -1336,  -3211,  -6416,   -744,   -727,   1814,   -614,  -1567,    155,   4618,  -2048,  -8344,   2358,   3189,  -3235,  -2972,    526,   2293,  -2755,  -2036,     11,
         -2508,    390,  -1491,  -1147,   1146,   1518,    607,   1794,  -2468,    267,    381,  -2069,    873,   2106,    492,   1910,  -6723,  -3180,   -799,  -1479,    199,   -473,   -581,  -1795,   5913,  -2867,  -2076,  -3830,   2592,   8398,  -4739,  -1222,    131,  -1868,   1016,    351,  -1786,   1861,   4601,    457,   -792,    514,  -2803,  -3524,  12876,   5862,  -5538,    822,   -414,  -2905,    346,   2550,   5457,  -6339,  -6165,    324,  -3546,  -1102,  -1167,  -2037,   1502,  -1633,   4858,  -1389, -10128,  -1665,  -2150,  -2387,   5592,  10744,   8180,  -1543,  -4609,    779,  -1928,    165,   5339,  -2527,   2100,    105,  -5769,   1106,   1865,   2137,   2795,  -3044,   -164,  -2025,  -7638,  -1268,   1705,   -819,   5897,   2747,  -3968,  -3341,   3667,    523,  -2029,  -1331,   2201,  -5417,  -2809,  -2478,   2043,  -1475,    -29,   1526,   3916,  -5802,  -3855,  -1701,   -903,    693,   1531,  -3302,   4495,   3508,   2142,  -1615,    848,   1291,   -337,  -2286,  -3429,   -451,   7096,  -1270,  -1344,  -3131,  -1859,  -3443,  -1835,    -22,  -3065,   -883,   -304,  -2798,   2027,  -2616,   2720,  -1121,    962,   1419,   9289,   -340,   -341,   -903,    424,   5037,    966,  -3130,  -4463,   -170,  -1100,   -993,   2153,     -5,    989,  -3427,  -3027,    140,     38,    475,   1154,   4391,  -5461,   1307,  -1528,   -453,  -1833,   -860,   1609,  -5978,   1951,  -3971,   8029,  -2770,  -1860,  -2125,  -2412,  -4135,  11723,  -3697,   3454,   1309,    863,   -923,    287,    263,  -6644,   1333,  -8865,    470,  -2400,  -3174,  -2669,   -708,  -3886,  -1844,  -5866,   1540,  -1516,   -665,   5940,   1795,    -73,    -23,  -8876,  -1008,    -36,   -166,    419,  -8039,  -2279,   1097,   1883,    773,  -3154,    121,   4479,   3490,   2222,   2077,  -1260,  -1000,  -2975,   -522,  -4023,  -5328,   4523,  -4349,  -8565,  -2236,  -2058,  -3226,   1571,    642,   -732,   -637,   1723,    211,   2510,  -2928,   2602,   4483,  -8927,   2079,  -1338,  -2823,   1080,  -2671,   2362,  -1756,   7001,   1114,   4734,   -954,    707,  -1995,   3514,    884,   3028,  -1311,   1668,   1457,  -2223,  -2035,   4044,    847,  -2552,  -1573,  -4973,    -80,   1908,  -3765,  -2117,  -4163,  -1433,  -3155,   6903,   -685,  -1736,    -58, -16953,   9618,   -646,   -784,  -3071,    833,   -748,  -2794,   2156,  -3423,   2640,   1629,    -75,  -2052,  -1115,  -1668,  -1814,  -3473,  -3493,    582,  -5821,   -135,    -34,   3026,  -6411,  -2703,  -4019,  -3584,  -8913,   1159,    396,  -2379,  11200,  -2760,  -5653,  -1375,  -6000,   -738,  -1747,  -1769,   2475,  -2840,   -170,  -2301,   -340,  -3367,  -2073,    269,    797,    567,   -941,  -2249,   -960,   2483,  -2385,  -2014,   5541,   -336,  -1738,  -2428,    510,  -2306,  -4057,  -2645, -10053,   2655,    570,  -3778,  -2966,   -790,  -1600,  -1628,  -3891,   1519,  -4253,   1934,     90,   1378,  -3388,    691,  -1630,    453,   -978,  -1109,   -108,   1576,    -53,    636,  -3305,  -3013,   1927,    661,  -1154,   -329,    625,   1301,   8717,  -3535,   2914,  -1326,   4782,  -3509,  -3375,  -2636,   5007,   1546,  -1730,   -227,   1241,  -3379,    598,  -2933,   -864,  -1872,   1863,  -1795,   4109,    557,  -1848,  -2055,  -9725,   -792,  -4624,  -2945, -11129,  -1301,  -1774,    260,   8065,  -7014,   -662,  -1973,   4309,   -805,  -2841,    569,  -1604,   -906,   1143,   -954,   4233,  -1743,  -1112,  -3807,    836,    524,  -3905,  -3820,   2404,  -2836,  -3078,  -2618,   7726,  -3104,   1188,   1186,   1315,  -1984,  -1817,    137,   3520,  -1807,  -2485,   2057, -14834,    524,  -2634,  -3427,  -9554,   -583,  -3399,  -2910,   -559,  -2022,   -791,   -267,    788,   4821,  -1272,    484, -17374,  -3482,   -569,   1647,  -5531,   6170, -10861,  -2886,  -1518,    337,  -3086,   -839,  10673,  -4100,  -3997,  -1885,  -3368,  -2354,   -916,  -1907,   9655,  -3073,  -2866,    723,  -1513,  -2253,   -225,    754,   2237,   1742,  -2255,    343,  -3021,   -318,   1892,  -3250,   5308,   5404,   1606,  -1302,   1436,  -3941,  -1442,    931,  -3963,   2835,    127,  -3032,
          -449,  -1753,  -3214,    259,  -1956,  -3579,    793,  -1895,   2163,  -1134,    451,  -2890,  -1013,   2510,  -2110,   -799,  -7286,   1182,  -1024,  -3571,   -330,  -5025,   -837,   1674,   2709,  -3082,  -1902,    829,  -7841,   9014,  -1350,    256,   1311,    -78,  -2129,  -3298,   5320,  -1125,   3691,   1955,  -2381,  -1463,  -3582,  -1971,  -4524,   2720,  -4100,  -1522,  -9337,  -1998,  -2100,   3761,  -4626,  -2973,  -2730,    985,  -6518,  -1562,  -1541,  -1157,   6959,  -5729,   3433,  -1202,  -7748,   -758,    580,    622,   3550,  -6933,   7903,   -628,  -6649,  -2005,    837,  -2774,  -4278,  -7644,  -1427,   1394,  -1860,   2441,    539,   2245,   3506,   1086,  -2714,   -599,  -8127,    729,   -144,   -633, -10988,  16731,  -1440,  -1395,  -3092,  -1275,   1180,  -1917,    101,  -1108,  -5970,  -2587,  -1007,  -1754,   -440,  -2482,   -298,  -1263,  -3515,  -1771,   1793,   1516,    261,  -2882,  -5092,    126,   5953,   -688,    578,   -264,  -1464,  -1889,   9762,  -3102,   7957,  -1463,   3405,    745,    501,  -1791,   1741,   -436,  -5553,   -525,  -1547,  -3068,   2165,   -495,  -1203,  -6021,   -787,   -868,    317,  -2309,  -1385,  -2520,  -9141,   8900,   3928,  -1220,  -4218,   -500,    -46,  -2600,   1092,    343,   6312,   1567,   1230,  -1832,  -2111,  -3319,  -6192,  -1341,  -6203,  -2138,  -2184,  -3370,  -2295,    271,  -2332,  -3019,   -941,    960,   2692,  -1216,  -2725,  -2421,   5256,   2553,   6729,   2064,  -1209,    560,   -888,  -1974,  -1067,  -3219,   1127,  -2459, -13060,  -1118,  -3429,  -1086, -12591,  -4370,   -589,   -659,   -643,   1630,  -1903,   1204,  -2084,  -1029,  -1561,    -49, -15235,  -3098,   -318,    138,  -7352,   2252,  -6311,   1042,   1866,  -1537,    520,   1747,   8039,   6134,   -122,  -3112,   -593,     -1,    907,   -487,   5538,  -4043,   3007,   2077,  -1869,  -1820,  -3026,  -2153,   2188,  -5834,    309,  -1951,    525,  -1939,  -2079,    139,  12459,   -393,   2519,   -211,   1509,   1155,  -3236,   2623,  -3608,   2713,   3555,  -1843,   -215,   1344,  -1845,   -220,  -5998,  -3826,  -1868,   -812,   4097,  -1811,   1697,  -3227,   1985,  -1224,   3450,  -2140,  -3441,  -2077,  -1820,    543,    685,    621,  -3837,   2088,  -3732,     -8,  -2604,     57,  -2436,  13180,   1715,   1190,  -4535,   -112,  -1719,  -1352,   5826,   -387,   -175,   1204,  -2790,   1677,   1378,  -4115,    367,   6432,  -8078,  -1163,  -7267,  -3294,  -2265,   -176,  -2590,   2338,  -4051,   1189,  -5080,   1184,    644,    243,   7024,   7119,   2863,   -489,  -4731,  -3106,   -968,  -2185,   1411,   1057,   6663,  -2236,  -6793,   1099,   -112,  -3564,  -1822,  -5697,  -2920,   -649,  -3363,   2321,    890,  -2647,   5687,  -3178,  -2800,  -2700,  -8175,  -3014,   1702,  -2769,  -5046,   8401,    969,   -860,   -570,  -1990,  -3428,  -3582,   2276,  -4596,  -4157,   1488,  -1645,    715,    789,    170,   4173,  -4102,   2547,  -3583,  -3433,  -2370,   1668,   -633,  -3361,  -7832,   1144,  -2529,   5060,  -2123,    784,  -2425,  11750,    543,    349,   1228,    169,    -23,  -1045,   -225,  -2013, -10993,   2662,   -616,  -4452,  -1938,  -1803,  -3162,  -4048,  -1501,  -1440,  -2595,   5112,   -407,   1139,  -1032,  -2294,  -6762,   3316,    -87,    487,   2231,   -299,    254,   3216,  10604,   7736,  -1813,  -2369,  -2163,    780,  -3119,  -3248,  -7975,  -7954,   1719,  -2410,  -3510,  -1852,  -1232,  -1504,  -5081,  -1600,    -23,   7510,   -164,   1589,    876,   4078,  -2021,   5831,  -1838,   2315,    598,  -2161,   -504,    662,  -5613,   3683,    605, -11434,    -56,  -3651,   -581,  -4671,   6262,   3775,    862,  -2398,   1347,   1080,  -1051,    855,  -2426,   4463,  -2994,  -6791,   -775,  -1424,  -3880,  -1503,  13012,   -469,   -701,   1859,  -3578,  -2312,  -1529,   4525,  -5816,   4502,    456,   6017,  -3398,   -326,    165,   7198,    426,   7172,  -1380,  -1891,   2436,  -2380,  -2076,    279,  -7655,   3001,    711,   1833,  -2016,  -2313,    462,   7406,  -4781,  -3756,  -3086,    538,   1075,  -1581,  -1671,   -441,  -2956,    574,  -1982,
         -1357,   1408,   1051,   -748,   1799,  -2000, -10330,  -2291,     83,  -2280,  -2157,    -88,  -1846,    474,    894,   1857,  -4329,  -2371,  -1414,    779,    816,  -6854,  -1161,   -637,   8138,   1405,  -1042,  -1989,  -5628,  -1279,   2702,   1111,  -5993,  -2662,    480,  -2745,  -4467,   5744,   5384,    821,   3205,    138,    939,  -1373,  -4607,  -8751,    998,   -398,   1012,   1341,  -2492,    454,  -4382,  -6861,   2021,   1204,   3922,  -4253,  -1895,  -1088,   -866,   1361,   1120,  -1125,  -5822,   1647,  -2377,    757,   1491,  -6221,   -124,  -2523,   -993,    -23,  -1732,  -1583,  -5496,  -4358,  -2874,    -65,   2078,    750,  -1436,    924,  -1716,   1688,   -388,   1110,   1598,   -508,   1766,     44,  -5079,   4213,   1269,  -1437,  -2664,    803,  -2178,    725,  -8520,  -2368,  -3886,  -1537,  -2786,   -318,   1659,    286,    621,  -5960,   1257,   -230,   2565,  -2701,   1566,   -186,  -8696,   -538,    311,  -1197,  -4614,    799,  -2789,     99,   3860,    -63,  -1963,   -671,   7090,   1879,  -3164,   1283,   4021,  -3032,    155,   1191,   3363,    739,   -590,  -1572,  -7419,  -4841,  -2136,  -1306,   -538,  -2354,   -403,  -1577,  -9342,  -2063,   8744,    810,  -9029,   -794,   -476,  -3110,  -3341,   7277,   3362,  -2212,   5662,    146,   -446,   -550,  -4411,  -5723,    -10,   -316,   2907,  -3036,   -277,  -1547,  -4809,  -5177,   1818,  -2201,    223,    295,  -1555,  -2636,  -1062,   1990,   6540,   1654,   6630,  -1315,  -3190,   2214,   1786,  -9703,   2233,  -2599,  -4769,   -636,  -1080,  -1864,  -9251,   -972,   -108,  -3690,  -4593,  -1395,  -1737,  -1505,  -5393,  -2565,   6417,  -3099,  -2444,    782,  -2168,   1439,  -3388,   4668,  -3919,    215,   -154,   -359,  -2137,   1629,    533,  -2425,  -2751,  -2165,     38,  -1774,   1351,  -2659,     29,  -1912,   3201,   2087,   -809,    954,   -575,  -3907,  -5745,   1130,  -3458,  -1296,  -9205,  -2032,  -2338,    994,   2532,  -5348,   2464,   1429,   1790,  -1401,    947,  -2331,  -7909,   -281,  -3560,   -100,   2425,  -1870,  -3131,    329,    439,  -3080,   -541,  -3576,   4133,    431,  -1538,    763,    612,    -66,  -3820,  -2869,  -4627,   1780,  -2620,    611,  -1379,   2595,   -273,  -2375,   7663,  -1134,   1222,  -3860,  -8561,   8750,   1435,   -999,  -5488,  -2238,   -185,    753,  -4095,  -5350,  -1022,    766,   7030,  -2401,    698,  -4698,  -5933,  -2306,    165,  -2661,  -7570,  -1693,  -2477,  -1480,   -675,   1839,   4809,    385,  -1898,  -3338,   -581,  -2524,  -5309,    153,   -947,   1231,  -1791,   1868,   1591,  -3400,   1545, -18471,   3657,  -1018,  -1055,    438,   -664,    482,  -4031,  -1197,   3905,  -2012,    481,    682,  -1922,  -1084,   -929,   2045,    889,  -1252,    637,  -1054,   -203,  -2395,  -7670,  -2745,  -2187,   -987,   -471,  -1840,  -1101,     88,  -7316,   3157,  -2549,    426,  -3915,    184,  -3673,  -2972,  -1388,   2275,   4490,  -1855,   4014,   -983,  -1354,   -872,  -7689,  -2671,  -3328,   -551,    462,  -1201,  -1634,  -2530,  -2119,   2459,  -6360,   1914,   7152,   -145,  -2270,    -40,   1217,   2158,   1067,   1726,   3005,   -968,  -1686,  -2095,  -4467,  -4157,   3804,   1824,   4331,  -1247,    351,   -252,  -9105,   5602,  -3291,     90,   -372,   -167,  -2043,  -2097,  -4497,   -896,   1420,   2213,   5445,   -516,   1198,  -1289,  -2147,  -8296,  -6583,    905,  -1870,  -2592,   -403,    474,  -4985,  -4578,   2136,  -2746,   -817,   -628,  -3046,   -374,  -1815,  -3528,  -3302,   -135,   8322,   1885,    482,    226,   -182, -12589,   6638,  -2611, -11255,   -591,  -3258,  -2034,  -8155,   3340,    798,  -2452,  -4055,  -2996,    743,    384,  -4510,    962,  -2070,  -2094, -12303,    225,  -1738,    139,  -9869,   3809,  -2122,   -173,   7893,  -1523,    720,   -191,   3047,   6492,   5740,  -1846,  -2859,  -2715,  -1828,   -521,  -2083,  -8241,    592,    276,   2454,    330,   1701,  -3555,  -6948,  -2423,   1214,  -2588,  -5539,   -333,    377,     41,    104,  -1761,   1218,   -226,   1661,  -3026,  -1279,    961,  -6144,  -4096,  -2190,   1450,
          2903,   1583,  -2544,    396,   -849,   1686,   4651,  -2583,    134,    -78,  -1469,   1187,   3659,   4943,  -4045,  -3290,  -3570,  -2476,  -2512,  -4004,   2677,   2172,   4918,    443,  -1160,     76,  -3478,   -548, -14553,   6272,  -6715,  -2534,  -4443,   1756,   1727,   -965,    881,   2291,  -6744,    603,  -4364,    896,   -179,  -1219,  -3833,  -3743,   -897,    694,  -3347,  -1769,   -986,  -2210,   -871,  -1880,    413,    -34,  -3073,    470,  -1569,  -1327,  -2855,  -3071,  -1623,  -1719,   5166,    921,   -401,  -2515,   1934, -13283,  -4094,   -748,  -3243,  -2462,    890,   -599,  -3672,  -2200,  -2262,  -2190,    -23,   1872,   -942,  -1879,  -1597,   -424,  -1521,  -2170,  -2407,  -2099,  -3531,   1886,   -564,  11501,   2374,  -1554,  -4589,   1798,  -2790,  -1944,  -4228,  -3327,    179,  -1679,    -92,    879,    261,  -3950,    855,   1207,   6194,  -2727,   5492,  -3074,   -332,   -396,  -8804,   -901,  -4592,  -2096,  -3859,    488,   1048,  -2809,   2141,  -2526,   4658,  -1629,   2142,  -1367,   -753,    526,   4021,   5924,    161,  -3331,  -1816,     78,  -2533,  -1445,  -4378,     -2,  -2110,   1737,   2352,  -2929,  -2926,   -863,  -7074,   1948,     72,  -3454,   6677,   -132,   -474,  -2169,    760,   2000,  -4230,    621,   3141,  -1825,    706,  -1783,  -1802,  -1871,  -6107,  -1396,    799,  -3827,   -305,  -1664,  -2273,  -2604,   2666,   -670,   4321,  -2611,  -1719,  -1924,   -716,  -2891,   1892,  -2730,   5640,   1150,  -2168,  -2956,    573, -12515,   7899,  -1958, -15330,  -2612,   -513,    281,  -2889,  -4072,   4467,   -397,   -200,    180,   -181,  -3378,  -4424,  -4293,    379,   -180, -15269,    327,   1288,    998,   -209,    -91,   3453,    647,   4674,    525,   -729,    348,   5188,   8417,   5767,  -1727,   3005,    211,   -618,   1568,   1297,  -5729,      6,    859,    974,   2101,    537,   2349,  -2460,  -2840,  -2926,   1461,  -4547,   1699,   1556,   1332,   -250,   5043,  -1214,  -2063,   4567,  -3098,  -1664,    473,  -2807,   3472,    488,  -2295,   -871,  -3956,   -472,   2893,  -1827,   7176,    109,   5625,    557,   6849,  -2014,   5766,   3403,   -676,  -2903,  -1908,   1078,   1627,  -5327,  -5493,    433,   1101,   3020,   1479,   1404,  -4549,   4966,   1470,  -1357,    146,  -5074,  -4069,  -1001,   5666,   4757,   4989,   2147,  -2959,    871,   5291,    613,   2677,    648,  -5118,    821,   4323,  -1094,   4230,   -315,  -7890,   -712,  -1091,  -3307,   5219,   -145,   2916,   1907,  -2163,  -7489,   3394,   2405,   3934,  -3527,  -5116,  -1239,   6489,  -2719,   -816,  -1309,   4287, -12603,   -350,  -3298,  -5947,  -9199,  -3799,   -104,  -1667,  -2315,    541,   -558,   -748,   5339,    170,  -1736,   1090,  -1491,   2429,  -2785,  -6577,    484,  -3759,   -544,   5528,   4310,  -1686,    -41,  -6554,   9587,   9696,    463,   1750,   8377,   1707,   -870,   -356,  -4762,    301,    793,  -1212,  -3422,   5529,  -2525,   1358,   4034,   -171,  -2948,   -289,  -3282,  -2267,  -2064,   4139,  -1031,    992,  -4220,   4903,  -7514,   3710,  -1946,   1622,  -1117,   3049,  -1752,   4295,  -3858,    748,  -1575,  -2189,  -4378,   1079,   -375,   -349,   -898,    -29,   1123,   2832,  10766,   4259,    733,    898,   -203,  -4264,   1604,   4213,   2228,   5971,  -4668,  -3614,   4111,  -2658,  -2047,   5400,  -2802,   3721,   1419,   2006,  -6114,   -121,  -2203,  -9897,  -7589,  -4654,  -4925,   1814,  -4902,  -3061,   -227,   2925,  -4122,   2849,  -2065,   1598,  -3848,  -5121,    388,  -5808,  -3325,  -1937,  -5013,   2771,  -3324,   1366,   -954,   5517,    908,    964,   1608,   2923,   1476,  -5559,   -261,  -2126,  -3625,    199,   1305,     43,  -2062,   -455,  -1900,  -3944,   3321,   2635,  -3828,   -293,  -1019,     68,     12,  -2474,  -2272,   3361,    436,   1343,  -3138,   1515,   -528,   -373,  -1846,   6869,  -3250,   4711,  -2397,  -4235,   1392,  -1140,   3029,   4375,   1403,  -1541,  -7084,   2444,   1738,  -7046,   3854,  -4502,   -278,  -4772,  -1940,    671,  -1768,   1458,   1686,  -3509,  -1869,  -3799,  -4768,   3378,
           122,  -7594,  -2900,   4002,   -207,   4039,   3710,  -7913,  -3701,   2286,   2152,   -985,    600,   5066,  -4816,  -2665,  -3176,   1450,   5937,   5395,   1104,  -2200,   1688,  -6709,    223,  -3071,    644,  -3686,  -2293,  -9201,  -2963,   6679,  -2905,   1144,    536,   4339,  -4400,   3010,   2115,   3164,    237,  -5954,  -7507,  -6421,  -1550,   6596,   5773,  -1119,  -1832,  -2318,   2760,   3148,  -1049,  -5023,   1872,  -4339,   -168,   -829,   1636,   3930,   1728,    634,  -2077,   2756,   1855,   3358,  -2020,   2210,    477,   9067,  -8552,  -1895,     -8,  -2620,  -4318,   1297,    -57,  -4178,   -342,  -1257,    187,    181,   3139,   -702,  -2475,   -576,  -1743,   1273,  -2983,  -1171,   3019, -10157,   -385,    414,  -6595,   5842,   1207,  -2517,   5661,   2128,  -7907,    802,  -1742,  -1516,  -1089,   2552,      9,   1788,    591,  -4379,   4792,  -5720,  -2192,  -2450,  -2665,  -4341,  -4156,  -3132,  -1806,  -1070,  -2627,   1677,  -7137,  -4751,  -2410,  -2630,   3550,   6206,  -4038,  -5089,    491,  -2546,  -5356,    656,  -6494,  -5034,  -2187,  -4805,  -5162,   4632,   -727,  -3052,  -2994,  -1861,  -2114,   4034,  -4464,  -1170,  -1676,  -4657,  -5846,  11937,  -2731,   1624,   4184,   3972,  -3508,   -851,  -2016,   4950,    558,  -7189,  -7248,  -3538,  -1977,  10107,  -4926,   1958,    -34,  -4958,  -1455,     98,    386,      8,    171,   1553,  -2426,   3306,  -2991,  -4226,    506,   1145,   3431,   8082,   -412, -12116,    119,  -4761,  -4295,   5231,  -7440,    235,  -2254,   6696,   8962,   5572,   1772,  -5138,   5605,    684,    988,   4870,  -1234,   2084,   1420,   4655,   2700,    291,  -1038,  -5936,   6715,   -967,  -3224,  -6898,   6782,   4538,  -2740,  -1480,   4203,   5332,    788,  -1864,  -1455,  -9501,   -853,    335,      1,  -1332,    986,   2595,   3052,   4731,  -1608,   -395,    497,     91,  -1647,  -6005,  -3778,  -3030,  -1215,  -7638,   9269,  -5462,  -6689,  -6149,   4341,    -37,  -2667,   1005, -15323,  -8334,  -2049,  -1968,    571,   3282,   1900,   -392,   3279,   1833,  -1348,   2269,  -3015,   2126,  -2985,  -3299,  -5136,  -5861,  -1374,   2383,    447,   4193,  -2186,   4715,   -435,   3801,  -2630,   1706,  -1537,   3692,  -1864,  -2014,   4864,  -3890,  -4527,  -1684,     68,   5709,   -334, -11218,     68,   1958,  -4433,   8408,  -2734,  -7599,   -328,   2180,    580,   4085,  -4214,   2673,   3019,    382,  -2659,   6799,    948,   4361,  -1694,   2081,  -5356,   1572,  -2847,   2108,   9025,  -5668,   1734,   2528,  -9378,  -2734,   2656,   -516,   4394,   4826,  -3091,   6791,  -5060,   4399,   -555,   2259,   2346,   3835,   3602,  -4891,  -4520,    713,   -230,    391,   5982,   1462,   1673,   1401,  -2446,   4635,   -962,  -4828,  -9126, -12318,  -3049,   -129,   2638,   6267,   1663,  -4477, -11950,   3203,  -5310,    765,  -3637,  -2077,   -132,   5792,   1023,   3880,  -2440,   2021,  -2197,   6552,    105,  -9417,  -4807,   -346,  -2454,   1127,   4688,  -3117,   -932,  -5340,  -6287,   1166,  -3219,   1863,   -906,  -6698,  -2535,   2348,  -2757,  -2867,  -5889,   -440,  -3181,   3591,  -1051,   1810,     17,  -1511,  -3930,  -8226,  -5181,   2464,  -2110,  -1174, -15790,  -5829,  -1892,   4461,   -268,   3938,   -954,  -5360,   3160,  -4558,  -4082,   2156, -10498,  -6230,  -1730,  -5063,  -9535,  -2764,  -2628,   6933,   3203,   1798,  -1511,   7218,   3204,   3811,   4060,    722,  -7787,  -3403,   1956,  -8140,  -5554,   -411,   2283,   5732,  -1120,     41,  -1006,   6072,   4312,     33,    155,   6227,   1074,   -286,  -3189,   1035,   5295,   5965,  -2851,  -1563,  -1866,   7861,    923,    843,  -1869,    274,    279,   6732,   2065,   4766,    311,  -6671,   4739,  -4503,    499,  -4174,    119,  -1164,  -1113,   5005,   1259,   1430,  -1506,  -4734,  -5118,   8441,    567,  -1417,   7642,   1073,    397,   4393,  -8183,  -3294,   -353,   -961,  -2460,  -1963,    597,  -6888,   2330,   1576,     83,  -4942,   3505,  -2162,  -5468,   2659,  -3775,   6096,    287,  -3938,  -5005,  -1885,   -872,   2721,    -77,  -9478,
           824,  -6310,   3307,    112,   -655,  -6116,  -6033,  -2759,  -2919,   3995,    861,   -998,   1255,   -458,   5118,   1730,  -2637,   2538,  -4798,   3365,  -2080,   -472,   5320,  -8936,   -463,  -5588,     86,   3988,  -2300,  -2784,    725,   3000,  -3102,   5942,  -7111,   4533,   5452,   -311,  -7180,   3074,  -1990,    182, -10929, -10167,   2280,   4764,   5097,  -3305,   -200,  -4253,  -1339,    304,  -2700,   1159,   2994,  -6191,  -1984,  -5268,  -2167,  -3351,   -480,  -3553,    239,  -3451,  -2284,   7532,    542,   4686,    956,   7062, -11745,  -2951,  -2473,  -7195,  -1979,   1359,  -6035,  -4291,  -1629,   1448,  -2186,  -3971,   1551,   1210,  -1966,   2448,     13,    -93,  -2554,  -5115,  -7297, -17008,   -812,  10832,   4311,   2958,   -323,   2330,  10348,  11366,   2161,   1927,  -6361,   7416,    547,  -6676,  -1771,   5105,  -2270,    214,   3038,   3419,   1840,    214,   2541,  -3247,   -248,    317,   2586,   2535,    951,  -1093,  -7515,  -3200,   1572,  -1462, -14753,   5412,   -832,   3349,   2864,   1688,   -323,  -4343,    876,     89,    546,  -6216,   5141,   -837,     44,  -5596,   2726,  -2045,   -338,   2957,  -1162,   3910,  -3145,   4691,  -2540,   9643,  -1669,   6679,   4150,  11908,  -1401,   3492,    607,   4409,  -2095,   3670,  -2996,   5959,   3262,  -2429,  -4450,  -2960,  -1861,  -8093,  -5099,  -2179,  -1070,  -1834,  -2746,  -5335,  -1426,   2433,   -310,   8244,  -3415,  -3078, -10208,  11401,   -416,  -6642,  -1817,   1383,   -947,    509,  -2678,    -14,  -1393,   5558,  -7461,   -223,   2492,   3991,   7510,  -6403,    864,      3,  -6405,   6211,   1679,  -1147,   1946,   5147,   -419,  -2225,  -3878,   -745,  -3165,   6391,   3009,  -4341,    851,   -759,   4326,   9528,  -5347,  -2261,    928,    199,    -32,  -2995,  -3050,   1869,  -1029,  -1321,  -4892,  -3643,  -2391,  -2965,   2727,   1566,    471,  -2657,   2300,    370,    663,   -402,   6969,   3164,   2114,  -6907,   8859,   6184,   -373,    354,   1538,  -6150,   -947,  -1379,    270,   5318,  -1292,  -9188,   2318,   3426,  -1490,  -3891,    -39,   2184,   -719,    637,  -3407,  -3532,    905,  -2935,   3327,   5300,  -2213,   5161,   1652,   8067,   2477,  -3128,   3876,   4029,  -1956,  -4914,  -7820,   -418,  -3821,  -7518,  -6916,   6215,   -161,  -1507,  -2980,  -1954,   -556,   1934,   1329, -11141,  -3360,  -7643,  -7209,  -1044,  -3562,   3044,   4800,  -3174,   -815,   2462,   6014,   1587,   -767,  -3722,   1619,     34,  -2179,  -4035,   2520,  -7239,    780,  -3566, -10761,  -9941,  -2744,   2914,   3318,   2772,  -4869,  11212,  -7899,  -6062,  -2286,  -3427,   -373,   3921,   1705,  -1907,    953,  -3369,     34,  -2448,   3955,   1679,   2461,  -2493,   3676,   -299,  -1305,   -314,  -8472, -28299,  -6513,   4073,  -8829,   5307,    100,  -2028,  -6895,   1286,  -1398,   -541, -13052,  -1435,   -943,   1138,   3081,   6739,   1278,  -1980,   4460,   6219,    361,  -3321,  -4398,  -2236,  -5601,    580,    105,  -7181,  -1606,  -8791, -11749,  -1057,   3590,  -1411, -10682, -17973,   -276,  -6209,  -5301,  -6129,   -878,  -5956,  -1296,   -146,  -1419,  -6806,   -539,  -1676,  -1332, -14883,   1145,    722,    733,   2331, -10784,   3378,   -561,   -774,  -3472,   3376,   1265,   -588,   4252,   2707,  -3378,   3395, -18342,  -2714,   1332, -11011, -12631,  -4390,   1298,  -3270,   -449,  -6818,   -798,  -1186,    813,   3110,  -3535,  -2855,  -1817,    589,  -2728,  -7627,  -2505,  -4574,  -2341,  -3374, -12611,  -5328,   -637,  -7022,  -2084,  -1384,  -4052,   3982,  -7227,  -1685,  -1348,   6647,    784,   1342,  -2825,  -3543,   1584,   8296,   1598,   3195,  -3418,   3076,   1526,  -1604,   3572,   1478,   -226,  -2729,   2066,  -3048,  -2710,  -2988,  -2876,   3726,   1394,  -1006,   6029,   5991,  -4149,  -4329,   3814,   5075,  -2285,  -7229,   1909,  -2505,  -1142,  -2100,  -8151,  -3918,  -1859,   2868,  -1466,  -3226,  -1004,  -9230,   2002,   -750,    680,   2262,  -1687,   5942,  -4359,  -1039,   5901,   4208,  -3173,  -9489,  -7020,    735,  -4347,   -208,    650,  -8395,
         -2112,     60,   -153,  -5176,   1096,   1401,  -5281,    395,   1135,  -6314,  -8560,  -8090,  -5704,  -4821,  -3217,   -496,  -2369,   1903,  -1071,   3323,  -6573,   3422,    105,   -626,   -235, -10647,  -4466, -10112,  -1388,  -4800, -11826,   3603,   -538,  -6564,   -935,    -78,  -4737,   2734,  -2521,  -4272,  -3365,   2111,  -7756,   2270,    846,   4296,  -1684,  -7130,    138,   1504,   4873,  -1404,  -2607,   5017,  -8169,   -824,  -1571,  -1232,   3933,  -7201,   -469,  -5630, -10010,   -114,  -2670,  -5664,   -143,    -18,  -1006,   9621,  -2949,   4602,    182,   1967,   -407,     67,   -556,  -4108,   -525,  -3505,  -2439,    473,   4158,   1938,   1971,  -1179,  -1142,    263,    630, -11708, -17680, -10289,  -3625,   7056,  -1644,   2299,    373,  -1293,   -292,   8415,  -4052,   5663,  -9245,  -4709,  -1923,   4147,   1159,  -5813,   -936,   -353,   -880,  -1687,   -839, -12636,    299,  -1170,   -511,    264,  -4093,  -2003,   1732,   8298,   2261,   6025,  -1819,   3228,  -4821,  -1930,  -3883,  -8112, -10347,  -7074,  -5666,  -8084,  -7037,  -5537,   -744,  -6605,  -5402,   1323,   -274, -10653,  -2972,  -4844,    140,  -1845,  -7294,   7003,  -3242,   3423,   3112,  -1833,    -42,  -8920,   4040,  -6721,  -4248,   2459, -13912,   2787,    316,  -5771,  -9016,   1910,  -2954,  -2924,   2179,  -3587,  -2699,   7910,   2578,   2220,   -434,  -4407,  -5709,   -874,    795,  -2024,  -2839,   4952,   3206,   1086,  -2861,    666,   1388,  11389,   4677,   -372,  -2353,   1962,  -2671,   6359,   1490,  -2983,   2169, -10196,  -4542,   3510,  -1028,   -975,  -2953,  -2355,   -542,  -4468,    501,  -3457,     78,   1795,   -975, -11685,   -615, -11895,  -1542,   2635,  -9678,  -1387,   1692,    688,  -3724, -12671,  -6234,   1459, -10331,   -699,   1289,   1877,   3431,  -3281,    511,   -514,  -1761,   3363,   1606,  -8594,  -3534,  -6264,  -3240,  -1559,  -4213,   1467,   -957,  -3152,  -8554,   4323,  -3723,   5683, -11225,    537,  -3370,  -6464,   1802,   3190,   2052,   1788,  -3666,  -3066,    107,  -2467,   6125,   8655,  -1236,   3156,  -4877,  -1057,  -1097,   1622,  -3330,    316,   -134,    219,   5452,   2949,  -1933,   1150,   -883,   6170,   -560,  -3087,   7669,   3918,   -139,  -7626,  -1264,  -2130,   -851,  -2912,  10546,   5463,   -281,   1086, -10086,  -5631,   4898,   2961,  -6693,  -1055,  -1563,  -2672,  -3111,  -5367,    701,  -6703,   9066,  -9198,  -2079,  -1911,      1,   4434,  -1030,  -7762,   9992,  -3987,   1480,  -8127,  -3369,  -8737,  -2470,   1465,   6365,  -8103,    867,  11421,   4369,   2654,  -1419, -10126, -12495,  -8691,    220,  -5581,    389,   1081,  -2350,  -3179,   5077,    731,  -2701,  -1900,   2984,     64,   2797,    480,  -2884,   -790,    611,   1325, -12060, -15755,   -208,   3047,   7366,  -5445,  -1935,    263,  -8339,  -2560,  -1951,   3528, -10336,   3986,    532,  -3235,   1915,  13016,   -504,   1868,   8518,   3480,  -1522,  -1177,  -3341, -11880,  -1031,  -1995,   6368,  -4039,   1577,  -3556,  -4278,  -8580,   -587,   8258,   2430,  -7675,  -2083,   -782,   6114,   2869,   -628,   1736,   -747,   -277,  -1410, -10204,   3080,   1750,  -4182,  -4203,  -4990,   2167,   1724,   3214,  -7435,  -5522,   -271,   2932,   7863,    478,  -2159,    279,  -6009,   1759,    125,   9930,  -3358,   4328,    745,   1821,  -2762,   3163,   1610,  -8836,  -2962, -10824,  -1453,  -9221,   3077,   1740,  -3763,  -5380,   2095,    395,   1477,  -6031,    920,  -7591,   -683,   4507,     73,   5749,    774,  -2982,   1851,   7652,    863,  -4318,  -2947,  -4078,  -1603,   6457,  -7056,    814,  -4348,  -2195,   9924,   6031,   -232,  -1010,  -3508,  -1408,   4082,  -7032,   6207,    729,   1950,   3672,  -4454,  -7408,  -1831,   4873,  10454,   1757,  -3173,  -1958,   5922,  13812,  -7341,   6961,    236,   6719,   1555,  -5330,  -3475,  -4308,   -928,   2468,   -262,  -1830,    220,  -2111,   -226,  -8068,  -2220,  -7513,   1944,   2083,   -335,   2762,   -237,   5417,   1237,  -5379,   5208,   8160,   1167,  -2455,  -4001,  -4352,   -877,  -7639,   3492,  -9026,
           340,    -61,   3040,   -256,   2326,   1170,  -1247,  -2401,   1017,  -4778,   -544,  -5687,   3335,  -4885,  -2015,    137,   1373,   3497,  -4964,   4222,    828,  -4867,  -2314,   1527,  -3171,    -23, -10229,  -8368,  -4229,  -3562,  -4532,  -2887,   -593,  -1817,    864,  -4117,   2793,   4162,  -3572,  -1684,   -390,  -4357, -10030,  -1168,  -1959,  -7302,   2460,  -4417,    132,   4061,  -4267,    168,   -390,  -9589,  -7113,  -1380,  -1239,   1040,  -2853,  -5801,   2335,   4250,  -7676,  -5011,  -1421,    998,   3029,   -609,   -156,  -3234,  -3881,  -5012,  -3504,    540,   1076,   2279,    540,  -5227,     62,  -4514,   1031,  -4701,  -1184,   3217,    392,    -96,    146,  -4176,   1389,   1905,  -9087, -17051,  -2188,   3878,  -4552,  -8376,  -2248,  -9938,  -5348,   2715,  -2152,    -27,  -6442,  -8446,   -935,   1995,   -514,   1784,   -624,   2798,  -6400,  -1480,    910,  -2968,   5582,   3185,    459,  -6060,   3004,  -3660,  -2181,  -3247,    299,   3185,  -2638,   4819,  -5919,  -5967,  -3373,  -3483,  -1972, -11237,  -5939,   -526,   1118,  -2486,   -683,   -550,  -1371,   -966,  -1671,  -4807,  -2818,  -2642,  -1188,  -3156,  -5320,   9195,    157,   6345,  -2147,  -5524,  -1440,  -3156,   -750,  -6015,  -1417,  11387, -11157,   3097,    876,  -8964,  -2180,   5122,   -392, -11104,  -1684, -10642,  -3159,   -925,   -373,   2091,  -4900,  -1251,  -3295,  -2422,   1147,  -4347,    609,   3497,  -1339,   5955,  -5253,  -8780,    807,    455,    819,   3270,    987,  -3724,  -5507,  -6110,  -2203,   3618, -13976,   -379,   -599,  -3880,  -2659,   1025,   1589,  -1340,  -3877,  -6997,   2157, -10380,  -3646,  -2477,  -2043,  -1887, -13575,  -6579,  -4171,  -3559, -17613,   1347,   -202,   3734,   1406,  -5513,  -5434,   5556,  -4098,   2392,  -1776,    -11,    718,  -4132,  -3730,   2002,  -5561,  -4434,  -2622,  -1006,  -2755,  -9825,   2605,  -7248,  -6404,   1388,   1295,   6160,  -3396,  -4650,  -3875,   5082,  -7513,   8629,  -3739,  -1623,   3146,   7655,  -3558,  -2934,    187,   6911,  -1843,   2690,  -3209, -11801,   2164,   -503,  -7502,  -4867,  -1594,  -4542,   -787,  -4248,  -2281,    137,  -2049,  -2953,    -29,   -201,  -8512,  -8140,     50,   1072, -11117,  -4873,   1453,  -1022,    326,  -2804,  -3082,   -142, -16598,  -3130,  -1011,  -2004,   6185,     60,    400,  -4693,  -6813,   3819,  -2424,   6982,   1227,    744,  -1847,  -8083,  -3143,  -9601,      2,   3891,  -3452,  -2952,  -3331,   2009, -11585,   -412,   -246,   7175,   1583,  -1213,  -1920,    283, -23643,  -2974,   -724,  -6915,  12842,    998,    189, -10890,  -8768,   2478,  -2976,   6147,  -4376,  -2904,   3986,  -5962,  -4422,    327,   2169,  -1259,   3310,   2157,  -2271,    112,   2689,  -1020,   -452,    431,  -6467,  -7439,  -3389,    890,  -5808,   4795,   1635,   1589,  -1119,   6188,  -4277,   1347,  -6810,   2051,   1126,   6928, -11450,  -8100,   -961,   1788,  -1155,  -4765,    395,  -3744,   9937,    147,    240,  -6124,  -2256,   6735,   2519,   8128,   3003,   -349,    810,  -1578,  -7177,  -8212,  -1725,    854, -11199,  -8150,  -1644,   -788,  -4189,  -4818,  -2313,    903,  -3178,   3494,   1946,  -2383,  -8873,  -3412,  -1801,  -1905,   2794,   3810,  -4344,   4538,  -3585,   -981,  -2769,   1720,  11218,  -7358,  -6394,   8059,  -8859,   6630,  -2132,   2320,   -932,   4031,   -494,  -8780,  -1531,  -4936,  -2448,   7674,  -2782,  -3294,  -4144,  -4068,  -6133,    101,  -2789,   2157,   7745,   1805,   2745,   1465, -11797,  -4185,    699,  14906,   -313,   -757,  -1878,  -5154,    539,  -2873,  -2858,  -2835,  -5989,  -2230,    311,   3563, -15317,  -1519,   -376,  -4822,    353,     45,  -1198, -11266,  -5384,  -3036,   -574,   -299,  -2690,   -585,  -4566,   1054, -25194,  -1562,    544,   4541,  -6655, -14771,  -3091,   6275,  -5821,  -1282,   1733,  11942,   6379,  -2543,  -5224,    396, -10673,   2783,  -2519,   -677,   1252,  -4637,  -3211,  -5700, -11204,   2111,    269,  -7292,  -2748,  -4906,  -6819,     -4,   2325,  -1217,  -3437,    548,   9676,    229,    864,  -3820,  -1765,  -1725,
         -2452,   1576,    -76,  -6733,  -1916,  -2423,    441,  -1909,    197,   -293,  -2559,   3040,  -2473,  -4919,   -132,  -7510,   3174,  -1912,   1004,  -2418,  -2224,  -3165,  -2212,  -2139,    740,  -3732,     80,   2339,   2101, -12936,  -3490,  -4483,   3059,    733,  -5473,  -1003, -11383,   1873,   1163,   -122,  -3879,  -4232,    517,  -1094,  -6528,   -581,  -1576,   1400,   2518,  -2792,   1126,  -7578,  -1088,  -9628,    -99,  -1299,   6567,   1430,  -5468,  -2332,  -1769,  -1630,   1691,  -1464,  10691,   -931,  -6961,     -9,  10403,   7118,  -1399,    356,   1532,    -29,  -4104,  -3386,  -3586,   1208,    844,  -2199,   1602,   -650,    165,   1631,    586,  -4714,  -1045,  -5825,   3455,   -478,   9680,  -6344,  -2133,  -3292,    636, -13759,    -95,   2974,  -3096,    240,   1416,   5338,  -2137,  -7866,    889,  -2804,  -2454,  -4263,    328,  -1539,  -2172,   3235,  -6902,  -2226,    897,   2719,   4660,   6204,   -505,   2504,  -3457,   -199,   1270,  -5093,  -7117,   6001,   2157,   4445,  -4557,  -1451,   1455,   1961,  -5565,  -4686,    506,  -8081,  -2127,  -2159,  -3106,   -136,  -1773,  -4368,  -1039,  -1291,  -6673,   1440,   4023,     39,   2704,   8036,  -2063,   -121,   8084,    579,  -2021, -15668,  -5600,   3145,  -3727, -10203,   -989,  -3064,    829,   1936,  -2687,   7119,  -2269,  -5477,    420,  -2359,  -7765,  -9993,   1052,  -1074,    913,    696,  -3382,    432,  -2264,     68,   -959,   5965,   1024,   7016,  -3209,   1568,  -5307, -20132,   3062,  -1048,  -3450,  -1625,   3623,   -974,    341,  -4141,   2465, -11271,  -4435,   2428,   1412,    783,  -6680,   -351,  -4759,   2303,   2086,  -2112,   4140,  -3731,  -1628,  -8112,   1055,  -7141,  -3044, -13386,  -2365,   1950,   5807,  -2254,   4024,  -7643,  -2636,  -4078,  -2395,   1693,  -6878,  -9759,   3345,   1495,   2153,  -1812,   -942,  -1795,    810,   2358,  -2756,  -5258,   -486,  -8331,   6308,    596,  -2836,  -3029,  -6380,  -2183,   1950,  -5524,  -2953,  -2663,   3477,   5178,   1890,   6210,  -2396,   3946,  -1768,   1454,  -4409,  -2530,  -1613, -12253,  -4360,   1157,   -474,  -2400,  -3630,   5338,  -6918,  -6156,    850,  -4873,  -1277,  -1841,  -2051,    991,  -1591,  -5701,  -1361,  -7806,   5799,  -1455,    396,   1405,     36, -13848,   1234,   5746,  -3284,  -2530,   1617,  -3709, -10574,   6420,   -373,  -1884,   1842,   -469,   7972,  -1237,  -8139,  -4608,  -2234,  -5826,  -3100,  -1600,   4314,  -3428,   4168,  -3539,    847,   -870,   4373,    157,  -3374,  -2822,   5657,   -234,  -2168,  -1818,    152,    214,  -5035,    236,  -2103,   1450,   -938,  -1824,   1340,  -1665,  -3298,  -5897,   3867,    -86,    957,    535,   1091,   2415,    391,   3928,  -3995,   -441,  -1120,   -504,  -4153,  -1505,   6702,  -3115,  -2339,   2320,   1441,  -3527,  -8342,  -2207,  -1566,   3085,  -1885,   -446,   1026, -12464,  -3192,  -3058,  -1449,  -4079,   5260,  -3146,    471,   3619,  -5710,   -829,  -3567,   -677,  -4567,    632,   2192,   3794,   3480,  -3683,  -2712,  -1433,    296,   3184,   1164,  -2532,   1285,  -3644,  -5157,   2738,    -21,  -8383,   1250,  -6932,   3114,  -1840,  -2930,  -1720,   2024,  -5101,   -801,  -2781,  -8961,  -1420,   1756,   4084,  -3789,   6899,   -545,   1473,   4573,  -2729,  -2843, -12326,  -4589,   4119,    492,  -2821,  -1432,  -2548,  -1888,   1053,  -8142,  -1245,  -2338, -10098,    396,  -1053,  -2569,  -7870,   4158,  -6458,    524,   -542,  -2784,    972,  -2457,   -439,  -1297,   7789,    241,   1324,   1697,  -2611,  -1095, -21257,  -1392,  -2645,  -1823,  -1631,  -2465,  -3320,   3462,  -1402,   3224,  -8593,   -575,    751,   -586,  -3300,  -5761,   3590,  -4993,   1636,  -2228,   -437,  -2565,  -3829,   5415,  -8224,   6775,   -111,  -3252, -17816,     68,  -2378,    267,    -77,    658,  -5825,  -3562,  -4033,   3366,    749,  -5345,  -4556,   -168,   2186,   -897,  -2716,  -4825,  -4843,  -6523,   2574,  -5793, -12947,  -1246,  -4964,   2446,   -769,   -596,   2006, -15517,   2433,    433,  -3080,  -7144,  -3737,  -2182,    894,  -7967,    474,   1159,   4569,
          2426,    604,    539,   3530,    895, -14097,    219,   4973,   1967,  -1755,  -2550,   4359,  -3919,  -5636,  -2276,   1086,   -466,  -1703,    919,   1388,   1868, -11243,  -2623,   2505,   5702,    485,   1135,   -930,   4553, -13136,   1229,  -1273,   1129,  -4475,   4514,     41,  -9072,   5078,  -2678,  -4266,   4047,    118,   4284,   2068,   2172,  -7614,  -1573,  -8366,  -4049,  -1354,   5269,   3409,   1722,  -8846,   1137,    381,   -688,  -1028,  -4193,   -591,   5083,   6195,  -1001,  -5008,  -7645,  -2119,   -681,    191, -12932,   4195,    498,  -3481,   1899,  -1853,  -3436,   -544,   5316,  -1918,   -260,   1352,   -577,    883,   1583,   1619,   -229,   1553,  -1583,  -1862,   6424,   -791,  11253,  -5494,   1423,  -8390,   -623,  -8513,   5818,   -195,   6463,    125,  -2747,  -1326,  -2410, -13050,    426,  -2821,   6111,   1649,   4162,  -9895,  -1235,   4534,   2077,  -1512,   1234,   1490,  -5155,  -4187,  -1726,    -11,  -3193,   -905,   3555,  -1337,   2685,   7428,   1650,  -1091,   5184,   -192,  -3088,   2587,   2180,  -6776,  -2120,  -3297,  -1030,    147,  -5775,  -4275,   5037,   1522,  -1355,  -2414,   3135,  -1048,  11453,  -4525,     81,   2237,  -1580,  -1530,    -84,  -2152,    264,  -7524,  -1071,   6677,  -1455,  -1438,   4379,   1415,  -1816,   3912, -10187,  -6982,   1801,  -8819,   1635,   -895,  -4578,  -3206,   4427,  -6309,    317,   3960,  -4376,  -2882,   1461,   -587,   2904,   4748,   1794,  -2357,   3148,    647,  -4230,  -7090,  -4275,  -6198,  -3721,   3619, -11048,  -2071,   1959,    111,   4937,  -4295,   -629,   3800,    337,  -1859,  -5886,   2876,  -8727,    432,  -1138,  -4524,  -6461,  -3735,  -3324,  -1220,   4313,  -1608,   1815, -12797,   7734,  -2521,   3316,   6958,    512,  -1607,  -2117,   1393,  -3013,  -1644,  -1309,   2834,   1297,   3533,  -2077,  -1847,  -1416,  -1978, -10364,   5750,  -5560,  -7430,   1241,  -5354,   3261,     39,  -2740,   5291, -15168,   3994,   -432,  -2488,  -1790,  -2686,   -718,   1702,  -1975,   -409,  -1147,  -2164,  -4609,  -3634,   3484,  -6935,   4504,    644,  -3767,   -666,   -330,  -3592,    489,   2168,  -7341,  -2526,  -3192,   -978,   3518,  -3167,  -1961,   -303,  -2042, -22835,  -2792,   2730,   8723,  -2825,   6086,    856,    655, -17059,  -1366,   1849,   -379,  -1938,  -4176,  -5981,  -3201,   6504,    273,   1815,   -603,    -18,    -72,  -1888,  -5240,   -704,  -3094,   -447,  -2024,   1096,  -3802,  -6290,   2009,  -4789,  -3071,   -531,  -3177,   1448,  -3666,   1491,  -3236,   -548,  -2666,   -356,   9521,  -3462, -12440,  -3555,   9401,   1397,    400,  -3908,  -2613,   1047,  -4744,   -671,  -1188,  -2166,  -3755,  -5232,  11249,    424,  -2839,   -945,   2146,  -6212,    868,  -1156,  10334,  -2641,   4281,  -2828,  -8518,    574,   -114,  -4145,  -3761,   1568,   1348,  -6958,   -270,  -1133,  -1005,  -5772,    497,    136,   -151,  -6611,   1616, -16218,  -3864,   1416,   4902,   -929,   -674,    -14,   -114,   3542,  -1901,   3472,  -1556,    721,   -102,    162,   1679,    402,  -2670,   5814,  -2536,    962,   -559,  -1308,    734,   3471,    707,  -4625,  -4437,   -578,    197,  -1578,  -1055,   -117,   1841,   -247,   1499,  -3409,   6387,   1637,  -8091,   3401,   -404,   6588,   1948,  -1368,  -5737,  -2675,  -2478,   3540,   -932,  -4568,   -994,  -2815,   -472,   3144,  -1078,   1033,    188,  -4113,  -3721,    971,  -1351,  -7897,   2886,   1129,  -1942,  -3859,  -2677,   -361,  -3557,  -2316,   -493,   5120,  -3726,   5941,  -2782,  -2534,   6480, -13027,   3783,   5745,  -5291,  -1874,   3548,    807,  -5865,  -3425,    110, -10245,  -4926,   4324,   2004,    310,  -4056,   1188,  -1805,  -1996,  -2072,   2203,   6432,   -583,   -463,  -5059,   2438,   -920,  -2913,  -6229,   1920,    899,   5853,    -19,   2345,  -9621,  -1790,  -2291,  -1984,     63,   2544,  -5947,    793,   -630,  -4043,  -2878,  -3551,  -4485,   1477,    117,  -5530,   -314,  -1576,  -7824,    927,  -2885,  -5870,   2532,  -6671,  -3503,   4983,  -4476,   5562,  -2299,   3083,   2173,   1812,   2429,  -2132,   3112,
         -2413,  -1187,   1905,  -5874,   1344,  -1989,  -3592,   3332,   1064,  -3649,  -1612,   -604,   1262,   2136,  -2362,  -3444,  -3476,  -1036,  -2079,   4152,   1356, -10667,  -3021,   6085,   5672,  -1267,   5665,  -2551,   1845, -19398,   -154,  -1048,  -3901,  -1691,   1033,  -7423,  -8995,   4831,    274,   -609,  -3789,   -189,     68,  -1749,  -3753, -12979,    496,   -674,   2252,  -1342,    283,    433,  -1176,  -3116,    722,    999,   7438,  -3316,    -56,  -8712,  -2077,   2846,    791,   -444,   6316,  -3702, -14235,  -1495,   1181,   -333,  -2747,  -2922,    999,   1067,  -2880,  -2114,   1517,  -7068,   1164,  -1315,   2658,  -3524,  -2314,    181,   1213,  -3687,    -58,  -1816,   8536,  -1296,   1213,    321, -13757,  -1812,    590,   -131,    233,   1020,    709,  -2422,   -212,   -741,   1269,  -8512,  -2089,    -80,    616,   3831,   4685, -11961,  -4114,   7144,  -4401,  -1479,  -1877,  -1880,  -2048,   1159,  -3299,  -1379,   -974,  -2705,    655,  -3379,   2503,   1958,    271,  -3103, -10592,  -1490,   1321,  -1367,   -213,   4312,   -996,  -7549,  -2163,  -2992,   -222,  -2496,    -87,  -2381,    361,  -4272,  -3579,  -1539,    114,  -2040,  -7039,   3746,  -2562,   5846,   4559,   -528,    282, -12436,  -7548,   8844,  -1161,  -2534,  -6707,   1203,   2508,   -569,  -4835,   2417,   -350,  -3570,   3569,     44,   -748,  -2273,  -1716,  -6168,   -386,   2402,   -233,    648,  -7861,  -5177,  -1272,   3470,    964,   -503,    438,   1548,   5924,  -7673,  -5439,    529,  -4990,     65,   6092,  -1966,   -395,   -322,   2434,  -5916,  -4397,   6283,    786,  -2299,  -7778,  -1251,  -2093,   -954,    639,     12,   5833,  -3435,   1853, -12848,  -2189,   5386,  -2662,  -9094,  -9904,     41,    503,    898,   2054,  -5664,   1789,     75,   1709,   1747,   2132,  -9336,  -4444,   4198,  -2797,  -2502,  -4392,  -1623,  -6821,  -1974,  -4803,  -6585,  -2390, -13887,  -4635,  -3425,  -3342,  -4851,  -9428,   1369,   1774,  -6294,  -3002,  -2090,  -3995,  -3460,   -506,  -3065,   1518,  -3021,   2533,    896,   1612,   1111,  -1951,  -1407,  -1152,   2946,    208,  -2923,  -4738,  -2525,    -91,  -4331,   1496,  -2479,  -2994,  -4043,  -4753,   1796,  -2000,  -5458,   1080,    337,   5194,   -647,   6419,  -3726,   2230, -16864,   -277,  -3304,   3145,  -2094,   1543,   1249,  -6910,   1293,  -2423,   1565,   4316,   -830,    704,  -2263,  -2432, -14833,   1379,  -8195,   -645,    -41,   -707,   1177,    715,  -1573,  -2200,      2,   7678,   -619,  -8596,  -2808,   5359,  -3320,    146,    317,  -6707,   -101, -13350,    515,    841,   1766,   -105,  -3042,  -1004,    312,  -6071,   1269,    -71,  -7268,  -3051,   2584,  -1210,  -1815,    -83,   2929,   1313,   -863,  -1170,  -4520,   1328,   -190,   1871,  -3377,  -5006, -11872,  -2798,  -2541,  -2936,   -577,   5159,   -194,   2363,  -1598,  -2027,  -4024,  -6089,   1390,    175,     89,   5530,  -1530,  -4273,   -307,  -4076,    262,   1244,   2682,  -1599,  -7076,    532,   3305,   -606,   -642,  -1177,   4344,   2760,  -1109,    948,  -5090,   6585,   1044,  -4583,   -344,    238,  -3476,    484,  -5360,   6506,  -2559,  -7274,    867,  -2117,  -3711,    717,  -1810,  -3378,  -1431,   5133,   2365,   1286,   1232,    126,  -2158,   -228,  -2304,   1226,  -1874,  -1876,  11366,    569,   5193,   2146,  -2646,   -638,  -1081,  -5366,  -1041,  -2815,  -6992,   2880,    196,  -3512,    981,   2227,  -2277,   -550,   3239,  -2321,   1504,  -5923,   2226,   4164,   4517,  -1870,   2717,   2640,   2351,   1218,  -1251,  -6136,   1505,   -323,   6675,   3243,  -4871,  -2473,    318,   5512,  -8417,  -2856,    -57,  -5594,  -2082,  -6704,  -5729,  -5856,  -1972,    311,  -1685,   4321,    -36,  -4630,  -4998,   -655,  -6274,  -1543,  -1761,  -6078,  -1111,   2619,  -1512,    689,  -1827,   1515,  -1738,   2587,  -1542,  -3071,    749,    794,   5492,   -554,   1148,    502,  -1774,  -3251,   1261,  -5244,  -1827,   2012, -10231,  -7000,   -909,  -4576,  -4852,  -5924,   6598,    907,    641,  -1198,  -2466,   -972,   2827,   3553,  -4879,    250,   -366,
          3299,    957,   5133,   -118,  -1115,  -1587,  -4697,  -1515,   -558,  -2539,   5567,  -2541,  -3239,   2305,   -823,  -2985,  -1125,  -3200,  -2128,   3925,   1267, -10054,    343,   5310,   6747,  -3278,   1963,   -931,  -5967, -11741,     22,  -1222,   1529,    563, -12216,  -2873,  -8621,  -3162,   -972,   5578,    562,   -203,  -7185,  -1514,  -4768,  -1092,  -1917,  -1300,    280,  -2405,   -759,    452,   1664,  -5840,  -1374,   2210,  -9038,  -3252,  -8693,  -1271,  -2388, -18263,  -1496,  -1193,   2455,  -1679,   -520,  -5492,  12693,  -1076,  -2324,     21,   -538,  -1765,   3855,   1620,  -2541,  -4722,    408,  -4819,   6490,   1696,   2448,   1216,   2739,  -4941,    451,  -4090,   9124,  -2217, -15943,     75,  -4038,   1313,  -3609,   1721,   2142,  -1606,  -9386,  -9919,    769,   2398,  -2035,   -336,  -4149,   1170,   4835,   5074,  -1349,  -5378,  -3664,   5726,   6371,   -789,  -2672,   -809,    212,   3360,      6,   2433,  -9238,  -3503, -15089,   1392,  -4296, -10999,  -1705,  -1079,   6054,  -3124,   7192,   -995,  -2375,     -5,   -751,  -1662,   -955,    362,   6813,   -721,   1793,    183,   1369,  -2444,    -66,  -1317,  -7641,  -3646,   2303,   4718,   -325,   7457,  -6837,  -2621,   4794,  -2119,   3635,   7766,  -2023,   -266,   1437,   1274,  -1170,  -2682,   8795,   4215,    584,  -1041,  -1284,   -126,   3722,    945,   2253,   2355,  -2275,  -3066,  -3870,  -2622, -16545,    459,  -3010,  -7386,     96,    346,   4024,  -2671,  -2292,  -1371,   5195,   5673,  -3383,  -3710,     98,  -1058,  -5010,  -1085,   1756,  -5683,   -170,   4258,  -2352,  -2981,   5338,   3707,  -2469,  -4042,  -3268,   3535,   3587,  -2978,  -2361,  -7016,   6178,  -2228,   1210,  -7633,   5484,  -1084,   7161,   5280,  -1040,  -1510,  -2573,  -2421,  -7022,    -37,   3788,  -7090,   2274,  -1402,   1439, -11480,  -2310,  -1001,   4604,  -9778,  -1179,   6981,   1638,  -7636,   2302,   -523,  -2359,  -2381,   1131,   1469,    721,  -2679,   3329,  -2358,  -6108,  -1368,    892,   1955,    -39,  -2415,   1385,  -1287,   8562,  -1049,  -8490,  -3623,  -3371,  -2163,    669,   1855,   4463,  -6708,  -4434,   1109,   -430,   2118,   2154,   -121,  -1003,  -2577,  -4333,  -9639,    671,  -1931,   4939,  -2996,   2840,  -3985,  -4502, -15687,  -1055,   2604,   -800,  -1408,  -9711,   -511,  -8217,   3601,   -142,   7301,   -339,  -2990,  -6726,   1886,  -1630,  -9633,    101,  -1641,    419,  -3013,  -2825,  -6533,    690,   1241,    709,   1208,   4613,  -1029,  -5034,   2327,   -291,  -7463,    473,   1093,   3309,   1279,  -7202,  -3494,  11714,   3111,  -3543,  -5784,  -1853,   2214,   1920,  -2746,  -1092,  -6257,  -2819,   2128,   7245,  -3462,   -422,    400,   2911,  -2907,   2332,  -2635,  19415,   -683,  -9688,   1124, -12943,   1776,  -2475,  -5461,   2570,  -3002,  -4871,  -5679,  -3882,    453,  -2506,   3434,  -1409,   -908,   1366,    288,  -5011,  -3019,  -1168,  -1238,   7604,    381,  -1210,   3202,  -2885,   -297,  -3712,   -382,  -4964,  -2117, -20281,   5169,  -3958, -19817,   -130,   3802,  -1175,  -2313,   5596,  -4537,  -2094,   3843,  -3424,  -5299,  -4111,  -2974,   5290,  -1980,  -3183,  -6491,    951,  -2647,   1281,  -1896, -14771,   1182,  -2280,   4749,   1959,   3056,  -3963,  -1234,   1637,   1136,   1197,   8920,  -2313,   1623,   1227,   -606,  -2003,  -4262,   2059,   5611,   1118,  -2492,    738,   -779,   -473,  -1761,  -1220,   -613,   -137,   -953,  -5034,  -3447, -11051,   2369,  -2293,  -6266,  -1158,   3773,   3353,   -608,   4093,  -2965,   4223,   9791,  -1013,  -3830,   -520,  -1903, -10536, -11607,   1354,  -4055,   -331,   -871,   -719,  -3180,   4355,  -1453,  -1988,  -7137,    429,   -305,   4538,  -1478,  -8899,  -8526,   5343,   3840,   1724,  -7660,   3515,   -356,   8861,  -3800,  -9322,  -3138,   -640,  -5327,   -449,   1288,   4284,  -2039,    698,   3936,  -2589,  -1639,  -2758,  -2705,   5629,  -8241,  -4356,   2357,  -3428,  -9457,   1245,  -2888,   1050, -11084, -12017,   8316,   2785,   3942,   7650,   -707,  -6933,   3266,    167,   -119,  -3126,   4540,
